{"learner":{"attributes":{"scikit_learn":"{\"_estimator_type\": \"regressor\"}"},"feature_names":["num_carts_full","num_carts_empty","num_carts_maintenance","num_carts_full_lag1","num_carts_empty_lag1","num_carts_maintenance_lag1","num_carts_full_roll_mean","num_carts_empty_roll_mean","num_carts_maintenance_roll_mean","num_carts_full_roll_std","num_carts_empty_roll_std","num_carts_maintenance_roll_std","num_carts_full_diff1","num_carts_empty_diff1","num_carts_maintenance_diff1"],"feature_types":["int","int","int","float","float","float","float","float","float","float","float","float","float","float","float"],"gradient_booster":{"model":{"cats":{"enc":[],"feature_segments":[],"sorted_idx":[]},"gbtree_model_param":{"num_parallel_tree":"1","num_trees":"600"},"iteration_indptr":[0,1,2,3,4,5,6,7,8,9,10,11,12,13,14,15,16,17,18,19,20,21,22,23,24,25,26,27,28,29,30,31,32,33,34,35,36,37,38,39,40,41,42,43,44,45,46,47,48,49,50,51,52,53,54,55,56,57,58,59,60,61,62,63,64,65,66,67,68,69,70,71,72,73,74,75,76,77,78,79,80,81,82,83,84,85,86,87,88,89,90,91,92,93,94,95,96,97,98,99,100,101,102,103,104,105,106,107,108,109,110,111,112,113,114,115,116,117,118,119,120,121,122,123,124,125,126,127,128,129,130,131,132,133,134,135,136,137,138,139,140,141,142,143,144,145,146,147,148,149,150,151,152,153,154,155,156,157,158,159,160,161,162,163,164,165,166,167,168,169,170,171,172,173,174,175,176,177,178,179,180,181,182,183,184,185,186,187,188,189,190,191,192,193,194,195,196,197,198,199,200,201,202,203,204,205,206,207,208,209,210,211,212,213,214,215,216,217,218,219,220,221,222,223,224,225,226,227,228,229,230,231,232,233,234,235,236,237,238,239,240,241,242,243,244,245,246,247,248,249,250,251,252,253,254,255,256,257,258,259,260,261,262,263,264,265,266,267,268,269,270,271,272,273,274,275,276,277,278,279,280,281,282,283,284,285,286,287,288,289,290,291,292,293,294,295,296,297,298,299,300,301,302,303,304,305,306,307,308,309,310,311,312,313,314,315,316,317,318,319,320,321,322,323,324,325,326,327,328,329,330,331,332,333,334,335,336,337,338,339,340,341,342,343,344,345,346,347,348,349,350,351,352,353,354,355,356,357,358,359,360,361,362,363,364,365,366,367,368,369,370,371,372,373,374,375,376,377,378,379,380,381,382,383,384,385,386,387,388,389,390,391,392,393,394,395,396,397,398,399,400,401,402,403,404,405,406,407,408,409,410,411,412,413,414,415,416,417,418,419,420,421,422,423,424,425,426,427,428,429,430,431,432,433,434,435,436,437,438,439,440,441,442,443,444,445,446,447,448,449,450,451,452,453,454,455,456,457,458,459,460,461,462,463,464,465,466,467,468,469,470,471,472,473,474,475,476,477,478,479,480,481,482,483,484,485,486,487,488,489,490,491,492,493,494,495,496,497,498,499,500,501,502,503,504,505,506,507,508,509,510,511,512,513,514,515,516,517,518,519,520,521,522,523,524,525,526,527,528,529,530,531,532,533,534,535,536,537,538,539,540,541,542,543,544,545,546,547,548,549,550,551,552,553,554,555,556,557,558,559,560,561,562,563,564,565,566,567,568,569,570,571,572,573,574,575,576,577,578,579,580,581,582,583,584,585,586,587,588,589,590,591,592,593,594,595,596,597,598,599,600],"tree_info":[0,0,0,0,0,0,0,0,0,0,0,0,0,0,0,0,0,0,0,0,0,0,0,0,0,0,0,0,0,0,0,0,0,0,0,0,0,0,0,0,0,0,0,0,0,0,0,0,0,0,0,0,0,0,0,0,0,0,0,0,0,0,0,0,0,0,0,0,0,0,0,0,0,0,0,0,0,0,0,0,0,0,0,0,0,0,0,0,0,0,0,0,0,0,0,0,0,0,0,0,0,0,0,0,0,0,0,0,0,0,0,0,0,0,0,0,0,0,0,0,0,0,0,0,0,0,0,0,0,0,0,0,0,0,0,0,0,0,0,0,0,0,0,0,0,0,0,0,0,0,0,0,0,0,0,0,0,0,0,0,0,0,0,0,0,0,0,0,0,0,0,0,0,0,0,0,0,0,0,0,0,0,0,0,0,0,0,0,0,0,0,0,0,0,0,0,0,0,0,0,0,0,0,0,0,0,0,0,0,0,0,0,0,0,0,0,0,0,0,0,0,0,0,0,0,0,0,0,0,0,0,0,0,0,0,0,0,0,0,0,0,0,0,0,0,0,0,0,0,0,0,0,0,0,0,0,0,0,0,0,0,0,0,0,0,0,0,0,0,0,0,0,0,0,0,0,0,0,0,0,0,0,0,0,0,0,0,0,0,0,0,0,0,0,0,0,0,0,0,0,0,0,0,0,0,0,0,0,0,0,0,0,0,0,0,0,0,0,0,0,0,0,0,0,0,0,0,0,0,0,0,0,0,0,0,0,0,0,0,0,0,0,0,0,0,0,0,0,0,0,0,0,0,0,0,0,0,0,0,0,0,0,0,0,0,0,0,0,0,0,0,0,0,0,0,0,0,0,0,0,0,0,0,0,0,0,0,0,0,0,0,0,0,0,0,0,0,0,0,0,0,0,0,0,0,0,0,0,0,0,0,0,0,0,0,0,0,0,0,0,0,0,0,0,0,0,0,0,0,0,0,0,0,0,0,0,0,0,0,0,0,0,0,0,0,0,0,0,0,0,0,0,0,0,0,0,0,0,0,0,0,0,0,0,0,0,0,0,0,0,0,0,0,0,0,0,0,0,0,0,0,0,0,0,0,0,0,0,0,0,0,0,0,0,0,0,0,0,0,0,0,0,0,0,0,0,0,0,0,0,0,0,0,0,0,0,0,0,0,0,0,0,0,0,0,0,0,0,0,0,0,0,0,0,0,0,0,0,0,0,0,0,0,0,0,0,0,0,0,0,0,0,0,0,0,0,0,0,0,0,0,0,0,0,0,0,0,0,0,0,0,0,0,0,0,0,0,0,0,0,0,0,0,0,0,0,0,0,0,0,0,0,0,0,0,0,0,0,0,0],"trees":[{"base_weights":[1.7141897E-2,-2.0996826E0,2.344853E0,-3.8611982E0,-1.142744E0,1.6749197E0,4.2216587E0,-1.731015E-1,-1.2827484E-1,-8.4395096E-2,-2.9863082E-2,2.9711513E-2,8.340338E-2,1.4022718E-1,1.9979538E-1],"categories":[],"categories_nodes":[],"categories_segments":[],"categories_sizes":[],"default_left":[0,0,0,0,0,0,0,0,0,0,0,0,0,0,0],"id":0,"left_children":[1,3,5,7,9,11,13,-1,-1,-1,-1,-1,-1,-1,-1],"loss_changes":[6.771174E4,1.2126797E4,8.221594E3,7.5828906E2,1.7855171E3,1.8428984E3,9.344082E2,0E0,0E0,0E0,0E0,0E0,0E0,0E0,0E0],"parents":[2147483647,0,0,1,1,2,2,3,3,4,4,5,5,6,6],"right_children":[2,4,6,8,10,12,14,-1,-1,-1,-1,-1,-1,-1,-1],"split_conditions":[1.5E1,1.2E1,1.8E1,1.1E1,1.3E1,1.6E1,1.8333334E1,-1.731015E-1,-1.2827484E-1,-8.4395096E-2,-2.9863082E-2,2.9711513E-2,8.340338E-2,1.4022718E-1,1.9979538E-1],"split_indices":[1,1,1,1,1,1,7,0,0,0,0,0,0,0,0],"split_type":[0,0,0,0,0,0,0,0,0,0,0,0,0,0,0],"sum_hessian":[1.374E4,7.196E3,6.544E3,2.532E3,4.664E3,4.824E3,1.72E3,1.475E3,1.057E3,1.354E3,3.31E3,1.475E3,3.349E3,8.96E2,8.24E2],"tree_param":{"num_deleted":"0","num_feature":"15","num_nodes":"15","size_leaf_vector":"1"}},{"base_weights":[1.5733702E-2,-2.0145154E0,2.2845001E0,-1.0960538E0,-3.6942065E0,1.6314249E0,4.0372505E0,-2.8716289E-2,-8.161561E-2,-1.2347603E-1,-1.6540752E-1,8.085404E-2,2.8701734E-2,1.3486382E-1,1.8998677E-1],"categories":[],"categories_nodes":[],"categories_segments":[],"categories_sizes":[],"default_left":[0,0,1,0,0,1,0,0,0,0,0,0,0,0,0],"id":1,"left_children":[1,3,5,7,9,11,13,-1,-1,-1,-1,-1,-1,-1,-1],"loss_changes":[6.3514375E4,1.1221926E4,7.4469844E3,1.6787607E3,6.753242E2,1.6894951E3,8.211289E2,0E0,0E0,0E0,0E0,0E0,0E0,0E0,0E0],"parents":[2147483647,0,0,1,1,2,2,3,3,4,4,5,5,6,6],"right_children":[2,4,6,8,10,12,14,-1,-1,-1,-1,-1,-1,-1,-1],"split_conditions":[1.5E1,1.4E1,1.8E1,1.3E1,1.5E1,1E1,1.9E1,-2.8716289E-2,-8.161561E-2,-1.2347603E-1,-1.6540752E-1,8.085404E-2,2.8701734E-2,1.3486382E-1,1.8998677E-1],"split_indices":[4,3,4,3,3,3,4,0,0,0,0,0,0,0,0],"split_type":[0,0,0,0,0,0,0,0,0,0,0,0,0,0,0],"sum_hessian":[1.3787E4,7.276E3,6.511E3,4.705E3,2.571E3,4.745E3,1.766E3,3.361E3,1.344E3,1.085E3,1.486E3,3.325E3,1.42E3,9.16E2,8.5E2],"tree_param":{"num_deleted":"0","num_feature":"15","num_nodes":"15","size_leaf_vector":"1"}},{"base_weights":[-2.0765781E-2,-1.9382863E0,2.1556745E0,-3.5452514E0,-1.0551617E0,1.1741899E0,3.2832406E0,-1.5979865E-1,-1.17786005E-1,-7.852297E-2,-2.757158E-2,2.5518619E-2,6.260768E-2,1.1066719E-1,1.8452184E-1],"categories":[],"categories_nodes":[],"categories_segments":[],"categories_sizes":[],"default_left":[0,0,0,0,0,0,0,0,0,0,0,0,0,0,0],"id":2,"left_children":[1,3,5,7,9,11,13,-1,-1,-1,-1,-1,-1,-1,-1],"loss_changes":[5.7604992E4,1.0409527E4,7.1504434E3,6.903418E2,1.571918E3,7.2380225E2,2.0527695E3,0E0,0E0,0E0,0E0,0E0,0E0,0E0,0E0],"parents":[2147483647,0,0,1,1,2,2,3,3,4,4,5,5,6,6],"right_children":[2,4,6,8,10,12,14,-1,-1,-1,-1,-1,-1,-1,-1],"split_conditions":[1.5E1,1.2E1,1.7E1,1.1E1,1.3E1,1.6E1,1.9E1,-1.5979865E-1,-1.17786005E-1,-7.852297E-2,-2.757158E-2,2.5518619E-2,6.260768E-2,1.1066719E-1,1.8452184E-1],"split_indices":[1,1,1,1,1,1,1,0,0,0,0,0,0,0,0],"split_type":[0,0,0,0,0,0,0,0,0,0,0,0,0,0,0],"sum_hessian":[1.3801E4,7.337E3,6.464E3,2.601E3,4.736E3,3.457E3,3.007E3,1.484E3,1.117E3,1.359E3,3.377E3,1.459E3,1.998E3,2.168E3,8.39E2],"tree_param":{"num_deleted":"0","num_feature":"15","num_nodes":"15","size_leaf_vector":"1"}},{"base_weights":[-2.0276455E-3,-1.8707844E0,2.0766418E0,-3.4343877E0,-9.959915E-1,1.1417434E0,3.1448214E0,-1.5297006E-1,-1.1439542E-1,-5.5933446E-2,-1.0671747E-2,2.630792E-2,6.022696E-2,1.07453175E-1,1.7542665E-1],"categories":[],"categories_nodes":[],"categories_segments":[],"categories_sizes":[],"default_left":[0,0,0,0,0,0,0,0,0,0,0,0,0,0,0],"id":3,"left_children":[1,3,5,7,9,11,13,-1,-1,-1,-1,-1,-1,-1,-1],"loss_changes":[5.361423E4,9.937516E3,6.52109E3,5.723047E2,1.3672393E3,6.128833E2,1.7221426E3,0E0,0E0,0E0,0E0,0E0,0E0,0E0,0E0],"parents":[2147483647,0,0,1,1,2,2,3,3,4,4,5,5,6,6],"right_children":[2,4,6,8,10,12,14,-1,-1,-1,-1,-1,-1,-1,-1],"split_conditions":[1.5E1,1.2E1,1.7E1,1.1E1,1.4E1,1.6E1,1.9E1,-1.5297006E-1,-1.1439542E-1,-5.5933446E-2,-1.0671747E-2,2.630792E-2,6.022696E-2,1.07453175E-1,1.7542665E-1],"split_indices":[1,1,1,1,1,1,1,0,0,0,0,0,0,0,0],"split_type":[0,0,0,0,0,0,0,0,0,0,0,0,0,0,0],"sum_hessian":[1.38E4,7.267E3,6.533E3,2.606E3,4.661E3,3.485E3,3.048E3,1.549E3,1.057E3,3.003E3,1.658E3,1.497E3,1.988E3,2.228E3,8.2E2],"tree_param":{"num_deleted":"0","num_feature":"15","num_nodes":"15","size_leaf_vector":"1"}},{"base_weights":[-1.7141787E-2,-1.8220634E0,1.9950986E0,-9.9503195E-1,-3.284029E0,1.408553E0,3.629169E0,-2.6008394E-2,-7.2552584E-2,-1.097404E-1,-1.4684547E-1,7.1054295E-2,2.408411E-2,1.9103177E-1,1.3167442E-1],"categories":[],"categories_nodes":[],"categories_segments":[],"categories_sizes":[],"default_left":[0,0,1,0,0,0,0,0,0,0,0,0,0,0,0],"id":4,"left_children":[1,3,5,7,9,11,13,-1,-1,-1,-1,-1,-1,-1,-1],"loss_changes":[4.9950008E4,8.762221E3,6.2272285E3,1.3063467E3,5.372832E2,1.4185938E3,6.475488E2,0E0,0E0,0E0,0E0,0E0,0E0,0E0,0E0],"parents":[2147483647,0,0,1,1,2,2,3,3,4,4,5,5,6,6],"right_children":[2,4,6,8,10,12,14,-1,-1,-1,-1,-1,-1,-1,-1],"split_conditions":[1.4333333E1,1.4E1,1.7333334E1,1.3E1,1.5E1,1E1,6E0,-2.6008394E-2,-7.2552584E-2,-1.097404E-1,-1.4684547E-1,7.1054295E-2,2.408411E-2,1.9103177E-1,1.3167442E-1],"split_indices":[7,0,7,0,0,0,0,0,0,0,0,0,0,0,0],"split_type":[0,0,0,0,0,0,0,0,0,0,0,0,0,0,0],"sum_hessian":[1.3751E4,7.249E3,6.502E3,4.631E3,2.618E3,4.786E3,1.716E3,3.26E3,1.371E3,1.096E3,1.522E3,3.286E3,1.5E3,3.87E2,1.329E3],"tree_param":{"num_deleted":"0","num_feature":"15","num_nodes":"15","size_leaf_vector":"1"}},{"base_weights":[-5.6583416E-3,-1.728028E0,1.927282E0,-3.1376684E0,-9.4434077E-1,1.0368457E0,2.9443421E0,-1.4100793E-1,-1.0347741E-1,-7.091114E-2,-2.412327E-2,2.2927288E-2,5.4936357E-2,1.00232646E-1,1.6410337E-1],"categories":[],"categories_nodes":[],"categories_segments":[],"categories_sizes":[],"default_left":[0,0,0,0,0,0,0,0,0,0,0,0,0,0,0],"id":5,"left_children":[1,3,5,7,9,11,13,-1,-1,-1,-1,-1,-1,-1,-1],"loss_changes":[4.617318E4,8.098623E3,5.914824E3,5.494453E2,1.3316797E3,5.430154E2,1.5382109E3,0E0,0E0,0E0,0E0,0E0,0E0,0E0,0E0],"parents":[2147483647,0,0,1,1,2,2,3,3,4,4,5,5,6,6],"right_children":[2,4,6,8,10,12,14,-1,-1,-1,-1,-1,-1,-1,-1],"split_conditions":[1.5E1,1.2E1,1.7E1,1.1E1,1.3E1,1.6E1,1.9E1,-1.4100793E-1,-1.0347741E-1,-7.091114E-2,-2.412327E-2,2.2927288E-2,5.4936357E-2,1.00232646E-1,1.6410337E-1],"split_indices":[1,1,1,1,1,1,1,0,0,0,0,0,0,0,0],"split_type":[0,0,0,0,0,0,0,0,0,0,0,0,0,0,0],"sum_hessian":[1.3867E4,7.333E3,6.534E3,2.619E3,4.714E3,3.485E3,3.049E3,1.534E3,1.085E3,1.374E3,3.34E3,1.467E3,2.018E3,2.214E3,8.35E2],"tree_param":{"num_deleted":"0","num_feature":"15","num_nodes":"15","size_leaf_vector":"1"}},{"base_weights":[-8.590496E-3,-1.6619412E0,1.8160911E0,-9.1148216E-1,-3.0108995E0,2.7571654E0,9.7057796E-1,-5.133716E-2,-9.750512E-3,-1.00158095E-1,-1.3504954E-1,9.424158E-2,1.5531832E-1,5.2455816E-2,2.2140916E-2],"categories":[],"categories_nodes":[],"categories_segments":[],"categories_sizes":[],"default_left":[0,0,0,0,0,0,0,0,0,0,0,0,0,0,0],"id":6,"left_children":[1,3,5,7,9,11,13,-1,-1,-1,-1,-1,-1,-1,-1],"loss_changes":[4.102899E4,7.2198945E3,5.1410938E3,1.1384958E3,4.6323633E2,1.371625E3,4.8335718E2,0E0,0E0,0E0,0E0,0E0,0E0,0E0,0E0],"parents":[2147483647,0,0,1,1,2,2,3,3,4,4,5,5,6,6],"right_children":[2,4,6,8,10,12,14,-1,-1,-1,-1,-1,-1,-1,-1],"split_conditions":[1.4333333E1,1.4E1,9E0,1.3333333E1,1.5E1,1.8333334E1,1E1,-5.133716E-2,-9.750512E-3,-1.00158095E-1,-1.3504954E-1,9.424158E-2,1.5531832E-1,5.2455816E-2,2.2140916E-2],"split_indices":[7,0,0,7,0,7,0,0,0,0,0,0,0,0,0],"split_type":[0,0,0,0,0,0,0,0,0,0,0,0,0,0,0],"sum_hessian":[1.3598E4,7.134E3,6.464E3,4.585E3,2.549E3,3.058E3,3.406E3,2.944E3,1.641E3,1.071E3,1.478E3,2.257E3,8.01E2,1.873E3,1.533E3],"tree_param":{"num_deleted":"0","num_feature":"15","num_nodes":"15","size_leaf_vector":"1"}},{"base_weights":[3.402064E-3,-1.5838633E0,1.7453957E0,-8.629001E-1,-2.899081E0,9.702908E-1,2.6794841E0,-4.889965E-2,-8.837983E-3,-9.6470594E-2,-1.2977614E-1,5.1773593E-2,2.1263296E-2,9.1239564E-2,1.4878213E-1],"categories":[],"categories_nodes":[],"categories_segments":[],"categories_sizes":[],"default_left":[0,0,1,0,0,0,0,0,0,0,0,0,0,0,0],"id":7,"left_children":[1,3,5,7,9,11,13,-1,-1,-1,-1,-1,-1,-1,-1],"loss_changes":[3.8079676E4,6.8300215E3,4.750926E3,1.074376E3,4.2089648E2,5.0949512E2,1.2247695E3,0E0,0E0,0E0,0E0,0E0,0E0,0E0,0E0],"parents":[2147483647,0,0,1,1,2,2,3,3,4,4,5,5,6,6],"right_children":[2,4,6,8,10,12,14,-1,-1,-1,-1,-1,-1,-1,-1],"split_conditions":[1.4333333E1,1.4E1,1.7E1,1.3333333E1,1.5E1,1E1,1.8333334E1,-4.889965E-2,-8.837983E-3,-9.6470594E-2,-1.2977614E-1,5.1773593E-2,2.1263296E-2,9.1239564E-2,1.4878213E-1],"split_indices":[7,0,7,7,0,0,7,0,0,0,0,0,0,0,0],"split_type":[0,0,0,0,0,0,0,0,0,0,0,0,0,0,0],"sum_hessian":[1.377E4,7.205E3,6.565E3,4.655E3,2.55E3,3.589E3,2.976E3,2.983E3,1.672E3,1.061E3,1.489E3,2.063E3,1.526E3,2.154E3,8.22E2],"tree_param":{"num_deleted":"0","num_feature":"15","num_nodes":"15","size_leaf_vector":"1"}},{"base_weights":[2.1095145E-2,1.708651E0,-1.5242425E0,3.0699043E0,1.1900659E0,-8.389301E-1,-2.7804117E0,1.6424814E-1,1.1095524E-1,6.0217418E-2,2.0066367E-2,-2.1550283E-2,-6.314066E-2,-1.02841035E-1,-1.4564538E-1],"categories":[],"categories_nodes":[],"categories_segments":[],"categories_sizes":[],"default_left":[0,0,0,0,0,0,0,0,0,0,0,0,0,0,0],"id":8,"left_children":[1,3,5,7,9,11,13,-1,-1,-1,-1,-1,-1,-1,-1],"loss_changes":[3.563098E4,4.6063223E3,6.1370195E3,5.404121E2,1.0261562E3,1.02370776E3,4.4363867E2,0E0,0E0,0E0,0E0,0E0,0E0,0E0,0E0],"parents":[2147483647,0,0,1,1,2,2,3,3,4,4,5,5,6,6],"right_children":[2,4,6,8,10,12,14,-1,-1,-1,-1,-1,-1,-1,-1],"split_conditions":[1.1E1,8E0,1.4E1,6E0,1E1,1.3E1,1.6E1,1.6424814E-1,1.1095524E-1,6.0217418E-2,2.0066367E-2,-2.1550283E-2,-6.314066E-2,-1.02841035E-1,-1.4564538E-1],"split_indices":[0,0,0,0,0,0,0,0,0,0,0,0,0,0,0],"split_type":[0,0,0,0,0,0,0,0,0,0,0,0,0,0,0],"sum_hessian":[1.3661E4,6.53E3,7.131E3,1.8E3,4.73E3,4.615E3,2.516E3,3.97E2,1.403E3,3.243E3,1.487E3,3.284E3,1.331E3,2.027E3,4.89E2],"tree_param":{"num_deleted":"0","num_feature":"15","num_nodes":"15","size_leaf_vector":"1"}},{"base_weights":[8.862377E-4,-1.4641018E0,1.6449486E0,-2.6759388E0,-8.0440325E-1,1.1660131E0,2.9888227E0,-1.4015092E-1,-9.936844E-2,-6.1961234E-2,-2.007375E-2,3.5435084E-2,7.3678195E-2,1.0687927E-1,1.601919E-1],"categories":[],"categories_nodes":[],"categories_segments":[],"categories_sizes":[],"default_left":[0,0,0,0,0,1,0,0,0,0,0,0,0,0,0],"id":9,"left_children":[1,3,5,7,9,11,13,-1,-1,-1,-1,-1,-1,-1,-1],"loss_changes":[3.316309E4,5.8182734E3,4.171965E3,3.979707E2,1.0615046E3,9.041621E2,5.371533E2,0E0,0E0,0E0,0E0,0E0,0E0,0E0,0E0],"parents":[2147483647,0,0,1,1,2,2,3,3,4,4,5,5,6,6],"right_children":[2,4,6,8,10,12,14,-1,-1,-1,-1,-1,-1,-1,-1],"split_conditions":[1.5E1,1.2E1,1.8E1,1E1,1.3E1,1.6333334E1,2E1,-1.4015092E-1,-9.936844E-2,-6.1961234E-2,-2.007375E-2,3.5435084E-2,7.3678195E-2,1.0687927E-1,1.601919E-1],"split_indices":[1,1,1,1,1,7,1,0,0,0,0,0,0,0,0],"split_type":[0,0,0,0,0,0,0,0,0,0,0,0,0,0,0],"sum_hessian":[1.3767E4,7.28E3,6.487E3,2.565E3,4.715E3,4.784E3,1.703E3,4.79E2,2.086E3,1.361E3,3.354E3,3.384E3,1.4E3,1.301E3,4.02E2],"tree_param":{"num_deleted":"0","num_feature":"15","num_nodes":"15","size_leaf_vector":"1"}},{"base_weights":[7.434645E-3,-1.4044265E0,1.5558928E0,-7.569928E-1,-2.5715487E0,1.0901201E0,2.8193429E0,-4.442546E-2,-5.787017E-3,-9.515558E-2,-1.3427399E-1,5.5146687E-2,1.880173E-2,1.5299818E-1,1.01162046E-1],"categories":[],"categories_nodes":[],"categories_segments":[],"categories_sizes":[],"default_left":[0,0,1,0,0,0,0,0,0,0,0,0,0,0,0],"id":10,"left_children":[1,3,5,7,9,11,13,-1,-1,-1,-1,-1,-1,-1,-1],"loss_changes":[2.9946688E4,5.411838E3,3.841081E3,9.9797314E2,3.7815234E2,8.535161E2,5.031787E2,0E0,0E0,0E0,0E0,0E0,0E0,0E0,0E0],"parents":[2147483647,0,0,1,1,2,2,3,3,4,4,5,5,6,6],"right_children":[2,4,6,8,10,12,14,-1,-1,-1,-1,-1,-1,-1,-1],"split_conditions":[1.4333333E1,1.4E1,1.7333334E1,1.3333333E1,1.6E1,1E1,6E0,-4.442546E-2,-5.787017E-3,-9.515558E-2,-1.3427399E-1,5.5146687E-2,1.880173E-2,1.5299818E-1,1.01162046E-1],"split_indices":[7,0,7,7,0,0,0,0,0,0,0,0,0,0,0],"split_type":[0,0,0,0,0,0,0,0,0,0,0,0,0,0,0],"sum_hessian":[1.3696E4,7.164E3,6.532E3,4.609E3,2.555E3,4.774E3,1.758E3,2.921E3,1.688E3,2.055E3,5E2,3.257E3,1.517E3,3.91E2,1.367E3],"tree_param":{"num_deleted":"0","num_feature":"15","num_nodes":"15","size_leaf_vector":"1"}},{"base_weights":[2.2071467E-3,-1.3427491E0,1.4995861E0,-7.2967684E-1,-2.4596908E0,8.047948E-1,2.3052154E0,-4.2240515E-2,-5.1549124E-3,-7.978417E-2,-1.1143972E-1,4.2002548E-2,1.8298721E-2,7.8433655E-2,1.2747146E-1],"categories":[],"categories_nodes":[],"categories_segments":[],"categories_sizes":[],"default_left":[0,0,0,0,0,0,0,0,0,0,0,0,0,0,0],"id":11,"left_children":[1,3,5,7,9,11,13,-1,-1,-1,-1,-1,-1,-1,-1],"loss_changes":[2.7642934E4,4.9494297E3,3.633372E3,9.153645E2,3.8277148E2,2.965913E2,9.061328E2,0E0,0E0,0E0,0E0,0E0,0E0,0E0,0E0],"parents":[2147483647,0,0,1,1,2,2,3,3,4,4,5,5,6,6],"right_children":[2,4,6,8,10,12,14,-1,-1,-1,-1,-1,-1,-1,-1],"split_conditions":[1.5E1,1.4E1,1.7E1,1.4E1,1.5E1,1E1,1.8333334E1,-4.2240515E-2,-5.1549124E-3,-7.978417E-2,-1.1143972E-1,4.2002548E-2,1.8298721E-2,7.8433655E-2,1.2747146E-1],"split_indices":[1,0,1,1,0,0,7,0,0,0,0,0,0,0,0],"split_type":[0,0,0,0,0,0,0,0,0,0,0,0,0,0,0],"sum_hessian":[1.3724E4,7.23E3,6.494E3,4.669E3,2.561E3,3.488E3,3.006E3,3.025E3,1.644E3,1.059E3,1.502E3,2.043E3,1.445E3,2.164E3,8.42E2],"tree_param":{"num_deleted":"0","num_feature":"15","num_nodes":"15","size_leaf_vector":"1"}},{"base_weights":[7.0411235E-4,-1.2832565E0,1.4467894E0,-4.2197073E-1,-2.0211487E0,1.0130662E0,2.6179E0,-2.8264198E-2,-5.9132925E-3,-6.491322E-2,-1.0658814E-1,6.479717E-2,3.0862907E-2,1.4047036E-1,9.4461836E-2],"categories":[],"categories_nodes":[],"categories_segments":[],"categories_sizes":[],"default_left":[0,0,0,0,0,0,0,0,0,0,0,0,0,0,0],"id":12,"left_children":[1,3,5,7,9,11,13,-1,-1,-1,-1,-1,-1,-1,-1],"loss_changes":[2.5515016E4,4.6249707E3,3.279787E3,2.6198804E2,1.00009863E3,6.899507E2,3.9120508E2,0E0,0E0,0E0,0E0,0E0,0E0,0E0,0E0],"parents":[2147483647,0,0,1,1,2,2,3,3,4,4,5,5,6,6],"right_children":[2,4,6,8,10,12,14,-1,-1,-1,-1,-1,-1,-1,-1],"split_conditions":[1.5E1,1.3E1,1.8E1,1.3333333E1,1.5E1,9E0,6E0,-2.8264198E-2,-5.9132925E-3,-6.491322E-2,-1.0658814E-1,6.479717E-2,3.0862907E-2,1.4047036E-1,9.4461836E-2],"split_indices":[1,0,1,7,0,0,0,0,0,0,0,0,0,0,0],"split_type":[0,0,0,0,0,0,0,0,0,0,0,0,0,0,0],"sum_hessian":[1.374E4,7.278E3,6.462E3,3.359E3,3.919E3,4.717E3,1.745E3,1.647E3,1.712E3,2.423E3,1.496E3,1.341E3,3.376E3,3.86E2,1.359E3],"tree_param":{"num_deleted":"0","num_feature":"15","num_nodes":"15","size_leaf_vector":"1"}},{"base_weights":[7.819843E-3,-1.243636E0,1.3956443E0,-6.737088E-1,-2.2833216E0,9.71827E-1,2.5640152E0,-1.6865162E-2,-5.2469462E-2,-8.453221E-2,-1.19542204E-1,2.9675748E-2,6.311403E-2,1.3669579E-1,9.251323E-2],"categories":[],"categories_nodes":[],"categories_segments":[],"categories_sizes":[],"default_left":[0,0,0,0,0,0,0,0,0,0,0,0,0,0,0],"id":13,"left_children":[1,3,5,7,9,11,13,-1,-1,-1,-1,-1,-1,-1,-1],"loss_changes":[2.3801137E4,4.268044E3,3.2148076E3,7.481162E2,2.9904297E2,6.6327344E2,3.6214355E2,0E0,0E0,0E0,0E0,0E0,0E0,0E0,0E0],"parents":[2147483647,0,0,1,1,2,2,3,3,4,4,5,5,6,6],"right_children":[2,4,6,8,10,12,14,-1,-1,-1,-1,-1,-1,-1,-1],"split_conditions":[1.5E1,1.4E1,1.8E1,1.3E1,1.6E1,1.7E1,6E0,-1.6865162E-2,-5.2469462E-2,-8.453221E-2,-1.19542204E-1,2.9675748E-2,6.311403E-2,1.3669579E-1,9.251323E-2],"split_indices":[1,0,1,0,0,1,0,0,0,0,0,0,0,0,0],"split_type":[0,0,0,0,0,0,0,0,0,0,0,0,0,0,0],"sum_hessian":[1.3702E4,7.205E3,6.497E3,4.655E3,2.55E3,4.769E3,1.728E3,3.338E3,1.317E3,2.058E3,4.92E2,3.459E3,1.31E3,3.9E2,1.338E3],"tree_param":{"num_deleted":"0","num_feature":"15","num_nodes":"15","size_leaf_vector":"1"}},{"base_weights":[1.3620816E-3,-1.1926275E0,1.3236482E0,-2.1739728E0,-6.357243E-1,9.3859756E-1,2.403841E0,-7.1232095E-2,-9.841688E-2,-3.7034664E-2,-4.6882085E-3,4.7251213E-2,1.5139003E-2,1.3140295E-1,8.6312234E-2],"categories":[],"categories_nodes":[],"categories_segments":[],"categories_sizes":[],"default_left":[0,0,0,0,0,0,0,0,0,0,0,0,0,0,0],"id":14,"left_children":[1,3,5,7,9,11,13,-1,-1,-1,-1,-1,-1,-1,-1],"loss_changes":[2.1646885E4,3.9359736E3,2.7034434E3,2.8891602E2,6.9153E2,6.5159863E2,3.6290332E2,0E0,0E0,0E0,0E0,0E0,0E0,0E0,0E0],"parents":[2147483647,0,0,1,1,2,2,3,3,4,4,5,5,6,6],"right_children":[2,4,6,8,10,12,14,-1,-1,-1,-1,-1,-1,-1,-1],"split_conditions":[1.5E1,1.2E1,1.8E1,1.5E1,1.4E1,1E1,6E0,-7.1232095E-2,-9.841688E-2,-3.7034664E-2,-4.6882085E-3,4.7251213E-2,1.5139003E-2,1.3140295E-1,8.6312234E-2],"split_indices":[1,7,1,0,1,0,0,0,0,0,0,0,0,0,0],"split_type":[0,0,0,0,0,0,0,0,0,0,0,0,0,0,0],"sum_hessian":[1.3709E4,7.204E3,6.505E3,2.607E3,4.597E3,4.797E3,1.708E3,1.102E3,1.505E3,2.947E3,1.65E3,3.346E3,1.451E3,3.7E2,1.338E3],"tree_param":{"num_deleted":"0","num_feature":"15","num_nodes":"15","size_leaf_vector":"1"}},{"base_weights":[-1.0649993E-2,-1.1465135E0,1.2769647E0,-6.167966E-1,-2.0985966E0,8.9262766E-1,2.3429143E0,-1.4914364E-2,-4.839349E-2,-7.72099E-2,-1.10943675E-1,4.518787E-2,1.4498398E-2,1.2591393E-1,8.461282E-2],"categories":[],"categories_nodes":[],"categories_segments":[],"categories_sizes":[],"default_left":[0,0,0,0,0,0,0,0,0,0,0,0,0,0,0],"id":15,"left_children":[1,3,5,7,9,11,13,-1,-1,-1,-1,-1,-1,-1,-1],"loss_changes":[2.0155453E4,3.691171E3,2.6437334E3,6.801835E2,2.915586E2,5.963259E2,3.062666E2,0E0,0E0,0E0,0E0,0E0,0E0,0E0,0E0],"parents":[2147483647,0,0,1,1,2,2,3,3,4,4,5,5,6,6],"right_children":[2,4,6,8,10,12,14,-1,-1,-1,-1,-1,-1,-1,-1],"split_conditions":[1.5E1,1.4E1,1.8E1,1.3E1,1.6E1,1E1,6E0,-1.4914364E-2,-4.839349E-2,-7.72099E-2,-1.10943675E-1,4.518787E-2,1.4498398E-2,1.2591393E-1,8.461282E-2],"split_indices":[1,0,1,0,0,0,0,0,0,0,0,0,0,0,0],"split_type":[0,0,0,0,0,0,0,0,0,0,0,0,0,0,0],"sum_hessian":[1.3779E4,7.321E3,6.458E3,4.705E3,2.616E3,4.748E3,1.71E3,3.335E3,1.37E3,2.097E3,5.19E2,3.28E3,1.468E3,3.74E2,1.336E3],"tree_param":{"num_deleted":"0","num_feature":"15","num_nodes":"15","size_leaf_vector":"1"}},{"base_weights":[3.84495E-3,-1.0834805E0,1.2267828E0,-1.715216E0,-3.6063498E-1,6.441193E-1,1.8743042E0,-9.1093585E-2,-5.4804396E-2,-2.4332771E-2,-4.322617E-3,1.416906E-2,3.423359E-2,6.400075E-2,1.049112E-1],"categories":[],"categories_nodes":[],"categories_segments":[],"categories_sizes":[],"default_left":[0,0,0,0,0,0,0,0,0,0,0,0,0,0,0],"id":16,"left_children":[1,3,5,7,9,11,13,-1,-1,-1,-1,-1,-1,-1,-1],"loss_changes":[1.8101648E4,3.2897734E3,2.4158193E3,7.42417E2,2.1018091E2,2.0665942E2,6.1825E2,0E0,0E0,0E0,0E0,0E0,0E0,0E0,0E0],"parents":[2147483647,0,0,1,1,2,2,3,3,4,4,5,5,6,6],"right_children":[2,4,6,8,10,12,14,-1,-1,-1,-1,-1,-1,-1,-1],"split_conditions":[1.5E1,1.3E1,1.7E1,1.1E1,1.4E1,1.6E1,1.9E1,-9.1093585E-2,-5.4804396E-2,-2.4332771E-2,-4.322617E-3,1.416906E-2,3.423359E-2,6.400075E-2,1.049112E-1],"split_indices":[1,1,1,1,1,1,1,0,0,0,0,0,0,0,0],"split_type":[0,0,0,0,0,0,0,0,0,0,0,0,0,0,0],"sum_hessian":[1.3611E4,7.205E3,6.406E3,3.844E3,3.361E3,3.373E3,3.033E3,1.46E3,2.384E3,1.696E3,1.665E3,1.425E3,1.948E3,2.222E3,8.11E2],"tree_param":{"num_deleted":"0","num_feature":"15","num_nodes":"15","size_leaf_vector":"1"}},{"base_weights":[-3.6882944E-3,1.161842E0,-1.0596689E0,1.7874157E0,6.000282E-1,-5.6666785E-1,-1.9370248E0,9.968214E-2,6.0549576E-2,3.309036E-2,1.2150422E-2,-1.3990764E-2,-4.450568E-2,-7.122331E-2,-1.0241424E-1],"categories":[],"categories_nodes":[],"categories_segments":[],"categories_sizes":[],"default_left":[0,0,0,0,0,0,0,0,0,0,0,0,0,0,0],"id":17,"left_children":[1,3,5,7,9,11,13,-1,-1,-1,-1,-1,-1,-1,-1],"loss_changes":[1.6819793E4,2.281747E3,3.0999458E3,5.884326E2,2.3014331E2,5.432545E2,2.4649902E2,0E0,0E0,0E0,0E0,0E0,0E0,0E0,0E0],"parents":[2147483647,0,0,1,1,2,2,3,3,4,4,5,5,6,6],"right_children":[2,4,6,8,10,12,14,-1,-1,-1,-1,-1,-1,-1,-1],"split_conditions":[1.1E1,9E0,1.3333333E1,7E0,1E1,1.3E1,1.6E1,9.968214E-2,6.0549576E-2,3.309036E-2,1.2150422E-2,-1.3990764E-2,-4.450568E-2,-7.122331E-2,-1.0241424E-1],"split_indices":[0,0,6,6,0,0,0,0,0,0,0,0,0,0,0],"split_type":[0,0,0,0,0,0,0,0,0,0,0,0,0,0,0],"sum_hessian":[1.3664E4,6.495E3,7.169E3,3.072E3,3.423E3,4.591E3,2.578E3,8.57E2,2.215E3,1.936E3,1.487E3,3.287E3,1.304E3,2.064E3,5.14E2],"tree_param":{"num_deleted":"0","num_feature":"15","num_nodes":"15","size_leaf_vector":"1"}},{"base_weights":[-2.458597E-4,-1.016954E0,1.1438291E0,-3.457108E-1,-1.6026925E0,6.116715E-1,1.7421427E0,-2.3848517E-2,-3.5293417E-3,-8.4366724E-2,-5.12241E-2,1.2968962E-2,3.256688E-2,5.946179E-2,9.8266736E-2],"categories":[],"categories_nodes":[],"categories_segments":[],"categories_sizes":[],"default_left":[0,0,0,0,0,0,0,0,0,0,0,0,0,0,0],"id":18,"left_children":[1,3,5,7,9,11,13,-1,-1,-1,-1,-1,-1,-1,-1],"loss_changes":[1.6041544E4,2.8701997E3,2.0647773E3,2.1943213E2,6.3300684E2,1.9962573E2,5.53709E2,0E0,0E0,0E0,0E0,0E0,0E0,0E0,0E0],"parents":[2147483647,0,0,1,1,2,2,3,3,4,4,5,5,6,6],"right_children":[2,4,6,8,10,12,14,-1,-1,-1,-1,-1,-1,-1,-1],"split_conditions":[1.5E1,1.3E1,1.7E1,1.4E1,1.1E1,1.6E1,1.9E1,-2.3848517E-2,-3.5293417E-3,-8.4366724E-2,-5.12241E-2,1.2968962E-2,3.256688E-2,5.946179E-2,9.8266736E-2],"split_indices":[1,6,1,1,1,1,1,0,0,0,0,0,0,0,0],"split_type":[0,0,0,0,0,0,0,0,0,0,0,0,0,0,0],"sum_hessian":[1.3789E4,7.301E3,6.488E3,3.403E3,3.898E3,3.435E3,3.053E3,1.724E3,1.679E3,1.513E3,2.385E3,1.421E3,2.014E3,2.251E3,8.02E2],"tree_param":{"num_deleted":"0","num_feature":"15","num_nodes":"15","size_leaf_vector":"1"}},{"base_weights":[-5.4832394E-3,-9.695017E-1,1.0792854E0,-5.3085065E-1,-1.7710754E0,5.4824126E-1,1.671666E0,-3.0639892E-2,-3.707782E-3,-6.484578E-2,-9.543914E-2,2.9375238E-2,1.1425012E-2,5.7061996E-2,9.330059E-2],"categories":[],"categories_nodes":[],"categories_segments":[],"categories_sizes":[],"default_left":[0,0,0,0,0,1,0,0,0,0,0,0,0,0,0],"id":19,"left_children":[1,3,5,7,9,11,13,-1,-1,-1,-1,-1,-1,-1,-1],"loss_changes":[1.4281619E4,2.54133E3,2.0203545E3,4.8151282E2,2.3146875E2,1.654024E2,4.8824414E2,0E0,0E0,0E0,0E0,0E0,0E0,0E0,0E0],"parents":[2147483647,0,0,1,1,2,2,3,3,4,4,5,5,6,6],"right_children":[2,4,6,8,10,12,14,-1,-1,-1,-1,-1,-1,-1,-1],"split_conditions":[1.5E1,1.4E1,1.7E1,1.4E1,1.6E1,1E1,1.9E1,-3.0639892E-2,-3.707782E-3,-6.484578E-2,-9.543914E-2,2.9375238E-2,1.1425012E-2,5.7061996E-2,9.330059E-2],"split_indices":[1,0,1,1,0,6,1,0,0,0,0,0,0,0,0],"split_type":[0,0,0,0,0,0,0,0,0,0,0,0,0,0,0],"sum_hessian":[1.3655E4,7.23E3,6.425E3,4.674E3,2.556E3,3.389E3,3.036E3,3.041E3,1.633E3,2.058E3,4.98E2,1.982E3,1.407E3,2.217E3,8.19E2],"tree_param":{"num_deleted":"0","num_feature":"15","num_nodes":"15","size_leaf_vector":"1"}},{"base_weights":[3.8094139E-3,-9.270674E-1,1.0426644E0,-4.9237323E-1,-1.716386E0,7.1924865E-1,1.9323804E0,-2.8896565E-2,-3.1066244E-3,-6.275792E-2,-9.181983E-2,1.0949231E-2,3.645364E-2,1.0614226E-1,6.9038674E-2],"categories":[],"categories_nodes":[],"categories_segments":[],"categories_sizes":[],"default_left":[0,0,0,0,0,0,0,0,0,0,0,0,0,0,0],"id":20,"left_children":[1,3,5,7,9,11,13,-1,-1,-1,-1,-1,-1,-1,-1],"loss_changes":[1.3214696E4,2.4717441E3,1.8566226E3,4.4337708E2,2.1450684E2,4.0511304E2,2.511709E2,0E0,0E0,0E0,0E0,0E0,0E0,0E0,0E0],"parents":[2147483647,0,0,1,1,2,2,3,3,4,4,5,5,6,6],"right_children":[2,4,6,8,10,12,14,-1,-1,-1,-1,-1,-1,-1,-1],"split_conditions":[1.5E1,1.4E1,1.8E1,1.4E1,1.6E1,1.5333333E1,6E0,-2.8896565E-2,-3.1066244E-3,-6.275792E-2,-9.181983E-2,1.0949231E-2,3.645364E-2,1.0614226E-1,6.9038674E-2],"split_indices":[1,0,1,1,0,7,0,0,0,0,0,0,0,0,0],"split_type":[0,0,0,0,0,0,0,0,0,0,0,0,0,0,0],"sum_hessian":[1.3663E4,7.206E3,6.457E3,4.648E3,2.558E3,4.737E3,1.72E3,2.989E3,1.659E3,2.042E3,5.16E2,1.428E3,3.309E3,3.8E2,1.34E3],"tree_param":{"num_deleted":"0","num_feature":"15","num_nodes":"15","size_leaf_vector":"1"}},{"base_weights":[9.181129E-3,-8.937813E-1,1.0107993E0,-2.6850143E-1,-1.4344596E0,6.965178E-1,1.8560065E0,-1.874337E-2,-2.6410222E-3,-4.59826E-2,-7.533427E-2,4.4329517E-2,2.0679379E-2,9.908838E-2,6.76007E-2],"categories":[],"categories_nodes":[],"categories_segments":[],"categories_sizes":[],"default_left":[0,0,0,0,0,0,0,0,0,0,0,0,0,0,0],"id":21,"left_children":[1,3,5,7,9,11,13,-1,-1,-1,-1,-1,-1,-1,-1],"loss_changes":[1.236348E4,2.4298672E3,1.72002E3,1.3502293E2,4.905415E2,3.485984E2,1.7646289E2,0E0,0E0,0E0,0E0,0E0,0E0,0E0,0E0],"parents":[2147483647,0,0,1,1,2,2,3,3,4,4,5,5,6,6],"right_children":[2,4,6,8,10,12,14,-1,-1,-1,-1,-1,-1,-1,-1],"split_conditions":[1.5E1,1.3E1,1.8E1,1.4E1,1.5E1,9E0,6E0,-1.874337E-2,-2.6410222E-3,-4.59826E-2,-7.533427E-2,4.4329517E-2,2.0679379E-2,9.908838E-2,6.76007E-2],"split_indices":[1,0,1,1,0,6,0,0,0,0,0,0,0,0,0],"split_type":[0,0,0,0,0,0,0,0,0,0,0,0,0,0,0],"sum_hessian":[1.3668E4,7.188E3,6.48E3,3.334E3,3.854E3,4.725E3,1.755E3,1.676E3,1.658E3,2.36E3,1.494E3,1.433E3,3.292E3,3.67E2,1.388E3],"tree_param":{"num_deleted":"0","num_feature":"15","num_nodes":"15","size_leaf_vector":"1"}},{"base_weights":[9.299721E-3,-1.0884368E0,7.552313E-1,-1.5714666E0,-6.672041E-1,3.1857565E-1,1.466976E0,-5.7756383E-2,-8.3921105E-2,-1.995563E-2,-3.5519354E-2,2.6832651E-2,3.7431295E-3,4.9635146E-2,8.3188646E-2],"categories":[],"categories_nodes":[],"categories_segments":[],"categories_sizes":[],"default_left":[0,0,1,0,0,0,0,0,0,0,0,0,0,0,0],"id":22,"left_children":[1,3,5,7,9,11,13,-1,-1,-1,-1,-1,-1,-1,-1],"loss_changes":[1.1173812E4,1.1220742E3,2.5245015E3,1.6930176E2,1.09078E2,3.9905936E2,4.2503467E2,0E0,0E0,0E0,0E0,0E0,0E0,0E0,0E0],"parents":[2147483647,0,0,1,1,2,2,3,3,4,4,5,5,6,6],"right_children":[2,4,6,8,10,12,14,-1,-1,-1,-1,-1,-1,-1,-1],"split_conditions":[1.4E1,1.2E1,1.6333334E1,1.6E1,1.3E1,1E1,1.8333334E1,-5.7756383E-2,-8.3921105E-2,-1.995563E-2,-3.5519354E-2,2.6832651E-2,3.7431295E-3,4.9635146E-2,8.3188646E-2],"split_indices":[1,7,7,0,0,0,7,0,0,0,0,0,0,0,0],"split_type":[0,0,0,0,0,0,0,0,0,0,0,0,0,0,0],"sum_hessian":[1.3644E4,5.52E3,8.124E3,2.57E3,2.95E3,5.036E3,3.088E3,2.072E3,4.98E2,1.676E3,1.274E3,1.962E3,3.074E3,2.258E3,8.3E2],"tree_param":{"num_deleted":"0","num_feature":"15","num_nodes":"15","size_leaf_vector":"1"}},{"base_weights":[-2.2822102E-3,-8.379553E-1,9.2329246E-1,-2.8146398E-1,-1.3184628E0,6.331279E-1,1.6847078E0,-1.8427607E-2,-3.933106E-3,-4.2163525E-2,-6.9466725E-2,1.899411E-2,4.1272487E-2,9.2881046E-2,6.0345728E-2],"categories":[],"categories_nodes":[],"categories_segments":[],"categories_sizes":[],"default_left":[0,0,1,0,0,1,0,0,0,0,0,0,0,0,0],"id":23,"left_children":[1,3,5,7,9,11,13,-1,-1,-1,-1,-1,-1,-1,-1],"loss_changes":[1.0620616E4,1.9290146E3,1.4380977E3,1.0969116E2,4.2599023E2,2.971371E2,1.9775342E2,0E0,0E0,0E0,0E0,0E0,0E0,0E0,0E0],"parents":[2147483647,0,0,1,1,2,2,3,3,4,4,5,5,6,6],"right_children":[2,4,6,8,10,12,14,-1,-1,-1,-1,-1,-1,-1,-1],"split_conditions":[1.4333333E1,1.3E1,1.7333334E1,1.3333333E1,1.4666667E1,1.6333334E1,6E0,-1.8427607E-2,-3.933106E-3,-4.2163525E-2,-6.9466725E-2,1.899411E-2,4.1272487E-2,9.2881046E-2,6.0345728E-2],"split_indices":[7,6,7,7,6,7,6,0,0,0,0,0,0,0,0],"split_type":[0,0,0,0,0,0,0,0,0,0,0,0,0,0,0],"sum_hessian":[1.3729E4,7.215E3,6.514E3,3.344E3,3.871E3,4.718E3,1.796E3,1.689E3,1.655E3,2.374E3,1.497E3,3.379E3,1.339E3,3.86E2,1.41E3],"tree_param":{"num_deleted":"0","num_feature":"15","num_nodes":"15","size_leaf_vector":"1"}},{"base_weights":[7.005124E-3,-7.873396E-1,8.89829E-1,-4.0165538E-1,-1.4633113E0,6.1886656E-1,1.6403502E0,-9.5015345E-3,-3.2862134E-2,-5.3697363E-2,-7.750782E-2,3.1117307E-2,1.0412583E-2,8.9847E-2,5.871325E-2],"categories":[],"categories_nodes":[],"categories_segments":[],"categories_sizes":[],"default_left":[0,0,0,0,0,1,0,0,0,0,0,0,0,0,0],"id":24,"left_children":[1,3,5,7,9,11,13,-1,-1,-1,-1,-1,-1,-1,-1],"loss_changes":[9.598945E3,1.8776528E3,1.3171616E3,3.1593793E2,1.4713574E2,2.7145837E2,1.7599512E2,0E0,0E0,0E0,0E0,0E0,0E0,0E0,0E0],"parents":[2147483647,0,0,1,1,2,2,3,3,4,4,5,5,6,6],"right_children":[2,4,6,8,10,12,14,-1,-1,-1,-1,-1,-1,-1,-1],"split_conditions":[1.5E1,1.3333333E1,1.8E1,1.3E1,1.6E1,9.666667E0,6E0,-9.5015345E-3,-3.2862134E-2,-5.3697363E-2,-7.750782E-2,3.1117307E-2,1.0412583E-2,8.9847E-2,5.871325E-2],"split_indices":[1,6,1,0,0,6,0,0,0,0,0,0,0,0,0],"split_type":[0,0,0,0,0,0,0,0,0,0,0,0,0,0,0],"sum_hessian":[1.3686E4,7.204E3,6.482E3,4.588E3,2.616E3,4.764E3,1.718E3,3.3E3,1.288E3,2.088E3,5.28E2,3.299E3,1.465E3,3.78E2,1.34E3],"tree_param":{"num_deleted":"0","num_feature":"15","num_nodes":"15","size_leaf_vector":"1"}},{"base_weights":[2.3068427E-3,-9.732398E-1,6.617017E-1,-1.4117267E0,-6.136098E-1,2.8149614E-1,1.3002114E0,-5.209545E-2,-7.39917E-2,-1.8600922E-2,-3.202454E-2,2.3932317E-2,3.1121334E-3,4.3624848E-2,7.402739E-2],"categories":[],"categories_nodes":[],"categories_segments":[],"categories_sizes":[],"default_left":[0,0,0,0,0,0,0,0,0,0,0,0,0,0,0],"id":25,"left_children":[1,3,5,7,9,11,13,-1,-1,-1,-1,-1,-1,-1,-1],"loss_changes":[8.785113E3,8.675039E2,1.9777676E3,1.1611182E2,8.363794E1,3.2958127E2,3.4853857E2,0E0,0E0,0E0,0E0,0E0,0E0,0E0,0E0],"parents":[2147483647,0,0,1,1,2,2,3,3,4,4,5,5,6,6],"right_children":[2,4,6,8,10,12,14,-1,-1,-1,-1,-1,-1,-1,-1],"split_conditions":[1.4E1,1.1333333E1,1.7E1,1.6E1,1.3E1,1E1,1.8333334E1,-5.209545E-2,-7.39917E-2,-1.8600922E-2,-3.202454E-2,2.3932317E-2,3.1121334E-3,4.3624848E-2,7.402739E-2],"split_indices":[1,7,1,0,0,0,7,0,0,0,0,0,0,0,0],"split_type":[0,0,0,0,0,0,0,0,0,0,0,0,0,0,0],"sum_hessian":[1.3655E4,5.507E3,8.148E3,2.48E3,3.027E3,5.108E3,3.04E3,1.988E3,4.92E2,1.689E3,1.338E3,1.998E3,3.11E3,2.204E3,8.36E2],"tree_param":{"num_deleted":"0","num_feature":"15","num_nodes":"15","size_leaf_vector":"1"}},{"base_weights":[-1.4425926E-4,-7.4397016E-1,8.187154E-1,-4.0725026E-1,-1.3486246E0,5.572286E-1,1.509754E0,-2.3705656E-2,-3.0637737E-3,-4.9270127E-2,-7.2845206E-2,2.8537845E-2,8.7515265E-3,5.3723082E-2,8.2888916E-2],"categories":[],"categories_nodes":[],"categories_segments":[],"categories_sizes":[],"default_left":[0,0,1,0,0,0,0,0,0,0,0,0,0,0,0],"id":26,"left_children":[1,3,5,7,9,11,13,-1,-1,-1,-1,-1,-1,-1,-1],"loss_changes":[8.281775E3,1.4499197E3,1.1684258E3,2.8052234E2,1.381582E2,2.4808252E2,1.6337622E2,0E0,0E0,0E0,0E0,0E0,0E0,0E0,0E0],"parents":[2147483647,0,0,1,1,2,2,3,3,4,4,5,5,6,6],"right_children":[2,4,6,8,10,12,14,-1,-1,-1,-1,-1,-1,-1,-1],"split_conditions":[1.4333333E1,1.4E1,1.7333334E1,1.3333333E1,1.6E1,1E1,1.9333334E1,-2.3705656E-2,-3.0637737E-3,-4.9270127E-2,-7.2845206E-2,2.8537845E-2,8.7515265E-3,5.3723082E-2,8.2888916E-2],"split_indices":[7,0,7,7,0,0,7,0,0,0,0,0,0,0,0],"split_type":[0,0,0,0,0,0,0,0,0,0,0,0,0,0,0],"sum_hessian":[1.3595E4,7.124E3,6.471E3,4.577E3,2.547E3,4.696E3,1.775E3,2.932E3,1.645E3,2.045E3,5.02E2,3.212E3,1.484E3,1.372E3,4.03E2],"tree_param":{"num_deleted":"0","num_feature":"15","num_nodes":"15","size_leaf_vector":"1"}},{"base_weights":[7.927916E-3,-7.0175266E-1,7.727484E-1,-1.3090448E0,-3.7660414E-1,3.962133E-1,1.19059E0,-5.9805613E-2,-4.230198E-2,-2.1935629E-2,-2.604346E-3,8.412206E-3,2.1489829E-2,4.055478E-2,6.78524E-2],"categories":[],"categories_nodes":[],"categories_segments":[],"categories_sizes":[],"default_left":[0,0,1,0,0,0,0,0,0,0,0,0,0,0,0],"id":27,"left_children":[1,3,5,7,9,11,13,-1,-1,-1,-1,-1,-1,-1,-1],"loss_changes":[7.476777E3,1.4101912E3,1.0424812E3,1.1474756E2,2.4899554E2,9.129071E1,2.78813E2,0E0,0E0,0E0,0E0,0E0,0E0,0E0,0E0],"parents":[2147483647,0,0,1,1,2,2,3,3,4,4,5,5,6,6],"right_children":[2,4,6,8,10,12,14,-1,-1,-1,-1,-1,-1,-1,-1],"split_conditions":[1.4333333E1,1.1666667E1,1.6333334E1,1.0333333E1,1.3333333E1,1.5333333E1,1.8666666E1,-5.9805613E-2,-4.230198E-2,-2.1935629E-2,-2.604346E-3,8.412206E-3,2.1489829E-2,4.055478E-2,6.78524E-2],"split_indices":[7,7,7,7,7,7,7,0,0,0,0,0,0,0,0],"split_type":[0,0,0,0,0,0,0,0,0,0,0,0,0,0,0],"sum_hessian":[1.3773E4,7.144E3,6.629E3,2.49E3,4.654E3,3.488E3,3.141E3,1.428E3,1.062E3,2.999E3,1.655E3,1.506E3,1.982E3,2.33E3,8.11E2],"tree_param":{"num_deleted":"0","num_feature":"15","num_nodes":"15","size_leaf_vector":"1"}},{"base_weights":[3.0845224E-3,-6.7628527E-1,7.6147807E-1,-2.1829969E-1,-1.0706058E0,5.2570754E-1,1.4160757E0,-1.529379E-2,-2.0070744E-3,-3.4086507E-2,-5.7384938E-2,2.6587514E-2,7.878846E-3,7.822623E-2,5.060861E-2],"categories":[],"categories_nodes":[],"categories_segments":[],"categories_sizes":[],"default_left":[0,0,0,0,0,0,0,0,0,0,0,0,0,0,0],"id":28,"left_children":[1,3,5,7,9,11,13,-1,-1,-1,-1,-1,-1,-1,-1],"loss_changes":[7.0318623E3,1.299727E3,9.9436694E2,9.1833176E1,3.061211E2,2.1648047E2,1.3615527E2,0E0,0E0,0E0,0E0,0E0,0E0,0E0,0E0],"parents":[2147483647,0,0,1,1,2,2,3,3,4,4,5,5,6,6],"right_children":[2,4,6,8,10,12,14,-1,-1,-1,-1,-1,-1,-1,-1],"split_conditions":[1.5E1,1.3E1,1.8E1,1.4E1,1.5E1,1E1,6E0,-1.529379E-2,-2.0070744E-3,-3.4086507E-2,-5.7384938E-2,2.6587514E-2,7.878846E-3,7.822623E-2,5.060861E-2],"split_indices":[1,0,1,1,0,0,0,0,0,0,0,0,0,0,0],"split_type":[0,0,0,0,0,0,0,0,0,0,0,0,0,0,0],"sum_hessian":[1.3646E4,7.198E3,6.448E3,3.331E3,3.867E3,4.742E3,1.706E3,1.685E3,1.646E3,2.419E3,1.448E3,3.332E3,1.41E3,3.7E2,1.336E3],"tree_param":{"num_deleted":"0","num_feature":"15","num_nodes":"15","size_leaf_vector":"1"}},{"base_weights":[1.1813389E-2,-6.381091E-1,7.343073E-1,-1.0315547E0,-1.8295643E-1,5.067957E-1,1.3538179E0,-5.3997643E-2,-3.3296905E-2,-1.3030395E-2,-1.4474156E-3,1.5412035E-2,3.275699E-2,4.853397E-2,7.3553964E-2],"categories":[],"categories_nodes":[],"categories_segments":[],"categories_sizes":[],"default_left":[0,0,0,0,0,0,0,0,0,0,0,0,0,0,0],"id":29,"left_children":[1,3,5,7,9,11,13,-1,-1,-1,-1,-1,-1,-1,-1],"loss_changes":[6.448075E3,1.2942439E3,9.15699E2,2.4446338E2,7.022892E1,1.7999707E2,1.1642163E2,0E0,0E0,0E0,0E0,0E0,0E0,0E0,0E0],"parents":[2147483647,0,0,1,1,2,2,3,3,4,4,5,5,6,6],"right_children":[2,4,6,8,10,12,14,-1,-1,-1,-1,-1,-1,-1,-1],"split_conditions":[1.5E1,1.3E1,1.8E1,1.1E1,1.4E1,1.7E1,2E1,-5.3997643E-2,-3.3296905E-2,-1.3030395E-2,-1.4474156E-3,1.5412035E-2,3.275699E-2,4.853397E-2,7.3553964E-2],"split_indices":[1,1,1,1,1,1,1,0,0,0,0,0,0,0,0],"split_type":[0,0,0,0,0,0,0,0,0,0,0,0,0,0,0],"sum_hessian":[1.373E4,7.228E3,6.502E3,3.876E3,3.352E3,4.757E3,1.745E3,1.489E3,2.387E3,1.698E3,1.654E3,3.426E3,1.331E3,1.356E3,3.89E2],"tree_param":{"num_deleted":"0","num_feature":"15","num_nodes":"15","size_leaf_vector":"1"}},{"base_weights":[-3.292013E-3,-6.2046474E-1,6.827267E-1,-3.3190045E-1,-1.1659886E0,4.6415418E-1,1.3012283E0,-8.156561E-3,-2.608657E-2,-4.252422E-2,-6.328266E-2,2.4029901E-2,5.8118883E-3,7.010106E-2,4.6946663E-2],"categories":[],"categories_nodes":[],"categories_segments":[],"categories_sizes":[],"default_left":[0,0,0,0,0,0,0,0,0,0,0,0,0,0,0],"id":30,"left_children":[1,3,5,7,9,11,13,-1,-1,-1,-1,-1,-1,-1,-1],"loss_changes":[5.7852227E3,1.1317759E3,8.7401733E2,1.9267761E2,1.0455835E2,2.0815564E2,9.488379E1,0E0,0E0,0E0,0E0,0E0,0E0,0E0,0E0],"parents":[2147483647,0,0,1,1,2,2,3,3,4,4,5,5,6,6],"right_children":[2,4,6,8,10,12,14,-1,-1,-1,-1,-1,-1,-1,-1],"split_conditions":[1.5E1,1.4E1,1.8E1,1.3E1,1.6E1,1E1,6E0,-8.156561E-3,-2.608657E-2,-4.252422E-2,-6.328266E-2,2.4029901E-2,5.8118883E-3,7.010106E-2,4.6946663E-2],"split_indices":[1,0,1,0,0,0,0,0,0,0,0,0,0,0,0],"split_type":[0,0,0,0,0,0,0,0,0,0,0,0,0,0,0],"sum_hessian":[1.3662E4,7.192E3,6.47E3,4.705E3,2.487E3,4.782E3,1.688E3,3.363E3,1.342E3,1.997E3,4.9E2,3.347E3,1.435E3,3.69E2,1.319E3],"tree_param":{"num_deleted":"0","num_feature":"15","num_nodes":"15","size_leaf_vector":"1"}},{"base_weights":[-7.3834932E-3,-6.0470164E-1,6.7288095E-1,-1.1164334E0,-3.2249153E-1,4.6115613E-1,1.2614822E0,-1.06154576E-1,-4.339794E-2,-1.8718489E-2,-1.9910417E-3,7.568075E-3,2.3150377E-2,4.782646E-2,8.628685E-2],"categories":[],"categories_nodes":[],"categories_segments":[],"categories_sizes":[],"default_left":[0,0,0,0,0,0,0,0,0,0,0,0,0,0,0],"id":31,"left_children":[1,3,5,7,9,11,13,-1,-1,-1,-1,-1,-1,-1,-1],"loss_changes":[5.537924E3,1.0475222E3,7.933342E2,1.2158569E2,1.8555072E2,1.4974872E2,9.642407E1,0E0,0E0,0E0,0E0,0E0,0E0,0E0,0E0],"parents":[2147483647,0,0,1,1,2,2,3,3,4,4,5,5,6,6],"right_children":[2,4,6,8,10,12,14,-1,-1,-1,-1,-1,-1,-1,-1],"split_conditions":[1.5E1,1.2E1,1.8E1,9E0,1.4E1,1.6E1,2.1E1,-1.06154576E-1,-4.339794E-2,-1.8718489E-2,-1.9910417E-3,7.568075E-3,2.3150377E-2,4.782646E-2,8.628685E-2],"split_indices":[1,1,1,1,1,1,1,0,0,0,0,0,0,0,0],"split_type":[0,0,0,0,0,0,0,0,0,0,0,0,0,0,0],"sum_hessian":[1.3627E4,7.256E3,6.371E3,2.578E3,4.678E3,4.687E3,1.684E3,5E1,2.528E3,3.05E3,1.628E3,1.416E3,3.271E3,1.571E3,1.13E2],"tree_param":{"num_deleted":"0","num_feature":"15","num_nodes":"15","size_leaf_vector":"1"}},{"base_weights":[-5.1090205E-3,-7.3804384E-1,4.9979997E-1,-1.2288368E0,-5.554472E-1,2.0717122E-1,9.984056E-1,-9.989396E-2,-4.731365E-2,-2.8272202E-2,-1.3527398E-2,2.4895193E-3,1.6921792E-2,3.3354666E-2,5.726333E-2],"categories":[],"categories_nodes":[],"categories_segments":[],"categories_sizes":[],"default_left":[0,0,0,0,0,0,0,0,0,0,0,0,0,0,0],"id":32,"left_children":[1,3,5,7,9,11,13,-1,-1,-1,-1,-1,-1,-1,-1],"loss_changes":[5.068808E3,4.9982983E2,1.182973E3,8.5013916E1,1.3362744E2,1.5986563E2,2.1233228E2,0E0,0E0,0E0,0E0,0E0,0E0,0E0,0E0],"parents":[2147483647,0,0,1,1,2,2,3,3,4,4,5,5,6,6],"right_children":[2,4,6,8,10,12,14,-1,-1,-1,-1,-1,-1,-1,-1],"split_conditions":[1.4E1,1.1E1,1.7E1,9E0,1.3E1,1.5333333E1,1.8666666E1,-9.989396E-2,-4.731365E-2,-2.8272202E-2,-1.3527398E-2,2.4895193E-3,1.6921792E-2,3.3354666E-2,5.726333E-2],"split_indices":[1,1,1,1,1,7,7,0,0,0,0,0,0,0,0],"split_type":[0,0,0,0,0,0,0,0,0,0,0,0,0,0,0],"sum_hessian":[1.3695E4,5.586E3,8.109E3,1.513E3,4.073E3,5.111E3,2.998E3,5.1E1,1.462E3,2.399E3,1.674E3,3.059E3,2.052E3,2.175E3,8.23E2],"tree_param":{"num_deleted":"0","num_feature":"15","num_nodes":"15","size_leaf_vector":"1"}},{"base_weights":[2.1061257E-3,-7.044882E-1,4.89352E-1,-4.3468845E-1,-1.0373628E0,2.0073609E-1,9.6798843E-1,-1.2532124E-2,-2.3200072E-2,-4.0492762E-2,-9.8608226E-2,2.3827236E-3,1.664416E-2,3.3159137E-2,5.3594574E-2],"categories":[],"categories_nodes":[],"categories_segments":[],"categories_sizes":[],"default_left":[0,0,0,0,0,0,0,0,0,0,0,0,0,0,0],"id":33,"left_children":[1,3,5,7,9,11,13,-1,-1,-1,-1,-1,-1,-1,-1],"loss_changes":[4.676749E3,4.9730566E2,1.1103514E3,5.3774536E1,8.587378E1,1.5245978E2,1.5499634E2,0E0,0E0,0E0,0E0,0E0,0E0,0E0,0E0],"parents":[2147483647,0,0,1,1,2,2,3,3,4,4,5,5,6,6],"right_children":[2,4,6,8,10,12,14,-1,-1,-1,-1,-1,-1,-1,-1],"split_conditions":[1.4E1,1.4E1,1.7E1,1.3E1,1.7E1,1.5333333E1,1.9E1,-1.2532124E-2,-2.3200072E-2,-4.0492762E-2,-9.8608226E-2,2.3827236E-3,1.664416E-2,3.3159137E-2,5.3594574E-2],"split_indices":[1,6,1,0,0,7,1,0,0,0,0,0,0,0,0],"split_type":[0,0,0,0,0,0,0,0,0,0,0,0,0,0,0],"sum_hessian":[1.3582E4,5.543E3,8.039E3,3.063E3,2.48E3,5.016E3,3.023E3,1.671E3,1.392E3,2.439E3,4.1E1,3.031E3,1.985E3,2.203E3,8.2E2],"tree_param":{"num_deleted":"0","num_feature":"15","num_nodes":"15","size_leaf_vector":"1"}},{"base_weights":[-3.3468087E-3,-5.353085E-1,5.9652394E-1,-2.9247442E-1,-9.844114E-1,3.036044E-1,9.253319E-1,-2.248462E-2,-7.3426985E-3,-3.832741E-2,-9.414224E-2,1.6393814E-2,6.238851E-3,6.0637098E-2,3.347162E-2],"categories":[],"categories_nodes":[],"categories_segments":[],"categories_sizes":[],"default_left":[0,0,0,0,0,1,0,0,0,0,0,0,0,0,0],"id":34,"left_children":[1,3,5,7,9,11,13,-1,-1,-1,-1,-1,-1,-1,-1],"loss_changes":[4.3602896E3,7.8937866E2,6.1812646E2,1.3790024E2,8.865454E1,5.3176086E1,1.5667993E2,0E0,0E0,0E0,0E0,0E0,0E0,0E0,0E0],"parents":[2147483647,0,0,1,1,2,2,3,3,4,4,5,5,6,6],"right_children":[2,4,6,8,10,12,14,-1,-1,-1,-1,-1,-1,-1,-1],"split_conditions":[1.5E1,1.3666667E1,1.7E1,1.2666667E1,1.7E1,9.666667E0,6E0,-2.248462E-2,-7.3426985E-3,-3.832741E-2,-9.414224E-2,1.6393814E-2,6.238851E-3,6.0637098E-2,3.347162E-2],"split_indices":[1,6,1,7,0,6,6,0,0,0,0,0,0,0,0],"split_type":[0,0,0,0,0,0,0,0,0,0,0,0,0,0,0],"sum_hessian":[1.3662E4,7.241E3,6.421E3,4.701E3,2.54E3,3.397E3,3.024E3,1.351E3,3.35E3,2.494E3,4.6E1,1.974E3,1.423E3,3.92E2,2.632E3],"tree_param":{"num_deleted":"0","num_feature":"15","num_nodes":"15","size_leaf_vector":"1"}},{"base_weights":[6.1643342E-3,-5.056545E-1,5.711086E-1,-9.278369E-1,-2.770757E-1,3.9493275E-1,1.069778E0,-3.3374857E-2,-5.2292287E-2,-2.1345882E-2,-6.5834997E-3,2.5788678E-2,1.1796195E-2,7.685079E-2,4.0192783E-2],"categories":[],"categories_nodes":[],"categories_segments":[],"categories_sizes":[],"default_left":[0,0,0,0,0,0,0,0,0,0,0,0,0,0,0],"id":35,"left_children":[1,3,5,7,9,11,13,-1,-1,-1,-1,-1,-1,-1,-1],"loss_changes":[3.9862158E3,6.97621E2,5.75135E2,8.878198E1,1.3531708E2,1.2074512E2,9.23595E1,0E0,0E0,0E0,0E0,0E0,0E0,0E0,0E0],"parents":[2147483647,0,0,1,1,2,2,3,3,4,4,5,5,6,6],"right_children":[2,4,6,8,10,12,14,-1,-1,-1,-1,-1,-1,-1,-1],"split_conditions":[1.4333333E1,1.1333333E1,1.8E1,1.6E1,1.3E1,9E0,5E0,-3.3374857E-2,-5.2292287E-2,-2.1345882E-2,-6.5834997E-3,2.5788678E-2,1.1796195E-2,7.685079E-2,4.0192783E-2],"split_indices":[7,7,1,0,7,0,0,0,0,0,0,0,0,0,0],"split_type":[0,0,0,0,0,0,0,0,0,0,0,0,0,0,0],"sum_hessian":[1.3784E4,7.232E3,6.552E3,2.539E3,4.693E3,4.843E3,1.709E3,2.04E3,4.99E2,1.429E3,3.264E3,1.383E3,3.46E3,1.19E2,1.59E3],"tree_param":{"num_deleted":"0","num_feature":"15","num_nodes":"15","size_leaf_vector":"1"}},{"base_weights":[3.9620395E-3,4.28116E-1,-6.2315756E-1,8.4551406E-1,1.6517058E-1,-3.8342252E-1,-9.1133493E-1,4.7785234E-2,2.8613623E-2,1.4640154E-2,1.8932229E-3,-1.0134864E-2,-2.1538073E-2,-3.305077E-2,-5.0469074E-2],"categories":[],"categories_nodes":[],"categories_segments":[],"categories_sizes":[],"default_left":[0,0,0,0,1,0,0,0,0,0,0,0,0,0,0],"id":36,"left_children":[1,3,5,7,9,11,13,-1,-1,-1,-1,-1,-1,-1,-1],"loss_changes":[3.6438503E3,8.9666003E2,3.8136084E2,1.4247217E2,1.18627335E2,6.0652588E1,7.353247E1,0E0,0E0,0E0,0E0,0E0,0E0,0E0,0E0],"parents":[2147483647,0,0,1,1,2,2,3,3,4,4,5,5,6,6],"right_children":[2,4,6,8,10,12,14,-1,-1,-1,-1,-1,-1,-1,-1],"split_conditions":[1.2E1,9E0,1.4E1,7E0,9.333333E0,1.3E1,1.6E1,4.7785234E-2,2.8613623E-2,1.4640154E-2,1.8932229E-3,-1.0134864E-2,-2.1538073E-2,-3.305077E-2,-5.0469074E-2],"split_indices":[0,0,6,0,6,0,0,0,0,0,0,0,0,0,0],"split_type":[0,0,0,0,0,0,0,0,0,0,0,0,0,0,0],"sum_hessian":[1.3697E4,8.171E3,5.526E3,3.157E3,5.014E3,3.018E3,2.508E3,8.55E2,2.302E3,1.853E3,3.161E3,1.643E3,1.375E3,2.021E3,4.87E2],"tree_param":{"num_deleted":"0","num_feature":"15","num_nodes":"15","size_leaf_vector":"1"}},{"base_weights":[-1.2940096E-2,-4.8120013E-1,5.0845623E-1,-2.6376995E-1,-8.7225103E-1,2.5478867E-1,7.9803246E-1,-1.5157274E-2,-2.2664005E-3,-3.4034863E-2,-8.493823E-2,5.7305917E-3,1.37406085E-2,2.729002E-2,4.5165844E-2],"categories":[],"categories_nodes":[],"categories_segments":[],"categories_sizes":[],"default_left":[0,0,1,0,0,0,0,0,0,0,0,0,0,0,0],"id":37,"left_children":[1,3,5,7,9,11,13,-1,-1,-1,-1,-1,-1,-1,-1],"loss_changes":[3.3778003E3,6.1941284E2,4.8053503E2,1.1170157E2,6.755261E1,3.444597E1,1.1620618E2,0E0,0E0,0E0,0E0,0E0,0E0,0E0,0E0],"parents":[2147483647,0,0,1,1,2,2,3,3,4,4,5,5,6,6],"right_children":[2,4,6,8,10,12,14,-1,-1,-1,-1,-1,-1,-1,-1],"split_conditions":[1.4333333E1,1.3666667E1,1.6333334E1,1.3333333E1,1.6333334E1,1.5666667E1,1.8666666E1,-1.5157274E-2,-2.2664005E-3,-3.4034863E-2,-8.493823E-2,5.7305917E-3,1.37406085E-2,2.729002E-2,4.5165844E-2],"split_indices":[7,6,7,7,6,7,7,0,0,0,0,0,0,0,0],"split_type":[0,0,0,0,0,0,0,0,0,0,0,0,0,0,0],"sum_hessian":[1.3833E4,7.288E3,6.545E3,4.685E3,2.603E3,3.49E3,3.055E3,3.01E3,1.675E3,2.561E3,4.2E1,1.548E3,1.942E3,2.266E3,7.89E2],"tree_param":{"num_deleted":"0","num_feature":"15","num_nodes":"15","size_leaf_vector":"1"}},{"base_weights":[-2.7911724E-3,-4.6167335E-1,5.124325E-1,-2.507608E-1,-8.485374E-1,3.5212338E-1,9.4756067E-1,-1.4502164E-2,-2.1883033E-3,-3.0557794E-2,-4.7574215E-2,1.0650108E-2,2.272845E-2,6.637813E-2,3.567279E-2],"categories":[],"categories_nodes":[],"categories_segments":[],"categories_sizes":[],"default_left":[0,0,1,0,0,1,0,0,0,0,0,0,0,0,0],"id":38,"left_children":[1,3,5,7,9,11,13,-1,-1,-1,-1,-1,-1,-1,-1],"loss_changes":[3.2693071E3,5.964592E2,4.5392065E2,1.037175E2,7.3279175E1,8.812714E1,6.782654E1,0E0,0E0,0E0,0E0,0E0,0E0,0E0,0E0],"parents":[2147483647,0,0,1,1,2,2,3,3,4,4,5,5,6,6],"right_children":[2,4,6,8,10,12,14,-1,-1,-1,-1,-1,-1,-1,-1],"split_conditions":[1.4333333E1,1.4E1,1.7333334E1,1.3333333E1,1.6E1,1.6333334E1,5E0,-1.4502164E-2,-2.1883033E-3,-3.0557794E-2,-4.7574215E-2,1.0650108E-2,2.272845E-2,6.637813E-2,3.567279E-2],"split_indices":[7,0,7,7,0,7,0,0,0,0,0,0,0,0,0],"split_type":[0,0,0,0,0,0,0,0,0,0,0,0,0,0,0],"sum_hessian":[1.3826E4,7.313E3,6.513E3,4.734E3,2.579E3,4.761E3,1.752E3,3.014E3,1.72E3,2.069E3,5.1E2,3.409E3,1.352E3,1.25E2,1.627E3],"tree_param":{"num_deleted":"0","num_feature":"15","num_nodes":"15","size_leaf_vector":"1"}},{"base_weights":[7.768076E-3,-5.4539627E-1,3.8122106E-1,-8.014364E-1,-3.3273444E-1,1.5546802E-1,7.490489E-1,-7.9347864E-2,-3.1119296E-2,-1.7811723E-2,-9.489967E-3,1.5935776E-3,1.3236332E-2,2.5081908E-2,4.3515902E-2],"categories":[],"categories_nodes":[],"categories_segments":[],"categories_sizes":[],"default_left":[0,0,1,0,0,0,0,0,0,0,0,0,0,0,0],"id":39,"left_children":[1,3,5,7,9,11,13,-1,-1,-1,-1,-1,-1,-1,-1],"loss_changes":[2.830969E3,3.0034705E2,6.79129E2,6.764099E1,3.2273376E1,1.02819595E2,1.2775488E2,0E0,0E0,0E0,0E0,0E0,0E0,0E0,0E0],"parents":[2147483647,0,0,1,1,2,2,3,3,4,4,5,5,6,6],"right_children":[2,4,6,8,10,12,14,-1,-1,-1,-1,-1,-1,-1,-1],"split_conditions":[1.3333333E1,1.1333333E1,1.6333334E1,9E0,1.2666667E1,1.5333333E1,1.8333334E1,-7.9347864E-2,-3.1119296E-2,-1.7811723E-2,-9.489967E-3,1.5935776E-3,1.3236332E-2,2.5081908E-2,4.3515902E-2],"split_indices":[7,7,7,7,7,7,7,0,0,0,0,0,0,0,0],"split_type":[0,0,0,0,0,0,0,0,0,0,0,0,0,0,0],"sum_hessian":[1.3702E4,5.522E3,8.18E3,2.504E3,3.018E3,5.07E3,3.11E3,4.7E1,2.457E3,1.383E3,1.635E3,3.057E3,2.013E3,2.289E3,8.21E2],"tree_param":{"num_deleted":"0","num_feature":"15","num_nodes":"15","size_leaf_vector":"1"}},{"base_weights":[-3.4888296E-3,-5.462424E-1,3.709686E-1,-9.1723245E-1,-4.0856013E-1,1.511459E-1,7.312195E-1,-7.864834E-2,-3.5262983E-2,-2.1282617E-2,-9.197025E-3,1.961938E-3,1.2386383E-2,2.4125313E-2,4.2756986E-2],"categories":[],"categories_nodes":[],"categories_segments":[],"categories_sizes":[],"default_left":[0,0,0,0,0,0,0,0,0,0,0,0,0,0,0],"id":40,"left_children":[1,3,5,7,9,11,13,-1,-1,-1,-1,-1,-1,-1,-1],"loss_changes":[2.7937283E3,2.8614673E2,6.4394336E2,5.4761475E1,9.014661E1,8.17259E1,1.3250159E2,0E0,0E0,0E0,0E0,0E0,0E0,0E0,0E0],"parents":[2147483647,0,0,1,1,2,2,3,3,4,4,5,5,6,6],"right_children":[2,4,6,8,10,12,14,-1,-1,-1,-1,-1,-1,-1,-1],"split_conditions":[1.4E1,1.1E1,1.7E1,9E0,1.3E1,1.6E1,1.9E1,-7.864834E-2,-3.5262983E-2,-2.1282617E-2,-9.197025E-3,1.961938E-3,1.2386383E-2,2.4125313E-2,4.2756986E-2],"split_indices":[1,1,1,1,1,1,1,0,0,0,0,0,0,0,0],"split_type":[0,0,0,0,0,0,0,0,0,0,0,0,0,0,0],"sum_hessian":[1.3744E4,5.611E3,8.133E3,1.517E3,4.094E3,5.052E3,3.081E3,4.8E1,1.469E3,2.419E3,1.675E3,3.074E3,1.978E3,2.236E3,8.45E2],"tree_param":{"num_deleted":"0","num_feature":"15","num_nodes":"15","size_leaf_vector":"1"}},{"base_weights":[-1.9445812E-3,4.3989274E-1,-4.0011874E-1,2.9583612E-1,8.4663725E-1,-1.2953214E-1,-6.278574E-1,1.9542728E-2,8.691504E-3,4.8733134E-2,2.9587433E-2,-8.46515E-3,-1.6827387E-3,-1.9033847E-2,-3.488427E-2],"categories":[],"categories_nodes":[],"categories_segments":[],"categories_sizes":[],"default_left":[0,1,0,0,0,0,0,0,0,0,0,0,0,0,0],"id":41,"left_children":[1,3,5,7,9,11,13,-1,-1,-1,-1,-1,-1,-1,-1],"loss_changes":[2.4191846E3,3.815526E2,4.4556226E2,7.2716675E1,6.664197E1,2.3711552E1,1.4525452E2,0E0,0E0,0E0,0E0,0E0,0E0,0E0,0E0],"parents":[2147483647,0,0,1,1,2,2,3,3,4,4,5,5,6,6],"right_children":[2,4,6,8,10,12,14,-1,-1,-1,-1,-1,-1,-1,-1],"split_conditions":[1.1E1,1.8E1,1.3E1,9E0,6E0,1.4E1,1.5E1,1.9542728E-2,8.691504E-3,4.8733134E-2,2.9587433E-2,-8.46515E-3,-1.6827387E-3,-1.9033847E-2,-3.488427E-2],"split_indices":[0,4,0,0,0,4,0,0,0,0,0,0,0,0,0],"split_type":[0,0,0,0,0,0,0,0,0,0,0,0,0,0,0],"sum_hessian":[1.3749E4,6.517E3,7.232E3,4.814E3,1.703E3,3.306E3,3.926E3,1.392E3,3.422E3,3.78E2,1.325E3,1.704E3,1.602E3,2.422E3,1.504E3],"tree_param":{"num_deleted":"0","num_feature":"15","num_nodes":"15","size_leaf_vector":"1"}},{"base_weights":[8.547312E-4,-3.8494295E-1,4.33304E-1,-2.0642774E-1,-7.1232253E-1,2.2649163E-1,6.6394E-1,-1.567335E-2,-5.1786443E-3,-2.7585765E-2,-7.2234206E-2,5.4048407E-3,1.1766423E-2,4.5289148E-2,2.3977244E-2],"categories":[],"categories_nodes":[],"categories_segments":[],"categories_sizes":[],"default_left":[0,0,0,0,0,0,0,0,0,0,0,0,0,0,0],"id":42,"left_children":[1,3,5,7,9,11,13,-1,-1,-1,-1,-1,-1,-1,-1],"loss_changes":[2.2773425E3,4.213634E2,3.067473E2,6.65341E1,6.161975E1,2.0908463E1,9.104321E1,0E0,0E0,0E0,0E0,0E0,0E0,0E0,0E0],"parents":[2147483647,0,0,1,1,2,2,3,3,4,4,5,5,6,6],"right_children":[2,4,6,8,10,12,14,-1,-1,-1,-1,-1,-1,-1,-1],"split_conditions":[1.5E1,1.4E1,1.7E1,1.3E1,1.7E1,1.5666667E1,6E0,-1.567335E-2,-5.1786443E-3,-2.7585765E-2,-7.2234206E-2,5.4048407E-3,1.1766423E-2,4.5289148E-2,2.3977244E-2],"split_indices":[1,0,1,7,0,7,0,0,0,0,0,0,0,0,0],"split_type":[0,0,0,0,0,0,0,0,0,0,0,0,0,0,0],"sum_hessian":[1.3648E4,7.213E3,6.435E3,4.669E3,2.544E3,3.394E3,3.041E3,1.368E3,3.301E3,2.494E3,5E1,1.446E3,1.948E3,3.66E2,2.675E3],"tree_param":{"num_deleted":"0","num_feature":"15","num_nodes":"15","size_leaf_vector":"1"}},{"base_weights":[3.5370288E-3,-4.6608344E-1,3.255694E-1,-8.090777E-1,-3.4213984E-1,1.3800539E-1,6.329513E-1,-3.137822E-2,-6.9844104E-2,-1.7408252E-2,-8.363029E-3,1.8942204E-3,1.1224699E-2,2.2947583E-2,4.263935E-2],"categories":[],"categories_nodes":[],"categories_segments":[],"categories_sizes":[],"default_left":[0,0,1,0,0,0,0,0,0,0,0,0,0,0,0],"id":43,"left_children":[1,3,5,7,9,11,13,-1,-1,-1,-1,-1,-1,-1,-1],"loss_changes":[2.0756594E3,2.3695215E2,4.6925262E2,3.2546143E1,5.0655396E1,6.534256E1,7.839258E1,0E0,0E0,0E0,0E0,0E0,0E0,0E0,0E0],"parents":[2147483647,0,0,1,1,2,2,3,3,4,4,5,5,6,6],"right_children":[2,4,6,8,10,12,14,-1,-1,-1,-1,-1,-1,-1,-1],"split_conditions":[1.4E1,1.1E1,1.6333334E1,1.6333334E1,1.3E1,1.6E1,2E1,-3.137822E-2,-6.9844104E-2,-1.7408252E-2,-8.363029E-3,1.8942204E-3,1.1224699E-2,2.2947583E-2,4.263935E-2],"split_indices":[1,1,7,6,1,1,1,0,0,0,0,0,0,0,0],"split_type":[0,0,0,0,0,0,0,0,0,0,0,0,0,0,0],"sum_hessian":[1.3723E4,5.582E3,8.141E3,1.48E3,4.102E3,5.057E3,3.084E3,1.444E3,3.6E1,2.412E3,1.69E3,3.093E3,1.964E3,2.715E3,3.69E2],"tree_param":{"num_deleted":"0","num_feature":"15","num_nodes":"15","size_leaf_vector":"1"}},{"base_weights":[5.6178947E-3,-3.5383266E-1,3.999968E-1,-1.12976715E-1,-5.6434685E-1,2.6016855E-1,7.790238E-1,-7.968331E-3,-1.1576118E-3,-1.7515581E-2,-3.0568711E-2,1.7524509E-2,7.4559315E-3,5.873935E-2,2.9159147E-2],"categories":[],"categories_nodes":[],"categories_segments":[],"categories_sizes":[],"default_left":[0,0,1,0,0,0,0,0,0,0,0,0,0,0,0],"id":44,"left_children":[1,3,5,7,9,11,13,-1,-1,-1,-1,-1,-1,-1,-1],"loss_changes":[1.9588401E3,3.664049E2,3.4890173E2,2.4414173E1,9.703137E1,6.3062347E1,5.995459E1,0E0,0E0,0E0,0E0,0E0,0E0,0E0,0E0],"parents":[2147483647,0,0,1,1,2,2,3,3,4,4,5,5,6,6],"right_children":[2,4,6,8,10,12,14,-1,-1,-1,-1,-1,-1,-1,-1],"split_conditions":[1.4333333E1,1.3E1,1.7333334E1,1.3333333E1,1.5E1,9E0,4.3333335E0,-7.968331E-3,-1.1576118E-3,-1.7515581E-2,-3.0568711E-2,1.7524509E-2,7.4559315E-3,5.873935E-2,2.9159147E-2],"split_indices":[7,6,7,7,6,6,6,0,0,0,0,0,0,0,0],"split_type":[0,0,0,0,0,0,0,0,0,0,0,0,0,0,0],"sum_hessian":[1.3816E4,7.228E3,6.588E3,3.372E3,3.856E3,4.814E3,1.774E3,1.663E3,1.709E3,2.364E3,1.492E3,1.409E3,3.405E3,1.18E2,1.656E3],"tree_param":{"num_deleted":"0","num_feature":"15","num_nodes":"15","size_leaf_vector":"1"}},{"base_weights":[-4.7308463E-3,-3.4483787E-1,3.740742E-1,-5.4153574E-1,-1.1368037E-1,2.4333765E-1,7.264448E-1,-2.9103935E-2,-1.707368E-2,-7.627366E-3,-1.4210099E-3,6.881086E-3,1.6857585E-2,2.7184E-2,5.6630496E-2],"categories":[],"categories_nodes":[],"categories_segments":[],"categories_sizes":[],"default_left":[0,0,0,0,0,0,0,0,0,0,0,0,0,0,0],"id":45,"left_children":[1,3,5,7,9,11,13,-1,-1,-1,-1,-1,-1,-1,-1],"loss_changes":[1.7728856E3,3.295628E2,2.99627E2,8.3163574E1,2.0041431E1,6.019574E1,5.5692627E1,0E0,0E0,0E0,0E0,0E0,0E0,0E0,0E0],"parents":[2147483647,0,0,1,1,2,2,3,3,4,4,5,5,6,6],"right_children":[2,4,6,8,10,12,14,-1,-1,-1,-1,-1,-1,-1,-1],"split_conditions":[1.5E1,1.3E1,1.8E1,1.1E1,1.4E1,1.7E1,2.1E1,-2.9103935E-2,-1.707368E-2,-7.627366E-3,-1.4210099E-3,6.881086E-3,1.6857585E-2,2.7184E-2,5.6630496E-2],"split_indices":[1,1,1,1,1,1,1,0,0,0,0,0,0,0,0],"split_type":[0,0,0,0,0,0,0,0,0,0,0,0,0,0,0],"sum_hessian":[1.3759E4,7.25E3,6.509E3,3.916E3,3.334E3,4.749E3,1.76E3,1.491E3,2.425E3,1.678E3,1.656E3,3.393E3,1.356E3,1.65E3,1.1E2],"tree_param":{"num_deleted":"0","num_feature":"15","num_nodes":"15","size_leaf_vector":"1"}},{"base_weights":[-2.2626057E-4,-4.1349903E-1,2.928699E-1,-3.0243084E-1,-7.152446E-1,1.2117495E-1,5.788604E-1,-7.663868E-3,-1.5145943E-2,-2.740704E-2,-6.529065E-2,1.0241957E-2,1.2823811E-3,2.05837E-2,3.9866854E-2],"categories":[],"categories_nodes":[],"categories_segments":[],"categories_sizes":[],"default_left":[0,0,0,0,0,0,0,0,0,0,0,0,0,0,0],"id":46,"left_children":[1,3,5,7,9,11,13,-1,-1,-1,-1,-1,-1,-1,-1],"loss_changes":[1.6697704E3,1.9138391E2,3.958766E2,3.5206482E1,4.1057983E1,6.0552544E1,8.056268E1,0E0,0E0,0E0,0E0,0E0,0E0,0E0,0E0],"parents":[2147483647,0,0,1,1,2,2,3,3,4,4,5,5,6,6],"right_children":[2,4,6,8,10,12,14,-1,-1,-1,-1,-1,-1,-1,-1],"split_conditions":[1.4E1,1.5E1,1.7E1,1.3E1,1.7E1,1E1,1.9333334E1,-7.663868E-3,-1.5145943E-2,-2.740704E-2,-6.529065E-2,1.0241957E-2,1.2823811E-3,2.05837E-2,3.9866854E-2],"split_indices":[1,0,1,0,0,0,7,0,0,0,0,0,0,0,0],"split_type":[0,0,0,0,0,0,0,0,0,0,0,0,0,0,0],"sum_hessian":[1.3783E4,5.719E3,8.064E3,4.182E3,1.537E3,5.04E3,3.024E3,1.706E3,2.476E3,1.49E3,4.7E1,2.004E3,3.036E3,2.623E3,4.01E2],"tree_param":{"num_deleted":"0","num_feature":"15","num_nodes":"15","size_leaf_vector":"1"}},{"base_weights":[3.0003358E-3,-3.1178135E-1,3.5522234E-1,-9.198623E-2,-5.0660175E-1,2.3823819E-1,6.792384E-1,-6.182442E-3,-1.1198743E-3,-1.571164E-2,-2.7465962E-2,1.5299427E-2,6.945987E-3,5.0986335E-2,2.5327114E-2],"categories":[],"categories_nodes":[],"categories_segments":[],"categories_sizes":[],"default_left":[0,0,1,0,0,0,0,0,0,0,0,0,0,0,0],"id":47,"left_children":[1,3,5,7,9,11,13,-1,-1,-1,-1,-1,-1,-1,-1],"loss_changes":[1.5195192E3,3.09786E2,2.449143E2,1.3599445E1,7.822717E1,4.416971E1,4.603662E1,0E0,0E0,0E0,0E0,0E0,0E0,0E0,0E0],"parents":[2147483647,0,0,1,1,2,2,3,3,4,4,5,5,6,6],"right_children":[2,4,6,8,10,12,14,-1,-1,-1,-1,-1,-1,-1,-1],"split_conditions":[1.5E1,1.3E1,1.8E1,1.4E1,1.5E1,9E0,5E0,-6.182442E-3,-1.1198743E-3,-1.571164E-2,-2.7465962E-2,1.5299427E-2,6.945987E-3,5.0986335E-2,2.5327114E-2],"split_indices":[4,6,4,4,0,6,6,0,0,0,0,0,0,0,0],"split_type":[0,0,0,0,0,0,0,0,0,0,0,0,0,0,0],"sum_hessian":[1.3703E4,7.236E3,6.467E3,3.401E3,3.835E3,4.753E3,1.714E3,1.718E3,1.683E3,2.352E3,1.483E3,1.468E3,3.285E3,1.21E2,1.593E3],"tree_param":{"num_deleted":"0","num_feature":"15","num_nodes":"15","size_leaf_vector":"1"}},{"base_weights":[-3.1519134E-3,-3.855808E-1,2.6507175E-1,-2.3438005E-1,-5.629565E-1,1.1067367E-1,5.2989846E-1,-7.0562134E-3,-1.2344047E-2,-2.1828974E-2,-6.114167E-2,9.640769E-3,1.0615574E-3,1.7637229E-2,3.0847302E-2],"categories":[],"categories_nodes":[],"categories_segments":[],"categories_sizes":[],"default_left":[0,0,0,0,0,0,0,0,0,0,0,0,0,0,0],"id":48,"left_children":[1,3,5,7,9,11,13,-1,-1,-1,-1,-1,-1,-1,-1],"loss_changes":[1.4085918E3,1.5161261E2,3.2989032E2,1.3055496E1,4.2286682E1,5.5896458E1,6.333722E1,0E0,0E0,0E0,0E0,0E0,0E0,0E0,0E0],"parents":[2147483647,0,0,1,1,2,2,3,3,4,4,5,5,6,6],"right_children":[2,4,6,8,10,12,14,-1,-1,-1,-1,-1,-1,-1,-1],"split_conditions":[1.4E1,1.4E1,1.7E1,1.3E1,1.6333334E1,1E1,1.9E1,-7.0562134E-3,-1.2344047E-2,-2.1828974E-2,-6.114167E-2,9.640769E-3,1.0615574E-3,1.7637229E-2,3.0847302E-2],"split_indices":[1,0,1,6,6,0,1,0,0,0,0,0,0,0,0],"split_type":[0,0,0,0,0,0,0,0,0,0,0,0,0,0,0],"sum_hessian":[1.373E4,5.66E3,8.07E3,3.057E3,2.603E3,5.099E3,2.971E3,1.719E3,1.338E3,2.559E3,4.4E1,1.999E3,3.1E3,2.173E3,7.98E2],"tree_param":{"num_deleted":"0","num_feature":"15","num_nodes":"15","size_leaf_vector":"1"}},{"base_weights":[-4.9187563E-4,-3.7357703E-1,2.5730652E-1,-6.506517E-1,-2.7175197E-1,1.10513315E-1,5.0475204E-1,-6.012907E-2,-2.4879595E-2,-1.4106091E-2,-6.3438397E-3,1.1856523E-3,9.367783E-3,1.7913941E-2,3.575087E-2],"categories":[],"categories_nodes":[],"categories_segments":[],"categories_sizes":[],"default_left":[0,0,0,0,0,0,0,0,0,0,0,0,0,0,0],"id":49,"left_children":[1,3,5,7,9,11,13,-1,-1,-1,-1,-1,-1,-1,-1],"loss_changes":[1.3154757E3,1.5741418E2,2.9366577E2,3.5531433E1,3.7325104E1,5.0758606E1,6.6118835E1,0E0,0E0,0E0,0E0,0E0,0E0,0E0,0E0],"parents":[2147483647,0,0,1,1,2,2,3,3,4,4,5,5,6,6],"right_children":[2,4,6,8,10,12,14,-1,-1,-1,-1,-1,-1,-1,-1],"split_conditions":[1.4E1,1.1E1,1.7E1,9E0,1.3E1,1.6E1,2E1,-6.012907E-2,-2.4879595E-2,-1.4106091E-2,-6.3438397E-3,1.1856523E-3,9.367783E-3,1.7913941E-2,3.575087E-2],"split_indices":[1,1,1,1,1,1,1,0,0,0,0,0,0,0,0],"split_type":[0,0,0,0,0,0,0,0,0,0,0,0,0,0,0],"sum_hessian":[1.3675E4,5.588E3,8.087E3,1.5E3,4.088E3,5.077E3,3.01E3,4.7E1,1.453E3,2.382E3,1.706E3,3.071E3,2.006E3,2.628E3,3.82E2],"tree_param":{"num_deleted":"0","num_feature":"15","num_nodes":"15","size_leaf_vector":"1"}},{"base_weights":[3.4950778E-3,-2.7266604E-1,3.1574288E-1,-1.4553069E-1,-5.112376E-1,2.191989E-1,5.930408E-1,-8.365486E-3,-9.960745E-4,-1.5071908E-2,-2.4232963E-2,1.0993514E-2,3.5981722E-3,4.662198E-2,2.1929404E-2],"categories":[],"categories_nodes":[],"categories_segments":[],"categories_sizes":[],"default_left":[0,0,0,0,0,1,0,0,0,0,0,0,0,0,0],"id":50,"left_children":[1,3,5,7,9,11,13,-1,-1,-1,-1,-1,-1,-1,-1],"loss_changes":[1.1773119E3,2.1960718E2,1.7134027E2,3.624826E1,3.1692871E1,3.4132156E1,4.161743E1,0E0,0E0,0E0,0E0,0E0,0E0,0E0,0E0],"parents":[2147483647,0,0,1,1,2,2,3,3,4,4,5,5,6,6],"right_children":[2,4,6,8,10,12,14,-1,-1,-1,-1,-1,-1,-1,-1],"split_conditions":[1.5E1,1.4E1,1.8E1,1.4E1,1.5E1,1E1,5E0,-8.365486E-3,-9.960745E-4,-1.5071908E-2,-2.4232963E-2,1.0993514E-2,3.5981722E-3,4.662198E-2,2.1929404E-2],"split_indices":[1,6,1,1,0,6,0,0,0,0,0,0,0,0,0],"split_type":[0,0,0,0,0,0,0,0,0,0,0,0,0,0,0],"sum_hessian":[1.3651E4,7.244E3,6.407E3,4.727E3,2.517E3,4.754E3,1.653E3,3.094E3,1.633E3,1.042E3,1.475E3,3.322E3,1.432E3,1.18E2,1.535E3],"tree_param":{"num_deleted":"0","num_feature":"15","num_nodes":"15","size_leaf_vector":"1"}},{"base_weights":[-1.8443327E-3,-2.725376E-1,2.9615685E-1,-1.4448583E-1,-5.0060946E-1,2.050959E-1,5.473319E-1,-3.569646E-3,-1.1261271E-2,-1.7498037E-2,-3.0899597E-2,1.1921954E-2,6.632005E-3,4.671369E-2,2.0340392E-2],"categories":[],"categories_nodes":[],"categories_segments":[],"categories_sizes":[],"default_left":[0,0,1,0,0,1,0,0,0,0,0,0,0,0,0],"id":51,"left_children":[1,3,5,7,9,11,13,-1,-1,-1,-1,-1,-1,-1,-1],"loss_changes":[1.1031177E3,2.0914618E2,1.4868799E2,3.4696533E1,4.3775085E1,1.7360245E1,4.093744E1,0E0,0E0,0E0,0E0,0E0,0E0,0E0,0E0],"parents":[2147483647,0,0,1,1,2,2,3,3,4,4,5,5,6,6],"right_children":[2,4,6,8,10,12,14,-1,-1,-1,-1,-1,-1,-1,-1],"split_conditions":[1.4333333E1,1.3333333E1,1.7333334E1,1.3E1,1.6E1,9E0,5E0,-3.569646E-3,-1.1261271E-2,-1.7498037E-2,-3.0899597E-2,1.1921954E-2,6.632005E-3,4.671369E-2,2.0340392E-2],"split_indices":[7,6,7,0,0,6,3,0,0,0,0,0,0,0,0],"split_type":[0,0,0,0,0,0,0,0,0,0,0,0,0,0,0],"sum_hessian":[1.3673E4,7.165E3,6.508E3,4.59E3,2.575E3,4.778E3,1.73E3,3.273E3,1.317E3,2.092E3,4.83E2,1.417E3,3.361E3,1E2,1.63E3],"tree_param":{"num_deleted":"0","num_feature":"15","num_nodes":"15","size_leaf_vector":"1"}},{"base_weights":[1.6871104E-3,-2.6334324E-1,2.9654133E-1,-4.882036E-1,-1.371558E-1,2.002939E-1,5.6048346E-1,-2.9316835E-2,-1.7040303E-2,-1.1036423E-2,-3.2314302E-3,6.3459706E-3,1.2491739E-2,4.077898E-2,2.1034287E-2],"categories":[],"categories_nodes":[],"categories_segments":[],"categories_sizes":[],"default_left":[0,0,0,0,0,0,0,0,0,0,0,0,0,0,0],"id":52,"left_children":[1,3,5,7,9,11,13,-1,-1,-1,-1,-1,-1,-1,-1],"loss_changes":[1.0773147E3,2.0586972E2,1.6559656E2,3.9281982E1,3.632817E1,2.2216782E1,2.701117E1,0E0,0E0,0E0,0E0,0E0,0E0,0E0,0E0],"parents":[2147483647,0,0,1,1,2,2,3,3,4,4,5,5,6,6],"right_children":[2,4,6,8,10,12,14,-1,-1,-1,-1,-1,-1,-1,-1],"split_conditions":[1.5E1,1.2E1,1.8E1,1E1,1.3E1,1.7E1,5E0,-2.9316835E-2,-1.7040303E-2,-1.1036423E-2,-3.2314302E-3,6.3459706E-3,1.2491739E-2,4.077898E-2,2.1034287E-2],"split_indices":[1,1,1,1,1,1,3,0,0,0,0,0,0,0,0],"split_type":[0,0,0,0,0,0,0,0,0,0,0,0,0,0,0],"sum_hessian":[1.3784E4,7.259E3,6.525E3,2.608E3,4.651E3,4.783E3,1.742E3,5.26E2,2.082E3,1.342E3,3.309E3,3.489E3,1.294E3,1.2E2,1.622E3],"tree_param":{"num_deleted":"0","num_feature":"15","num_nodes":"15","size_leaf_vector":"1"}},{"base_weights":[1.2458959E-3,-2.463064E-1,2.7747005E-1,-1.2803464E-1,-4.5825845E-1,1.8061386E-1,5.399868E-1,-3.0960038E-3,-1.0261264E-2,-1.777262E-2,-5.282668E-2,2.75286E-3,9.119022E-3,4.2724557E-2,1.9918092E-2],"categories":[],"categories_nodes":[],"categories_segments":[],"categories_sizes":[],"default_left":[0,0,0,0,0,0,0,0,0,0,0,0,0,0,0],"id":53,"left_children":[1,3,5,7,9,11,13,-1,-1,-1,-1,-1,-1,-1,-1],"loss_changes":[9.473386E2,1.8302908E2,1.663223E2,3.04682E1,3.069281E1,2.5289642E1,3.8471558E1,0E0,0E0,0E0,0E0,0E0,0E0,0E0,0E0],"parents":[2147483647,0,0,1,1,2,2,3,3,4,4,5,5,6,6],"right_children":[2,4,6,8,10,12,14,-1,-1,-1,-1,-1,-1,-1,-1],"split_conditions":[1.5E1,1.4E1,1.8E1,1.3E1,1.7E1,1.5333333E1,5E0,-3.0960038E-3,-1.0261264E-2,-1.777262E-2,-5.282668E-2,2.75286E-3,9.119022E-3,4.2724557E-2,1.9918092E-2],"split_indices":[1,0,1,0,0,7,0,0,0,0,0,0,0,0,0],"split_type":[0,0,0,0,0,0,0,0,0,0,0,0,0,0,0],"sum_hessian":[1.3852E4,7.305E3,6.547E3,4.69E3,2.615E3,4.784E3,1.763E3,3.366E3,1.324E3,2.575E3,4E1,1.425E3,3.359E3,1.28E2,1.635E3],"tree_param":{"num_deleted":"0","num_feature":"15","num_nodes":"15","size_leaf_vector":"1"}},{"base_weights":[3.7456858E-3,-2.324149E-1,2.6611677E-1,-1.1475501E-1,-4.351256E-1,1.7540032E-1,5.159647E-1,-6.4517492E-3,-1.2405334E-3,-2.7636437E-2,-1.511524E-2,2.6300177E-3,8.940734E-3,1.9302195E-2,3.856829E-2],"categories":[],"categories_nodes":[],"categories_segments":[],"categories_sizes":[],"default_left":[0,0,0,0,0,0,0,0,0,0,0,0,0,0,0],"id":54,"left_children":[1,3,5,7,9,11,13,-1,-1,-1,-1,-1,-1,-1,-1],"loss_changes":[8.513572E2,1.7236105E2,1.4736896E2,1.7813385E1,3.8507446E1,2.5160492E1,2.5342896E1,0E0,0E0,0E0,0E0,0E0,0E0,0E0,0E0],"parents":[2147483647,0,0,1,1,2,2,3,3,4,4,5,5,6,6],"right_children":[2,4,6,8,10,12,14,-1,-1,-1,-1,-1,-1,-1,-1],"split_conditions":[1.4666667E1,1.3333333E1,1.8E1,1.4E1,1E1,1.6E1,2.1E1,-6.4517492E-3,-1.2405334E-3,-2.7636437E-2,-1.511524E-2,2.6300177E-3,8.940734E-3,1.9302195E-2,3.856829E-2],"split_indices":[7,6,1,1,1,7,4,0,0,0,0,0,0,0,0],"split_type":[0,0,0,0,0,0,0,0,0,0,0,0,0,0,0],"sum_hessian":[1.3738E4,7.23E3,6.508E3,4.576E3,2.654E3,4.776E3,1.732E3,2.94E3,1.636E3,4.83E2,2.171E3,1.458E3,3.318E3,1.614E3,1.18E2],"tree_param":{"num_deleted":"0","num_feature":"15","num_nodes":"15","size_leaf_vector":"1"}},{"base_weights":[-6.877596E-3,-2.9627383E-1,1.9596438E-1,-4.9563807E-1,-2.2417517E-1,3.7615395E-1,8.03586E-2,-4.940751E-2,-1.8999869E-2,-1.1558496E-2,-5.3739827E-3,1.4078072E-2,4.023579E-2,-4.8571135E-4,5.0725224E-3],"categories":[],"categories_nodes":[],"categories_segments":[],"categories_sizes":[],"default_left":[0,0,0,0,0,0,0,0,0,0,0,0,0,0,0],"id":55,"left_children":[1,3,5,7,9,11,13,-1,-1,-1,-1,-1,-1,-1,-1],"loss_changes":[8.056903E2,8.11156E1,1.6800912E2,2.2155487E1,2.410492E1,4.7565247E1,2.114186E1,0E0,0E0,0E0,0E0,0E0,0E0,0E0,0E0],"parents":[2147483647,0,0,1,1,2,2,3,3,4,4,5,5,6,6],"right_children":[2,4,6,8,10,12,14,-1,-1,-1,-1,-1,-1,-1,-1],"split_conditions":[1.4E1,1.1E1,9E0,9E0,1.3E1,2.1E1,1.5E1,-4.940751E-2,-1.8999869E-2,-1.1558496E-2,-5.3739827E-3,1.4078072E-2,4.023579E-2,-4.8571135E-4,5.0725224E-3],"split_indices":[1,1,6,1,1,1,1,0,0,0,0,0,0,0,0],"split_type":[0,0,0,0,0,0,0,0,0,0,0,0,0,0,0],"sum_hessian":[1.3723E4,5.655E3,8.068E3,1.5E3,4.155E3,3.152E3,4.916E3,3.9E1,1.461E3,2.412E3,1.743E3,3.037E3,1.15E2,1.643E3,3.273E3],"tree_param":{"num_deleted":"0","num_feature":"15","num_nodes":"15","size_leaf_vector":"1"}},{"base_weights":[2.6958368E-3,-2.221722E-1,2.5080287E-1,-1.5269707E-1,-4.8037648E-1,1.7006643E-1,4.7189403E-1,-8.310584E-3,-1.1304263E-3,-1.8297963E-2,-4.809734E-2,8.55448E-3,3.0080082E-3,1.4081229E-2,2.3777869E-2],"categories":[],"categories_nodes":[],"categories_segments":[],"categories_sizes":[],"default_left":[0,0,0,0,0,1,0,0,0,0,0,0,0,0,0],"id":56,"left_children":[1,3,5,7,9,11,13,-1,-1,-1,-1,-1,-1,-1,-1],"loss_changes":[7.623914E2,1.2844846E2,1.158277E2,3.868663E1,2.4430847E1,1.9735641E1,2.5211884E1,0E0,0E0,0E0,0E0,0E0,0E0,0E0,0E0],"parents":[2147483647,0,0,1,1,2,2,3,3,4,4,5,5,6,6],"right_children":[2,4,6,8,10,12,14,-1,-1,-1,-1,-1,-1,-1,-1],"split_conditions":[1.4666667E1,1.5E1,1.8E1,1.3333333E1,1.7E1,9.333333E0,1.8333334E1,-8.310584E-3,-1.1304263E-3,-1.8297963E-2,-4.809734E-2,8.55448E-3,3.0080082E-3,1.4081229E-2,2.3777869E-2],"split_indices":[7,0,1,7,0,6,7,0,0,0,0,0,0,0,0],"split_type":[0,0,0,0,0,0,0,0,0,0,0,0,0,0,0],"sum_hessian":[1.3663E4,7.167E3,6.496E3,5.649E3,1.518E3,4.76E3,1.736E3,3.915E3,1.734E3,1.473E3,4.5E1,3.255E3,1.505E3,8.8E2,8.56E2],"tree_param":{"num_deleted":"0","num_feature":"15","num_nodes":"15","size_leaf_vector":"1"}},{"base_weights":[2.6666524E-3,-2.0656821E-1,2.3424822E-1,-3.7466297E-1,-1.0867055E-1,1.5836343E-1,4.5132092E-1,-1.2915505E-2,-2.3855077E-2,-6.4020352E-3,-7.711702E-4,-2.2847278E-2,6.5847193E-3,1.5305726E-2,2.7312478E-2],"categories":[],"categories_nodes":[],"categories_segments":[],"categories_sizes":[],"default_left":[0,0,1,0,0,0,0,0,0,0,0,0,0,0,0],"id":57,"left_children":[1,3,5,7,9,11,13,-1,-1,-1,-1,-1,-1,-1,-1],"loss_changes":[6.6281775E2,1.1816437E2,1.0682358E2,3.0066833E1,2.0844776E1,2.2015015E1,2.6357208E1,0E0,0E0,0E0,0E0,0E0,0E0,0E0,0E0],"parents":[2147483647,0,0,1,1,2,2,3,3,4,4,5,5,6,6],"right_children":[2,4,6,8,10,12,14,-1,-1,-1,-1,-1,-1,-1,-1],"split_conditions":[1.4333333E1,1.2E1,1.7666666E1,1.6E1,1.3333333E1,8E0,1.9333334E1,-1.2915505E-2,-2.3855077E-2,-6.4020352E-3,-7.711702E-4,-2.2847278E-2,6.5847193E-3,1.5305726E-2,2.7312478E-2],"split_indices":[7,7,7,0,7,3,7,0,0,0,0,0,0,0,0],"split_type":[0,0,0,0,0,0,0,0,0,0,0,0,0,0,0],"sum_hessian":[1.3677E4,7.185E3,6.492E3,2.643E3,4.542E3,4.812E3,1.68E3,2.145E3,4.98E2,2.883E3,1.659E3,4E1,4.772E3,1.298E3,3.82E2],"tree_param":{"num_deleted":"0","num_feature":"15","num_nodes":"15","size_leaf_vector":"1"}},{"base_weights":[-1.0306626E-3,-2.0247312E-1,2.3000258E-1,-6.0705476E-2,-3.249417E-1,1.5203202E-1,4.4167826E-1,-4.505438E-3,-4.7182175E-4,-9.897629E-3,-1.7916309E-2,7.5319964E-3,2.8410333E-3,3.784709E-2,1.6301682E-2],"categories":[],"categories_nodes":[],"categories_segments":[],"categories_sizes":[],"default_left":[0,0,1,0,0,1,0,0,0,0,0,0,0,0,0],"id":58,"left_children":[1,3,5,7,9,11,13,-1,-1,-1,-1,-1,-1,-1,-1],"loss_changes":[6.383852E2,1.2717105E2,1.0532056E2,8.616863E0,3.7282013E1,1.3683731E1,2.90831E1,0E0,0E0,0E0,0E0,0E0,0E0,0E0,0E0],"parents":[2147483647,0,0,1,1,2,2,3,3,4,4,5,5,6,6],"right_children":[2,4,6,8,10,12,14,-1,-1,-1,-1,-1,-1,-1,-1],"split_conditions":[1.5E1,1.3E1,1.7333334E1,1.3333333E1,1.5E1,9.333333E0,5E0,-4.505438E-3,-4.7182175E-4,-9.897629E-3,-1.7916309E-2,7.5319964E-3,2.8410333E-3,3.784709E-2,1.6301682E-2],"split_indices":[7,0,7,7,0,6,0,0,0,0,0,0,0,0,0],"split_type":[0,0,0,0,0,0,0,0,0,0,0,0,0,0,0],"sum_hessian":[1.3715E4,7.327E3,6.388E3,3.397E3,3.93E3,4.67E3,1.718E3,1.646E3,1.751E3,2.413E3,1.517E3,3.224E3,1.446E3,1.07E2,1.611E3],"tree_param":{"num_deleted":"0","num_feature":"15","num_nodes":"15","size_leaf_vector":"1"}},{"base_weights":[1.6407265E-3,-1.9318208E-1,2.2058816E-1,-3.1456783E-1,-5.1843815E-2,1.4369583E-1,4.3503666E-1,-1.754111E-2,-9.525521E-3,-1.7991E-3,-1.4261958E-2,2.2110539E-3,7.258733E-3,1.6187934E-2,3.4277696E-2],"categories":[],"categories_nodes":[],"categories_segments":[],"categories_sizes":[],"default_left":[0,0,0,0,0,0,0,0,0,0,0,0,0,0,0],"id":59,"left_children":[1,3,5,7,9,11,13,-1,-1,-1,-1,-1,-1,-1,-1],"loss_changes":[5.8929474E2,1.2536072E2,1.0714346E2,3.7080566E1,7.0133553E0,1.596405E1,2.1491669E1,0E0,0E0,0E0,0E0,0E0,0E0,0E0,0E0],"parents":[2147483647,0,0,1,1,2,2,3,3,4,4,5,5,6,6],"right_children":[2,4,6,8,10,12,14,-1,-1,-1,-1,-1,-1,-1,-1],"split_conditions":[1.5E1,1.3E1,1.8E1,1.1E1,3.3333334E-1,1.6E1,2.1E1,-1.754111E-2,-9.525521E-3,-1.7991E-3,-1.4261958E-2,2.2110539E-3,7.258733E-3,1.6187934E-2,3.4277696E-2],"split_indices":[1,1,1,1,8,1,1,0,0,0,0,0,0,0,0],"split_type":[0,0,0,0,0,0,0,0,0,0,0,0,0,0,0],"sum_hessian":[1.3813E4,7.309E3,6.504E3,3.931E3,3.378E3,4.789E3,1.715E3,1.497E3,2.434E3,3.305E3,7.3E1,1.435E3,3.354E3,1.602E3,1.13E2],"tree_param":{"num_deleted":"0","num_feature":"15","num_nodes":"15","size_leaf_vector":"1"}},{"base_weights":[5.749478E-3,-1.4647588E-1,2.677977E-1,-3.1740893E-2,-2.8805503E-1,2.1851383E-1,5.1975775E-1,-3.2770317E-3,-1.6372107E-4,-1.0160206E-2,-2.0568307E-2,6.315791E-3,1.0787887E-2,3.6279824E-2,1.8274872E-2],"categories":[],"categories_nodes":[],"categories_segments":[],"categories_sizes":[],"default_left":[0,0,1,0,0,1,0,0,0,0,0,0,0,0,0],"id":60,"left_children":[1,3,5,7,9,11,13,-1,-1,-1,-1,-1,-1,-1,-1],"loss_changes":[5.527726E2,1.4233826E2,6.3042847E1,6.7107515E0,3.0001556E1,1.3135193E1,1.9709946E1,0E0,0E0,0E0,0E0,0E0,0E0,0E0,0E0],"parents":[2147483647,0,0,1,1,2,2,3,3,4,4,5,5,6,6],"right_children":[2,4,6,8,10,12,14,-1,-1,-1,-1,-1,-1,-1,-1],"split_conditions":[1.5666667E1,1.3E1,1.8333334E1,1.3333333E1,1.5333333E1,1.6333334E1,5E0,-3.2770317E-3,-1.6372107E-4,-1.0160206E-2,-2.0568307E-2,6.315791E-3,1.0787887E-2,3.6279824E-2,1.8274872E-2],"split_indices":[7,6,7,7,6,7,3,0,0,0,0,0,0,0,0],"split_type":[0,0,0,0,0,0,0,0,0,0,0,0,0,0,0],"sum_hessian":[1.3855E4,8.764E3,5.091E3,4.842E3,3.922E3,4.26E3,8.31E2,1.718E3,3.124E3,3.411E3,5.11E2,1.953E3,2.307E3,1.14E2,7.17E2],"tree_param":{"num_deleted":"0","num_feature":"15","num_nodes":"15","size_leaf_vector":"1"}},{"base_weights":[6.786343E-3,-1.8068829E-1,2.1498024E-1,-9.116401E-2,-3.4826833E-1,1.4084639E-1,4.1473696E-1,-2.454216E-3,-6.517561E-3,-1.1794263E-2,-2.2462087E-2,-2.399812E-2,5.874107E-3,1.2347682E-2,2.0945305E-2],"categories":[],"categories_nodes":[],"categories_segments":[],"categories_sizes":[],"default_left":[0,0,0,0,0,0,0,0,0,0,0,0,0,0,0],"id":61,"left_children":[1,3,5,7,9,11,13,-1,-1,-1,-1,-1,-1,-1,-1],"loss_changes":[5.325432E2,1.0762714E2,9.562454E1,9.982632E0,2.8217041E1,2.1030945E1,1.995227E1,0E0,0E0,0E0,0E0,0E0,0E0,0E0,0E0],"parents":[2147483647,0,0,1,1,2,2,3,3,4,4,5,5,6,6],"right_children":[2,4,6,8,10,12,14,-1,-1,-1,-1,-1,-1,-1,-1],"split_conditions":[1.5E1,1.4E1,1.8E1,1.3E1,1.6E1,7.3333335E0,1.8333334E1,-2.454216E-3,-6.517561E-3,-1.1794263E-2,-2.2462087E-2,-2.399812E-2,5.874107E-3,1.2347682E-2,2.0945305E-2],"split_indices":[1,6,1,0,0,6,7,0,0,0,0,0,0,0,0],"split_type":[0,0,0,0,0,0,0,0,0,0,0,0,0,0,0],"sum_hessian":[1.3642E4,7.178E3,6.464E3,4.68E3,2.498E3,4.716E3,1.748E3,3.309E3,1.371E3,2E3,4.98E2,3.7E1,4.679E3,8.88E2,8.6E2],"tree_param":{"num_deleted":"0","num_feature":"15","num_nodes":"15","size_leaf_vector":"1"}},{"base_weights":[-1.1185389E-3,2.4170522E-1,-1.4178479E-1,1.7064992E-1,3.8104236E-1,-2.7851993E-2,-2.7907738E-1,9.422265E-3,4.895626E-3,3.2369014E-2,1.4069627E-2,-8.828611E-4,-1.4449277E-2,-8.325384E-3,-1.5745707E-2],"categories":[],"categories_nodes":[],"categories_segments":[],"categories_sizes":[],"default_left":[0,0,0,0,0,0,0,0,0,0,0,0,0,0,0],"id":62,"left_children":[1,3,5,7,9,11,13,-1,-1,-1,-1,-1,-1,-1,-1],"loss_changes":[4.6524408E2,4.9343414E1,1.3487488E2,1.0306587E1,2.075261E1,9.039934E0,3.1644867E1,0E0,0E0,0E0,0E0,0E0,0E0,0E0,0E0],"parents":[2147483647,0,0,1,1,2,2,3,3,4,4,5,5,6,6],"right_children":[2,4,6,8,10,12,14,-1,-1,-1,-1,-1,-1,-1,-1],"split_conditions":[1E1,1.8E1,1.3E1,9E0,4.3333335E0,1E0,1.5E1,9.422265E-3,4.895626E-3,3.2369014E-2,1.4069627E-2,-8.828611E-4,-1.4449277E-2,-8.325384E-3,-1.5745707E-2],"split_indices":[0,1,0,0,6,5,0,0,0,0,0,0,0,0,0],"split_type":[0,0,0,0,0,0,0,0,0,0,0,0,0,0,0],"sum_hessian":[1.3619E4,4.995E3,8.624E3,3.31E3,1.685E3,4.714E3,3.91E3,1.409E3,1.901E3,1.06E2,1.579E3,4.635E3,7.9E1,2.417E3,1.493E3],"tree_param":{"num_deleted":"0","num_feature":"15","num_nodes":"15","size_leaf_vector":"1"}},{"base_weights":[2.8621107E-3,-1.3377741E-1,2.3419209E-1,-5.8394466E-2,-3.0707693E-1,1.6527848E-1,3.7268102E-1,-4.5583723E-3,-2.4174147E-4,-1.1855033E-2,-4.2317003E-2,-1.263831E-2,6.799812E-3,1.52262235E-2,-3.0420069E-2],"categories":[],"categories_nodes":[],"categories_segments":[],"categories_sizes":[],"default_left":[0,0,1,0,0,0,0,0,0,0,0,0,0,0,0],"id":63,"left_children":[1,3,5,7,9,11,13,-1,-1,-1,-1,-1,-1,-1,-1],"loss_changes":[4.3121722E2,1.1198091E2,4.8233368E1,1.7376541E1,2.0433762E1,7.722748E0,1.5451126E1,0E0,0E0,0E0,0E0,0E0,0E0,0E0,0E0],"parents":[2147483647,0,0,1,1,2,2,3,3,4,4,5,5,6,6],"right_children":[2,4,6,8,10,12,14,-1,-1,-1,-1,-1,-1,-1,-1],"split_conditions":[1.5333333E1,1.3333333E1,1.8E1,1.3333333E1,1.7E1,7.3333335E0,1E0,-4.5583723E-3,-2.4174147E-4,-1.1855033E-2,-4.2317003E-2,-1.263831E-2,6.799812E-3,1.52262235E-2,-3.0420069E-2],"split_indices":[7,6,7,7,3,6,5,0,0,0,0,0,0,0,0],"split_type":[0,0,0,0,0,0,0,0,0,0,0,0,0,0,0],"sum_hessian":[1.364E4,8.575E3,5.065E3,5.977E3,2.598E3,3.384E3,1.681E3,2.898E3,3.079E3,2.563E3,3.5E1,3.2E1,3.352E3,1.67E3,1.1E1],"tree_param":{"num_deleted":"0","num_feature":"15","num_nodes":"15","size_leaf_vector":"1"}},{"base_weights":[-2.5635714E-5,-2.1624194E-1,1.4537805E-1,-3.615364E-1,-1.6240281E-1,9.269264E-2,3.4314173E-1,-3.9400816E-2,-1.36208255E-2,-7.851962E-3,-4.467576E-3,1.2535305E-3,5.9958766E-3,1.143697E-2,2.1092448E-2],"categories":[],"categories_nodes":[],"categories_segments":[],"categories_sizes":[],"default_left":[0,0,0,0,0,0,0,0,0,0,0,0,0,0,0],"id":64,"left_children":[1,3,5,7,9,11,13,-1,-1,-1,-1,-1,-1,-1,-1],"loss_changes":[4.3213132E2,4.3123993E1,8.555011E1,1.9094772E1,6.8834305E0,2.2758854E1,1.7977081E1,0E0,0E0,0E0,0E0,0E0,0E0,0E0,0E0],"parents":[2147483647,0,0,1,1,2,2,3,3,4,4,5,5,6,6],"right_children":[2,4,6,8,10,12,14,-1,-1,-1,-1,-1,-1,-1,-1],"split_conditions":[1.4E1,1.1E1,1.8E1,9E0,1.3E1,1.6E1,1.9333334E1,-3.9400816E-2,-1.36208255E-2,-7.851962E-3,-4.467576E-3,1.2535305E-3,5.9958766E-3,1.143697E-2,2.1092448E-2],"split_indices":[1,1,1,7,7,1,7,0,0,0,0,0,0,0,0],"split_type":[0,0,0,0,0,0,0,0,0,0,0,0,0,0,0],"sum_hessian":[1.3743E4,5.526E3,8.217E3,1.492E3,4.034E3,6.49E3,1.727E3,4.7E1,1.445E3,2.415E3,1.619E3,3.133E3,3.357E3,1.32E3,4.07E2],"tree_param":{"num_deleted":"0","num_feature":"15","num_nodes":"15","size_leaf_vector":"1"}},{"base_weights":[-4.254934E-3,-1.2749052E-1,2.0763478E-1,-6.0300644E-2,-2.8779906E-1,1.4649558E-1,3.2259208E-1,-4.9104295E-3,-1.0819465E-4,-9.580172E-3,-1.912713E-2,-2.1456892E-2,6.1432812E-3,2.6191432E-2,1.18037E-2],"categories":[],"categories_nodes":[],"categories_segments":[],"categories_sizes":[],"default_left":[0,0,1,0,0,0,0,0,0,0,0,0,0,0,0],"id":65,"left_children":[1,3,5,7,9,11,13,-1,-1,-1,-1,-1,-1,-1,-1],"loss_changes":[3.5903717E2,9.359186E1,3.544139E1,2.2032223E1,2.3415543E1,1.6028862E1,1.5734924E1,0E0,0E0,0E0,0E0,0E0,0E0,0E0,0E0],"parents":[2147483647,0,0,1,1,2,2,3,3,4,4,5,5,6,6],"right_children":[2,4,6,8,10,12,14,-1,-1,-1,-1,-1,-1,-1,-1],"split_conditions":[1.5666667E1,1.4E1,1.7333334E1,1.3333333E1,1.6E1,7.3333335E0,5E0,-4.9104295E-3,-1.0819465E-4,-9.580172E-3,-1.912713E-2,-2.1456892E-2,6.1432812E-3,2.6191432E-2,1.18037E-2],"split_indices":[7,0,7,7,0,6,0,0,0,0,0,0,0,0,0],"split_type":[0,0,0,0,0,0,0,0,0,0,0,0,0,0,0],"sum_hessian":[1.3748E4,8.693E3,5.055E3,6.127E3,2.566E3,3.302E3,1.753E3,2.938E3,3.189E3,2.049E3,5.17E2,3.3E1,3.269E3,1.32E2,1.621E3],"tree_param":{"num_deleted":"0","num_feature":"15","num_nodes":"15","size_leaf_vector":"1"}},{"base_weights":[-3.7658485E-4,-1.556742E-1,1.695245E-1,-2.6689696E-1,-9.18022E-2,1.2272055E-1,3.016657E-1,-8.995353E-3,-1.7718816E-2,-4.9279225E-3,-1.4295531E-3,3.7632904E-3,7.6361895E-3,2.7580827E-2,1.0995665E-2],"categories":[],"categories_nodes":[],"categories_segments":[],"categories_sizes":[],"default_left":[0,0,1,0,0,1,0,0,0,0,0,0,0,0,0],"id":66,"left_children":[1,3,5,7,9,11,13,-1,-1,-1,-1,-1,-1,-1,-1],"loss_changes":[3.5981406E2,5.0555756E1,4.0195526E1,1.9052032E1,7.949692E0,9.34787E0,1.7388367E1,0E0,0E0,0E0,0E0,0E0,0E0,0E0,0E0],"parents":[2147483647,0,0,1,1,2,2,3,3,4,4,5,5,6,6],"right_children":[2,4,6,8,10,12,14,-1,-1,-1,-1,-1,-1,-1,-1],"split_conditions":[1.4333333E1,1.2E1,1.8E1,1.6E1,1.3333333E1,1.6333334E1,5E0,-8.995353E-3,-1.7718816E-2,-4.9279225E-3,-1.4295531E-3,3.7632904E-3,7.6361895E-3,2.7580827E-2,1.0995665E-2],"split_indices":[7,7,7,0,7,7,0,0,0,0,0,0,0,0,0],"split_type":[0,0,0,0,0,0,0,0,0,0,0,0,0,0,0],"sum_hessian":[1.3635E4,7.124E3,6.511E3,2.597E3,4.527E3,4.81E3,1.701E3,2.099E3,4.98E2,2.9E3,1.627E3,3.39E3,1.42E3,1.08E2,1.593E3],"tree_param":{"num_deleted":"0","num_feature":"15","num_nodes":"15","size_leaf_vector":"1"}},{"base_weights":[-2.9047971E-4,-1.3559665E-1,1.4802061E-1,-2.5461558E-1,-7.154929E-2,6.2313385E-2,2.4611512E-1,-3.8341418E-2,-9.665061E-3,-4.1120276E-3,-5.61982E-4,1.2962562E-3,3.3712168E-3,8.106611E-3,1.4521459E-2],"categories":[],"categories_nodes":[],"categories_segments":[],"categories_sizes":[],"default_left":[0,0,0,0,0,0,0,0,0,0,0,0,0,0,0],"id":67,"left_children":[1,3,5,7,9,11,13,-1,-1,-1,-1,-1,-1,-1,-1],"loss_changes":[2.754038E2,5.4658356E1,5.4997147E1,2.2597946E1,8.375025E0,2.2823591E0,1.5374664E1,0E0,0E0,0E0,0E0,0E0,0E0,0E0,0E0],"parents":[2147483647,0,0,1,1,2,2,3,3,4,4,5,5,6,6],"right_children":[2,4,6,8,10,12,14,-1,-1,-1,-1,-1,-1,-1,-1],"split_conditions":[1.5E1,1.2E1,1.7E1,9E0,1.4E1,1.6E1,1.9E1,-3.8341418E-2,-9.665061E-3,-4.1120276E-3,-5.61982E-4,1.2962562E-3,3.3712168E-3,8.106611E-3,1.4521459E-2],"split_indices":[1,1,1,1,1,1,1,0,0,0,0,0,0,0,0],"split_type":[0,0,0,0,0,0,0,0,0,0,0,0,0,0,0],"sum_hessian":[1.3722E4,7.176E3,6.546E3,2.509E3,4.667E3,3.495E3,3.051E3,4.4E1,2.465E3,3.022E3,1.645E3,1.483E3,2.012E3,2.227E3,8.24E2],"tree_param":{"num_deleted":"0","num_feature":"15","num_nodes":"15","size_leaf_vector":"1"}},{"base_weights":[-5.0449464E-3,-1.7857386E-1,1.1474779E-1,-3.1155238E-1,-1.2979801E-1,2.2918075E-1,4.2456668E-2,-3.6705066E-2,-1.18077155E-2,-6.8614148E-3,-2.7514615E-3,7.4206507E-3,1.4163649E-2,6.3877937E-4,3.4417703E-3],"categories":[],"categories_nodes":[],"categories_segments":[],"categories_sizes":[],"default_left":[0,0,0,0,0,0,0,0,0,0,0,0,0,0,0],"id":68,"left_children":[1,3,5,7,9,11,13,-1,-1,-1,-1,-1,-1,-1,-1],"loss_changes":[2.8625E2,3.639348E1,6.735079E1,1.4559753E1,1.0447937E1,1.7077286E1,5.75406E0,0E0,0E0,0E0,0E0,0E0,0E0,0E0,0E0],"parents":[2147483647,0,0,1,1,2,2,3,3,4,4,5,5,6,6],"right_children":[2,4,6,8,10,12,14,-1,-1,-1,-1,-1,-1,-1,-1],"split_conditions":[1.4E1,1.1E1,9E0,9E0,1.3E1,1.9E1,1.6E1,-3.6705066E-2,-1.18077155E-2,-6.8614148E-3,-2.7514615E-3,7.4206507E-3,1.4163649E-2,6.3877937E-4,3.4417703E-3],"split_indices":[1,1,6,1,1,1,1,0,0,0,0,0,0,0,0],"split_type":[0,0,0,0,0,0,0,0,0,0,0,0,0,0,0],"sum_hessian":[1.3768E4,5.623E3,8.145E3,1.507E3,4.116E3,3.152E3,4.993E3,3.8E1,1.469E3,2.442E3,1.674E3,2.338E3,8.14E2,3.108E3,1.885E3],"tree_param":{"num_deleted":"0","num_feature":"15","num_nodes":"15","size_leaf_vector":"1"}},{"base_weights":[-1.1161241E-3,1.2251084E-1,-1.7800185E-1,2.4065632E-1,4.9411118E-2,-1.3461737E-1,-2.9704377E-1,7.4631157E-3,1.5520143E-2,1.7466742E-3,1.647285E-2,-4.0559066E-3,-6.2428373E-3,-1.1232022E-2,-3.402755E-2],"categories":[],"categories_nodes":[],"categories_segments":[],"categories_sizes":[],"default_left":[0,0,0,0,1,0,0,0,0,0,0,0,0,0,0],"id":69,"left_children":[1,3,5,7,9,11,13,-1,-1,-1,-1,-1,-1,-1,-1],"loss_changes":[2.9819543E2,6.927485E1,2.8890106E1,2.430896E1,1.0262095E1,2.8904037E0,1.3110458E1,0E0,0E0,0E0,0E0,0E0,0E0,0E0,0E0],"parents":[2147483647,0,0,1,1,2,2,3,3,4,4,5,5,6,6],"right_children":[2,4,6,8,10,12,14,-1,-1,-1,-1,-1,-1,-1,-1],"split_conditions":[1.2E1,9E0,1.5E1,1.9E1,1.1333333E1,1.2333333E1,1.7E1,7.4631157E-3,1.5520143E-2,1.7466742E-3,1.647285E-2,-4.0559066E-3,-6.2428373E-3,-1.1232022E-2,-3.402755E-2],"split_indices":[0,0,0,4,6,6,0,0,0,0,0,0,0,0,0],"split_type":[0,0,0,0,0,0,0,0,0,0,0,0,0,0,0],"sum_hessian":[1.3634E4,8.025E3,5.609E3,3.066E3,4.959E3,4.113E3,1.496E3,2.245E3,8.21E2,4.883E3,7.6E1,1.618E3,2.495E3,1.455E3,4.1E1],"tree_param":{"num_deleted":"0","num_feature":"15","num_nodes":"15","size_leaf_vector":"1"}},{"base_weights":[-5.4025687E-3,-1.3442047E-1,1.3993463E-1,-6.8704985E-2,-2.527899E-1,1.1227483E-1,3.2917202E-1,-1.6149833E-3,-5.6805545E-3,-9.626323E-3,-3.5668503E-2,5.630254E-3,1.2336144E-3,2.2147063E-2,1.1675517E-2],"categories":[],"categories_nodes":[],"categories_segments":[],"categories_sizes":[],"default_left":[0,0,1,0,0,0,0,0,0,0,0,0,0,0,0],"id":70,"left_children":[1,3,5,7,9,11,13,-1,-1,-1,-1,-1,-1,-1,-1],"loss_changes":[2.5827713E2,5.67117E1,3.3821243E1,9.7248535E0,1.9856537E1,1.3089935E1,6.6594543E0,0E0,0E0,0E0,0E0,0E0,0E0,0E0,0E0],"parents":[2147483647,0,0,1,1,2,2,3,3,4,4,5,5,6,6],"right_children":[2,4,6,8,10,12,14,-1,-1,-1,-1,-1,-1,-1,-1],"split_conditions":[1.4666667E1,1.4E1,1.8333334E1,1.3E1,1.7E1,1E1,5E0,-1.6149833E-3,-5.6805545E-3,-9.626323E-3,-3.5668503E-2,5.630254E-3,1.2336144E-3,2.2147063E-2,1.1675517E-2],"split_indices":[7,0,7,6,0,0,0,0,0,0,0,0,0,0,0],"split_type":[0,0,0,0,0,0,0,0,0,0,0,0,0,0,0],"sum_hessian":[1.3772E4,7.296E3,6.476E3,4.693E3,2.603E3,5.652E3,8.24E2,3.387E3,1.306E3,2.556E3,4.7E1,4.186E3,1.466E3,1.15E2,7.09E2],"tree_param":{"num_deleted":"0","num_feature":"15","num_nodes":"15","size_leaf_vector":"1"}},{"base_weights":[7.3444303E-3,-1.4865825E-1,1.1503164E-1,-3.8010824E-1,-1.24966726E-1,5.3952094E-2,2.1699499E-1,-3.4113526E-2,-1.3280734E-2,-6.1920285E-3,-2.594569E-3,1.0687696E-3,3.855578E-3,9.130023E-3,-2.0023359E-2],"categories":[],"categories_nodes":[],"categories_segments":[],"categories_sizes":[],"default_left":[0,0,0,0,0,0,0,0,0,0,0,0,0,0,0],"id":71,"left_children":[1,3,5,7,9,11,13,-1,-1,-1,-1,-1,-1,-1,-1],"loss_changes":[2.298812E2,3.0543243E1,5.0382088E1,1.1374321E1,9.060791E0,5.838685E0,2.457582E1,0E0,0E0,0E0,0E0,0E0,0E0,0E0,0E0],"parents":[2147483647,0,0,1,1,2,2,3,3,4,4,5,5,6,6],"right_children":[2,4,6,8,10,12,14,-1,-1,-1,-1,-1,-1,-1,-1],"split_conditions":[1.4E1,1E1,1.7E1,9E0,1.3E1,1.6E1,1E0,-3.4113526E-2,-1.3280734E-2,-6.1920285E-3,-2.594569E-3,1.0687696E-3,3.855578E-3,9.130023E-3,-2.0023359E-2],"split_indices":[1,1,1,1,1,1,2,0,0,0,0,0,0,0,0],"split_type":[0,0,0,0,0,0,0,0,0,0,0,0,0,0,0],"sum_hessian":[1.3682E4,5.587E3,8.095E3,5.17E2,5.07E3,5.064E3,3.031E3,4.6E1,4.71E2,3.386E3,1.684E3,3.087E3,1.977E3,2.985E3,4.6E1],"tree_param":{"num_deleted":"0","num_feature":"15","num_nodes":"15","size_leaf_vector":"1"}},{"base_weights":[-3.437856E-3,-1.1998103E-1,1.2619749E-1,-2.2218741E-1,-6.52414E-2,5.6946456E-2,2.0592661E-1,-2.902166E-2,-8.540338E-3,-2.4314723E-3,-1.9384008E-2,1.1252821E-3,3.1120882E-3,7.106169E-3,1.6017321E-2],"categories":[],"categories_nodes":[],"categories_segments":[],"categories_sizes":[],"default_left":[0,0,1,0,0,0,0,0,0,0,0,0,0,0,0],"id":72,"left_children":[1,3,5,7,9,11,13,-1,-1,-1,-1,-1,-1,-1,-1],"loss_changes":[2.0687483E2,4.0300446E1,3.5751198E1,1.0733818E1,8.692196E0,2.073101E0,1.6434525E1,0E0,0E0,0E0,0E0,0E0,0E0,0E0,0E0],"parents":[2147483647,0,0,1,1,2,2,3,3,4,4,5,5,6,6],"right_children":[2,4,6,8,10,12,14,-1,-1,-1,-1,-1,-1,-1,-1],"split_conditions":[1.5E1,1.1333333E1,1.6666666E1,9E0,2E0,1.6E1,2E1,-2.902166E-2,-8.540338E-3,-2.4314723E-3,-1.9384008E-2,1.1252821E-3,3.1120882E-3,7.106169E-3,1.6017321E-2],"split_indices":[1,7,7,1,12,1,1,0,0,0,0,0,0,0,0],"split_type":[0,0,0,0,0,0,0,0,0,0,0,0,0,0,0],"sum_hessian":[1.3691E4,7.21E3,6.481E3,2.513E3,4.697E3,3.47E3,3.011E3,4.1E1,2.472E3,4.649E3,4.8E1,1.46E3,2.01E3,2.631E3,3.8E2],"tree_param":{"num_deleted":"0","num_feature":"15","num_nodes":"15","size_leaf_vector":"1"}},{"base_weights":[-4.764753E-3,9.683734E-2,-1.527445E-1,1.9051956E-1,4.0016696E-2,-1.16135515E-1,-2.50524E-1,6.1350297E-3,1.1728022E-2,3.9542923E-4,3.4515026E-3,-2.5686317E-3,-6.070204E-3,-9.456649E-3,-2.8131008E-2],"categories":[],"categories_nodes":[],"categories_segments":[],"categories_sizes":[],"default_left":[0,0,0,0,0,0,0,0,0,0,0,0,0,0,0],"id":73,"left_children":[1,3,5,7,9,11,13,-1,-1,-1,-1,-1,-1,-1,-1],"loss_changes":[2.0533907E2,4.3070328E1,1.9836853E1,1.1565849E1,7.0190144E0,7.4548607E0,9.40377E0,0E0,0E0,0E0,0E0,0E0,0E0,0E0,0E0],"parents":[2147483647,0,0,1,1,2,2,3,3,4,4,5,5,6,6],"right_children":[2,4,6,8,10,12,14,-1,-1,-1,-1,-1,-1,-1,-1],"split_conditions":[1.2E1,9E0,1.5E1,1.8666666E1,1.5333333E1,1.3E1,1.6333334E1,6.1350297E-3,1.1728022E-2,3.9542923E-4,3.4515026E-3,-2.5686317E-3,-6.070204E-3,-9.456649E-3,-2.8131008E-2],"split_indices":[0,0,0,7,7,0,6,0,0,0,0,0,0,0,0],"split_type":[0,0,0,0,0,0,0,0,0,0,0,0,0,0,0],"sum_hessian":[1.3655E4,8.096E3,5.559E3,3.055E3,5.041E3,4.047E3,1.512E3,2.246E3,8.09E2,3.055E3,1.986E3,1.649E3,2.398E3,1.468E3,4.4E1],"tree_param":{"num_deleted":"0","num_feature":"15","num_nodes":"15","size_leaf_vector":"1"}},{"base_weights":[-4.0336506E-4,-1.1072782E-1,1.2440996E-1,-6.1159723E-2,-2.0290798E-1,2.5537184E-2,1.1516112E-1,-2.3004992E-3,-1.2002794E-2,-7.7758287E-3,-2.7318558E-2,6.9132266E-3,2.486924E-3],"categories":[],"categories_nodes":[],"categories_segments":[],"categories_sizes":[],"default_left":[0,0,0,0,0,0,0,0,0,0,0,0,0],"id":74,"left_children":[1,3,5,7,9,-1,11,-1,-1,-1,-1,-1,-1],"loss_changes":[1.899828E2,3.3425972E1,3.0624329E1,4.099024E0,1.0240585E1,0E0,1.9400612E1,0E0,0E0,0E0,0E0,0E0,0E0],"parents":[2147483647,0,0,1,1,2,2,3,3,4,4,6,6],"right_children":[2,4,6,8,10,-1,12,-1,-1,-1,-1,-1,-1],"split_conditions":[1.5E1,1.4E1,4.6666665E0,1E0,1.7E1,2.5537184E-2,9E0,-2.3004992E-3,-1.2002794E-2,-7.7758287E-3,-2.7318558E-2,6.9132266E-3,2.486924E-3],"split_indices":[7,6,6,2,0,0,6,0,0,0,0,0,0],"split_type":[0,0,0,0,0,0,0,0,0,0,0,0,0],"sum_hessian":[1.3795E4,7.323E3,6.472E3,4.764E3,2.559E3,1.13E2,6.359E3,4.694E3,7E1,2.516E3,4.3E1,3.043E3,3.316E3],"tree_param":{"num_deleted":"0","num_feature":"15","num_nodes":"13","size_leaf_vector":"1"}},{"base_weights":[-3.527775E-4,-1.0786635E-1,1.18597515E-1,-7.2836265E-2,-2.3961042E-1,8.051081E-2,2.2327077E-1,-3.9682398E-3,-3.723336E-4,-9.125119E-3,-2.5855023E-2,2.4026802E-3,5.351239E-3,9.122158E-3,-2.4815086E-2],"categories":[],"categories_nodes":[],"categories_segments":[],"categories_sizes":[],"default_left":[0,0,0,0,0,0,0,0,0,0,0,0,0,0,0],"id":75,"left_children":[1,3,5,7,9,11,13,-1,-1,-1,-1,-1,-1,-1,-1],"loss_changes":[1.7653511E2,3.3414703E1,2.6076225E1,9.587204E0,6.8738403E0,5.2076187E0,7.151985E0,0E0,0E0,0E0,0E0,0E0,0E0,0E0,0E0],"parents":[2147483647,0,0,1,1,2,2,3,3,4,4,5,5,6,6],"right_children":[2,4,6,8,10,12,14,-1,-1,-1,-1,-1,-1,-1,-1],"split_conditions":[1.5E1,1.5E1,1.8E1,1.4E1,1.7E1,1.7E1,1E0,-3.9682398E-3,-3.723336E-4,-9.125119E-3,-2.5855023E-2,2.4026802E-3,5.351239E-3,9.122158E-3,-2.4815086E-2],"split_indices":[1,0,1,1,3,1,2,0,0,0,0,0,0,0,0],"split_type":[0,0,0,0,0,0,0,0,0,0,0,0,0,0,0],"sum_hessian":[1.3802E4,7.25E3,6.552E3,5.729E3,1.521E3,4.806E3,1.746E3,4.047E3,1.682E3,1.481E3,4E1,3.476E3,1.33E3,1.737E3,9E0],"tree_param":{"num_deleted":"0","num_feature":"15","num_nodes":"15","size_leaf_vector":"1"}},{"base_weights":[4.9449794E-4,-1.265541E-1,8.856919E-2,-1.0940305E-1,-3.019943E-1,1.7012939E-1,3.7605263E-2,-2.8214533E-2,-4.2719943E-3,-1.069157E-2,-2.6164237E-2,1.8929634E-2,6.317895E-3,-4.8515634E-5,2.2431195E-3],"categories":[],"categories_nodes":[],"categories_segments":[],"categories_sizes":[],"default_left":[0,0,0,0,0,0,0,0,0,0,0,0,0,0,0],"id":76,"left_children":[1,3,5,7,9,11,13,-1,-1,-1,-1,-1,-1,-1,-1],"loss_changes":[1.5410167E2,1.6890465E1,3.3782837E1,7.814533E0,5.8552704E0,1.14086075E1,3.5966768E0,0E0,0E0,0E0,0E0,0E0,0E0,0E0,0E0],"parents":[2147483647,0,0,1,1,2,2,3,3,4,4,5,5,6,6],"right_children":[2,4,6,8,10,12,14,-1,-1,-1,-1,-1,-1,-1,-1],"split_conditions":[1.4E1,1.6E1,9E0,1.2E1,1.7E1,5E0,1.5E1,-2.8214533E-2,-4.2719943E-3,-1.069157E-2,-2.6164237E-2,1.8929634E-2,6.317895E-3,-4.8515634E-5,2.2431195E-3],"split_indices":[1,0,0,0,0,6,1,0,0,0,0,0,0,0,0],"split_type":[0,0,0,0,0,0,0,0,0,0,0,0,0,0,0],"sum_hessian":[1.377E4,5.637E3,8.133E3,5.137E3,5E2,3.126E3,5.007E3,2.1E1,5.116E3,4.57E2,4.3E1,1.19E2,3.007E3,1.613E3,3.394E3],"tree_param":{"num_deleted":"0","num_feature":"15","num_nodes":"15","size_leaf_vector":"1"}},{"base_weights":[-2.7173744E-3,-1.0176333E-1,1.07809775E-1,-2.288281E-1,-6.8532296E-2,6.921724E-2,2.1595567E-1,-2.3453886E-2,-8.740256E-3,-2.6496968E-3,-1.5560972E-2,-1.0088941E-2,2.8834345E-3,8.953154E-3,-2.9551933E-2],"categories":[],"categories_nodes":[],"categories_segments":[],"categories_sizes":[],"default_left":[0,0,0,0,0,0,0,0,0,0,0,0,0,0,0],"id":77,"left_children":[1,3,5,7,9,11,13,-1,-1,-1,-1,-1,-1,-1,-1],"loss_changes":[1.4948433E2,3.036499E1,2.6888924E1,5.29718E0,4.1199436E0,4.3874855E0,1.286264E1,0E0,0E0,0E0,0E0,0E0,0E0,0E0,0E0],"parents":[2147483647,0,0,1,1,2,2,3,3,4,4,5,5,6,6],"right_children":[2,4,6,8,10,12,14,-1,-1,-1,-1,-1,-1,-1,-1],"split_conditions":[1.5E1,1.1E1,1.8E1,9E0,2E0,7.3333335E0,1E0,-2.3453886E-2,-8.740256E-3,-2.6496968E-3,-1.5560972E-2,-1.0088941E-2,2.8834345E-3,8.953154E-3,-2.9551933E-2],"split_indices":[1,1,1,1,12,6,5,0,0,0,0,0,0,0,0],"split_type":[0,0,0,0,0,0,0,0,0,0,0,0,0,0,0],"sum_hessian":[1.3653E4,7.201E3,6.452E3,1.491E3,5.71E3,4.757E3,1.695E3,4E1,1.451E3,5.671E3,3.9E1,4.1E1,4.716E3,1.682E3,1.3E1],"tree_param":{"num_deleted":"0","num_feature":"15","num_nodes":"15","size_leaf_vector":"1"}},{"base_weights":[6.476156E-4,1.0889705E-1,-1.0073864E-1,3.163477E-1,9.570149E-2,-7.098644E-2,-2.1422106E-1,1.9618463E-2,9.733987E-3,4.0863836E-3,-6.003423E-3,-1.4901158E-3,-4.564925E-3,-8.171762E-3,-2.2390675E-2],"categories":[],"categories_nodes":[],"categories_segments":[],"categories_sizes":[],"default_left":[1,0,0,0,0,0,0,0,0,0,0,0,0,0,0],"id":78,"left_children":[1,3,5,7,9,11,13,-1,-1,-1,-1,-1,-1,-1,-1],"loss_changes":[1.4983159E2,1.8003754E1,2.3756172E1,4.814991E0,9.867786E0,8.110556E0,4.827675E0,0E0,0E0,0E0,0E0,0E0,0E0,0E0,0E0],"parents":[2147483647,0,0,1,1,2,2,3,3,4,4,5,5,6,6],"right_children":[2,4,6,8,10,12,14,-1,-1,-1,-1,-1,-1,-1,-1],"split_conditions":[1.1E1,6E0,1.4666667E1,4.3333335E0,1E0,1.2333333E1,1.6333334E1,1.9618463E-2,9.733987E-3,4.0863836E-3,-6.003423E-3,-1.4901158E-3,-4.564925E-3,-8.171762E-3,-2.2390675E-2],"split_indices":[6,6,6,6,2,6,6,0,0,0,0,0,0,0,0],"split_type":[0,0,0,0,0,0,0,0,0,0,0,0,0,0,0],"sum_hessian":[1.365E4,6.602E3,7.048E3,3.93E2,6.209E3,5.586E3,1.462E3,1.14E2,2.79E2,6.051E3,1.58E2,3.137E3,2.449E3,1.423E3,3.9E1],"tree_param":{"num_deleted":"0","num_feature":"15","num_nodes":"15","size_leaf_vector":"1"}},{"base_weights":[-2.700346E-3,5.3257875E-2,-1.4179888E-1,1.4305301E-1,1.2026064E-2,-9.77643E-2,-2.1112679E-1,6.2658763E-3,-9.310784E-3,-7.199824E-4,1.6950691E-3,-3.8029323E-3,-1.5717646E-2,-7.906821E-3,-2.4349608E-2],"categories":[],"categories_nodes":[],"categories_segments":[],"categories_sizes":[],"default_left":[0,0,0,0,0,0,0,0,0,0,0,0,0,0,0],"id":79,"left_children":[1,3,5,7,9,11,13,-1,-1,-1,-1,-1,-1,-1,-1],"loss_changes":[1.062173E2,3.600728E1,1.1900284E1,1.56671715E1,6.0815563E0,1.8178196E0,7.926285E0,0E0,0E0,0E0,0E0,0E0,0E0,0E0,0E0],"parents":[2147483647,0,0,1,1,2,2,3,3,4,4,5,5,6,6],"right_children":[2,4,6,8,10,12,14,-1,-1,-1,-1,-1,-1,-1,-1],"split_conditions":[1.3E1,9E0,1.5E1,1E0,1.5E1,2E0,1.7E1,6.2658763E-3,-9.310784E-3,-7.199824E-4,1.6950691E-3,-3.8029323E-3,-1.5717646E-2,-7.906821E-3,-2.4349608E-2],"split_indices":[0,0,0,5,1,12,0,0,0,0,0,0,0,0,0],"split_type":[0,0,0,0,0,0,0,0,0,0,0,0,0,0,0],"sum_hessian":[1.3643E4,9.729E3,3.914E3,3.06E3,6.669E3,2.396E3,1.518E3,2.954E3,1.06E2,3.351E3,3.318E3,2.376E3,2E1,1.47E3,4.8E1],"tree_param":{"num_deleted":"0","num_feature":"15","num_nodes":"15","size_leaf_vector":"1"}},{"base_weights":[7.475792E-4,1.2419274E-1,-6.981934E-2,1.7607003E-2,1.15823135E-1,-1.0601672E-2,-1.4304084E-1,5.552416E-3,3.2204788E-3,-2.4087795E-4,-1.3875347E-2,-4.8917914E-3,-1.1242491E-2],"categories":[],"categories_nodes":[],"categories_segments":[],"categories_sizes":[],"default_left":[0,0,0,0,0,0,0,0,0,0,0,0,0],"id":80,"left_children":[1,3,5,-1,7,9,11,-1,-1,-1,-1,-1,-1],"loss_changes":[1.2034114E2,1.3182762E1,3.809228E1,0E0,3.9418182E0,7.4489427E0,1.11755905E1,0E0,0E0,0E0,0E0,0E0,0E0],"parents":[2147483647,0,0,1,1,2,2,4,4,5,5,6,6],"right_children":[2,4,6,-1,8,10,12,-1,-1,-1,-1,-1,-1],"split_conditions":[1E1,5E0,1.3E1,1.7607003E-2,9E0,1E0,1.6E1,5.552416E-3,3.2204788E-3,-2.4087795E-4,-1.3875347E-2,-4.8917914E-3,-1.1242491E-2],"split_indices":[0,6,0,0,0,5,0,0,0,0,0,0,0],"split_type":[0,0,0,0,0,0,0,0,0,0,0,0,0],"sum_hessian":[1.3812E4,5.024E3,8.788E3,1.28E2,4.896E3,4.86E3,3.928E3,2.962E3,1.934E3,4.796E3,6.4E1,3.417E3,5.11E2],"tree_param":{"num_deleted":"0","num_feature":"15","num_nodes":"13","size_leaf_vector":"1"}},{"base_weights":[3.413625E-3,-7.84658E-2,9.4419874E-2,-4.5853697E-2,-2.0310222E-1,5.7808835E-2,1.9558038E-1,-6.9198303E-4,-3.4041547E-3,-2.0419462E-2,-7.7753416E-3,-1.7128054E-2,2.4700244E-3,1.9150326E-2,7.0001464E-3],"categories":[],"categories_nodes":[],"categories_segments":[],"categories_sizes":[],"default_left":[0,0,0,0,0,0,0,0,0,0,0,0,0,0,0],"id":81,"left_children":[1,3,5,7,9,11,13,-1,-1,-1,-1,-1,-1,-1,-1],"loss_changes":[1.01364845E2,2.9068726E1,2.38256E1,6.350808E0,3.8073769E0,9.057008E0,9.82061E0,0E0,0E0,0E0,0E0,0E0,0E0,0E0,0E0],"parents":[2147483647,0,0,1,1,2,2,3,3,4,4,5,5,6,6],"right_children":[2,4,6,8,10,12,14,-1,-1,-1,-1,-1,-1,-1,-1],"split_conditions":[1.5E1,1.5E1,1.8E1,1.3E1,9E0,8E0,5E0,-6.9198303E-4,-3.4041547E-3,-2.0419462E-2,-7.7753416E-3,-1.7128054E-2,2.4700244E-3,1.9150326E-2,7.0001464E-3],"split_indices":[1,0,1,0,4,0,0,0,0,0,0,0,0,0,0],"split_type":[0,0,0,0,0,0,0,0,0,0,0,0,0,0,0],"sum_hessian":[1.3601E4,7.159E3,6.442E3,5.676E3,1.483E3,4.732E3,1.71E3,3.288E3,2.388E3,3.9E1,1.444E3,3.7E1,4.695E3,1.14E2,1.596E3],"tree_param":{"num_deleted":"0","num_feature":"15","num_nodes":"15","size_leaf_vector":"1"}},{"base_weights":[2.1667453E-4,8.0471896E-2,-7.192754E-2,1.3118236E-1,3.4485646E-2,-5.9058033E-2,-2.4455611E-1,1.5532058E-2,4.876115E-3,1.4726723E-3,-4.5505124E-3,-1.0686235E-3,-3.6058833E-3,-8.686248E-3,-2.0509005E-2],"categories":[],"categories_nodes":[],"categories_segments":[],"categories_sizes":[],"default_left":[0,0,0,0,0,0,0,0,0,0,0,0,0,0,0],"id":82,"left_children":[1,3,5,7,9,11,13,-1,-1,-1,-1,-1,-1,-1,-1],"loss_changes":[7.8906296E1,1.5024868E1,1.589772E1,7.2192917E0,1.166667E0,6.7026176E0,3.467533E0,0E0,0E0,0E0,0E0,0E0,0E0,0E0,0E0],"parents":[2147483647,0,0,1,1,2,2,3,3,4,4,5,5,6,6],"right_children":[2,4,6,8,10,12,14,-1,-1,-1,-1,-1,-1,-1,-1],"split_conditions":[1.1E1,9E0,1.6E1,5E0,1E0,1.3E1,1.7E1,1.5532058E-2,4.876115E-3,1.4726723E-3,-4.5505124E-3,-1.0686235E-3,-3.6058833E-3,-8.686248E-3,-2.0509005E-2],"split_indices":[0,0,0,0,2,0,0,0,0,0,0,0,0,0,0],"split_type":[0,0,0,0,0,0,0,0,0,0,0,0,0,0,0],"sum_hessian":[1.3626E4,6.451E3,7.175E3,3.066E3,3.385E3,6.679E3,4.96E2,1.05E2,2.961E3,3.334E3,5.1E1,3.276E3,3.403E3,4.52E2,4.4E1],"tree_param":{"num_deleted":"0","num_feature":"15","num_nodes":"15","size_leaf_vector":"1"}},{"base_weights":[4.451581E-3,1.1587568E-1,-5.9907045E-2,2.993871E-1,1.01423375E-1,-2.5169255E-2,-1.4015855E-1,1.1378924E-2,3.399649E-2,2.6320757E-3,5.051045E-3,-9.0668234E-4,-1.4055123E-2,-5.3454647E-3,-2.008601E-2],"categories":[],"categories_nodes":[],"categories_segments":[],"categories_sizes":[],"default_left":[0,0,0,0,1,0,0,0,0,0,0,0,0,0,0],"id":83,"left_children":[1,3,5,7,9,11,13,-1,-1,-1,-1,-1,-1,-1,-1],"loss_changes":[9.872993E1,1.3299118E1,2.430593E1,2.658043E0,4.1112213E0,4.9271536E0,6.0902405E0,0E0,0E0,0E0,0E0,0E0,0E0,0E0,0E0],"parents":[2147483647,0,0,1,1,2,2,3,3,4,4,5,5,6,6],"right_children":[2,4,6,8,10,12,14,-1,-1,-1,-1,-1,-1,-1,-1],"split_conditions":[1E1,6E0,1.3333333E1,6E0,1.6333334E1,