{"learner":{"attributes":{"scikit_learn":"{\"_estimator_type\": \"regressor\"}"},"feature_names":["num_carts_full","num_carts_empty","num_carts_maintenance","num_carts_full_lag1","num_carts_empty_lag1","num_carts_maintenance_lag1","num_carts_full_roll_mean","num_carts_empty_roll_mean","num_carts_maintenance_roll_mean","num_carts_full_roll_std","num_carts_empty_roll_std","num_carts_maintenance_roll_std","num_carts_full_diff1","num_carts_empty_diff1","num_carts_maintenance_diff1"],"feature_types":["int","int","int","float","float","float","float","float","float","float","float","float","float","float","float"],"gradient_booster":{"model":{"cats":{"enc":[],"feature_segments":[],"sorted_idx":[]},"gbtree_model_param":{"num_parallel_tree":"1","num_trees":"600"},"iteration_indptr":[0,1,2,3,4,5,6,7,8,9,10,11,12,13,14,15,16,17,18,19,20,21,22,23,24,25,26,27,28,29,30,31,32,33,34,35,36,37,38,39,40,41,42,43,44,45,46,47,48,49,50,51,52,53,54,55,56,57,58,59,60,61,62,63,64,65,66,67,68,69,70,71,72,73,74,75,76,77,78,79,80,81,82,83,84,85,86,87,88,89,90,91,92,93,94,95,96,97,98,99,100,101,102,103,104,105,106,107,108,109,110,111,112,113,114,115,116,117,118,119,120,121,122,123,124,125,126,127,128,129,130,131,132,133,134,135,136,137,138,139,140,141,142,143,144,145,146,147,148,149,150,151,152,153,154,155,156,157,158,159,160,161,162,163,164,165,166,167,168,169,170,171,172,173,174,175,176,177,178,179,180,181,182,183,184,185,186,187,188,189,190,191,192,193,194,195,196,197,198,199,200,201,202,203,204,205,206,207,208,209,210,211,212,213,214,215,216,217,218,219,220,221,222,223,224,225,226,227,228,229,230,231,232,233,234,235,236,237,238,239,240,241,242,243,244,245,246,247,248,249,250,251,252,253,254,255,256,257,258,259,260,261,262,263,264,265,266,267,268,269,270,271,272,273,274,275,276,277,278,279,280,281,282,283,284,285,286,287,288,289,290,291,292,293,294,295,296,297,298,299,300,301,302,303,304,305,306,307,308,309,310,311,312,313,314,315,316,317,318,319,320,321,322,323,324,325,326,327,328,329,330,331,332,333,334,335,336,337,338,339,340,341,342,343,344,345,346,347,348,349,350,351,352,353,354,355,356,357,358,359,360,361,362,363,364,365,366,367,368,369,370,371,372,373,374,375,376,377,378,379,380,381,382,383,384,385,386,387,388,389,390,391,392,393,394,395,396,397,398,399,400,401,402,403,404,405,406,407,408,409,410,411,412,413,414,415,416,417,418,419,420,421,422,423,424,425,426,427,428,429,430,431,432,433,434,435,436,437,438,439,440,441,442,443,444,445,446,447,448,449,450,451,452,453,454,455,456,457,458,459,460,461,462,463,464,465,466,467,468,469,470,471,472,473,474,475,476,477,478,479,480,481,482,483,484,485,486,487,488,489,490,491,492,493,494,495,496,497,498,499,500,501,502,503,504,505,506,507,508,509,510,511,512,513,514,515,516,517,518,519,520,521,522,523,524,525,526,527,528,529,530,531,532,533,534,535,536,537,538,539,540,541,542,543,544,545,546,547,548,549,550,551,552,553,554,555,556,557,558,559,560,561,562,563,564,565,566,567,568,569,570,571,572,573,574,575,576,577,578,579,580,581,582,583,584,585,586,587,588,589,590,591,592,593,594,595,596,597,598,599,600],"tree_info":[0,0,0,0,0,0,0,0,0,0,0,0,0,0,0,0,0,0,0,0,0,0,0,0,0,0,0,0,0,0,0,0,0,0,0,0,0,0,0,0,0,0,0,0,0,0,0,0,0,0,0,0,0,0,0,0,0,0,0,0,0,0,0,0,0,0,0,0,0,0,0,0,0,0,0,0,0,0,0,0,0,0,0,0,0,0,0,0,0,0,0,0,0,0,0,0,0,0,0,0,0,0,0,0,0,0,0,0,0,0,0,0,0,0,0,0,0,0,0,0,0,0,0,0,0,0,0,0,0,0,0,0,0,0,0,0,0,0,0,0,0,0,0,0,0,0,0,0,0,0,0,0,0,0,0,0,0,0,0,0,0,0,0,0,0,0,0,0,0,0,0,0,0,0,0,0,0,0,0,0,0,0,0,0,0,0,0,0,0,0,0,0,0,0,0,0,0,0,0,0,0,0,0,0,0,0,0,0,0,0,0,0,0,0,0,0,0,0,0,0,0,0,0,0,0,0,0,0,0,0,0,0,0,0,0,0,0,0,0,0,0,0,0,0,0,0,0,0,0,0,0,0,0,0,0,0,0,0,0,0,0,0,0,0,0,0,0,0,0,0,0,0,0,0,0,0,0,0,0,0,0,0,0,0,0,0,0,0,0,0,0,0,0,0,0,0,0,0,0,0,0,0,0,0,0,0,0,0,0,0,0,0,0,0,0,0,0,0,0,0,0,0,0,0,0,0,0,0,0,0,0,0,0,0,0,0,0,0,0,0,0,0,0,0,0,0,0,0,0,0,0,0,0,0,0,0,0,0,0,0,0,0,0,0,0,0,0,0,0,0,0,0,0,0,0,0,0,0,0,0,0,0,0,0,0,0,0,0,0,0,0,0,0,0,0,0,0,0,0,0,0,0,0,0,0,0,0,0,0,0,0,0,0,0,0,0,0,0,0,0,0,0,0,0,0,0,0,0,0,0,0,0,0,0,0,0,0,0,0,0,0,0,0,0,0,0,0,0,0,0,0,0,0,0,0,0,0,0,0,0,0,0,0,0,0,0,0,0,0,0,0,0,0,0,0,0,0,0,0,0,0,0,0,0,0,0,0,0,0,0,0,0,0,0,0,0,0,0,0,0,0,0,0,0,0,0,0,0,0,0,0,0,0,0,0,0,0,0,0,0,0,0,0,0,0,0,0,0,0,0,0,0,0,0,0,0,0,0,0,0,0,0,0,0,0,0,0,0,0,0,0,0,0,0,0,0,0,0,0,0,0,0,0,0,0,0,0,0,0,0,0,0,0,0,0,0,0,0,0,0,0,0,0,0,0,0,0,0,0,0,0,0,0,0,0,0,0,0,0,0],"trees":[{"base_weights":[1.7888857E-2,-1.9556167E0,2.1923535E0,-3.6091812E0,-1.0571316E0,1.256047E0,3.2837954E0,-1.5494548E-1,-1.2946947E-1,-7.297676E-2,-2.9707246E-2,6.760599E-2,2.6571652E-2,1.1458217E-1,1.7732084E-1],"categories":[],"categories_nodes":[],"categories_segments":[],"categories_sizes":[],"default_left":[0,0,0,0,0,1,0,0,0,0,0,0,0,0,0],"id":0,"left_children":[1,3,5,7,9,11,13,-1,-1,-1,-1,-1,-1,-1,-1],"loss_changes":[5.8906945E4,1.0686842E4,6.6696074E3,2.3623828E2,1.1236895E3,9.0209863E2,1.439207E3,0E0,0E0,0E0,0E0,0E0,0E0,0E0,0E0],"parents":[2147483647,0,0,1,1,2,2,3,3,4,4,5,5,6,6],"right_children":[2,4,6,8,10,12,14,-1,-1,-1,-1,-1,-1,-1,-1],"split_conditions":[1.5E1,1.2E1,1.7E1,1.1E1,1.3E1,1E1,1.9E1,-1.5494548E-1,-1.2946947E-1,-7.297676E-2,-2.9707246E-2,6.760599E-2,2.6571652E-2,1.1458217E-1,1.7732084E-1],"split_indices":[1,1,1,1,1,3,1,0,0,0,0,0,0,0,0],"split_type":[0,0,0,0,0,0,0,0,0,0,0,0,0,0,0],"sum_hessian":[1.3725E4,7.195E3,6.53E3,2.532E3,4.663E3,3.516E3,3.014E3,1.475E3,1.057E3,1.354E3,3.309E3,2.027E3,1.489E3,2.211E3,8.03E2],"tree_param":{"num_deleted":"0","num_feature":"15","num_nodes":"15","size_leaf_vector":"1"}},{"base_weights":[2.7140083E-2,-1.8722901E0,2.155344E0,-1.0075662E0,-3.45114E0,3.1417425E0,1.2277856E0,-2.9272296E-2,-6.783736E-2,-1.250189E-1,-1.4748138E-1,9.62057E-2,1.4869636E-1,6.506206E-2,2.7432362E-2],"categories":[],"categories_nodes":[],"categories_segments":[],"categories_sizes":[],"default_left":[0,0,0,0,0,0,1,0,0,0,0,0,0,0,0],"id":1,"left_children":[1,3,5,7,9,11,13,-1,-1,-1,-1,-1,-1,-1,-1],"loss_changes":[5.5655438E4,9.928414E3,5.936424E3,8.910664E2,1.8553711E2,1.3244629E3,7.22229E2,0E0,0E0,0E0,0E0,0E0,0E0,0E0,0E0],"parents":[2147483647,0,0,1,1,2,2,3,3,4,4,5,5,6,6],"right_children":[2,4,6,8,10,12,14,-1,-1,-1,-1,-1,-1,-1,-1],"split_conditions":[1.5E1,1.4E1,9E0,1.3E1,1.5E1,1.8E1,1E1,-2.9272296E-2,-6.783736E-2,-1.250189E-1,-1.4748138E-1,9.62057E-2,1.4869636E-1,6.506206E-2,2.7432362E-2],"split_indices":[4,3,3,3,3,4,3,0,0,0,0,0,0,0,0],"split_type":[0,0,0,0,0,0,0,0,0,0,0,0,0,0,0],"sum_hessian":[1.3766E4,7.274E3,6.492E3,4.701E3,2.573E3,3.145E3,3.347E3,3.358E3,1.343E3,1.087E3,1.486E3,1.382E3,1.763E3,1.927E3,1.42E3],"tree_param":{"num_deleted":"0","num_feature":"15","num_nodes":"15","size_leaf_vector":"1"}},{"base_weights":[-1.2372353E-2,-1.7973032E0,2.018284E0,-3.317113E0,-9.620821E-1,1.4580551E0,3.5965512E0,-1.4264864E-1,-1.1932727E-1,-6.742618E-2,-2.6818147E-2,7.5115025E-2,2.7778221E-2,1.2308236E-1,1.6466358E-1],"categories":[],"categories_nodes":[],"categories_segments":[],"categories_sizes":[],"default_left":[0,0,0,0,0,1,0,0,0,0,0,0,0,0,0],"id":2,"left_children":[1,3,5,7,9,11,13,-1,-1,-1,-1,-1,-1,-1,-1],"loss_changes":[4.997571E4,9.311068E3,5.697283E3,2.0514844E2,9.982095E2,1.5250156E3,4.4290625E2,0E0,0E0,0E0,0E0,0E0,0E0,0E0,0E0],"parents":[2147483647,0,0,1,1,2,2,3,3,4,4,5,5,6,6],"right_children":[2,4,6,8,10,12,14,-1,-1,-1,-1,-1,-1,-1,-1],"split_conditions":[1.5E1,1.2E1,1.8E1,1.1E1,1.3E1,9.1E0,1.9E1,-1.4264864E-1,-1.1932727E-1,-6.742618E-2,-2.6818147E-2,7.5115025E-2,2.7778221E-2,1.2308236E-1,1.6466358E-1],"split_indices":[1,1,1,1,1,6,1,0,0,0,0,0,0,0,0],"split_type":[0,0,0,0,0,0,0,0,0,0,0,0,0,0,0],"sum_hessian":[1.3786E4,7.337E3,6.449E3,2.601E3,4.736E3,4.761E3,1.688E3,1.484E3,1.117E3,1.359E3,3.377E3,3.071E3,1.69E3,8.48E2,8.4E2],"tree_param":{"num_deleted":"0","num_feature":"15","num_nodes":"15","size_leaf_vector":"1"}},{"base_weights":[-6.263179E-3,-1.750117E0,1.937967E0,-3.2245743E0,-9.2551684E-1,1.0984641E0,2.9021835E0,-1.3728212E-1,-1.1668718E-1,-6.373872E-2,-2.6525442E-2,2.3547284E-2,5.9289973E-2,1.00672424E-1,1.5749186E-1],"categories":[],"categories_nodes":[],"categories_segments":[],"categories_sizes":[],"default_left":[0,0,0,0,0,0,0,0,0,0,0,0,0,0,0],"id":3,"left_children":[1,3,5,7,9,11,13,-1,-1,-1,-1,-1,-1,-1,-1],"loss_changes":[4.6737383E4,8.832094E3,5.2724863E3,1.555586E2,8.157683E2,6.809453E2,1.1993223E3,0E0,0E0,0E0,0E0,0E0,0E0,0E0,0E0],"parents":[2147483647,0,0,1,1,2,2,3,3,4,4,5,5,6,6],"right_children":[2,4,6,8,10,12,14,-1,-1,-1,-1,-1,-1,-1,-1],"split_conditions":[1.5E1,1.2E1,1.7E1,1.1E1,1.3E1,1.6E1,1.9E1,-1.3728212E-1,-1.1668718E-1,-6.373872E-2,-2.6525442E-2,2.3547284E-2,5.9289973E-2,1.00672424E-1,1.5749186E-1],"split_indices":[1,1,1,1,1,1,1,0,0,0,0,0,0,0,0],"split_type":[0,0,0,0,0,0,0,0,0,0,0,0,0,0,0],"sum_hessian":[1.3783E4,7.266E3,6.517E3,2.605E3,4.661E3,3.485E3,3.032E3,1.549E3,1.056E3,1.313E3,3.348E3,1.498E3,1.987E3,2.212E3,8.2E2],"tree_param":{"num_deleted":"0","num_feature":"15","num_nodes":"15","size_leaf_vector":"1"}},{"base_weights":[-9.471408E-3,-1.669456E0,1.8704909E0,-8.923358E-1,-3.058276E0,2.711362E0,9.870031E-1,-2.5445847E-2,-6.0438175E-2,-1.1020858E-1,-1.3097179E-1,8.311852E-2,1.3270122E-1,5.472968E-2,2.1231191E-2],"categories":[],"categories_nodes":[],"categories_segments":[],"categories_sizes":[],"default_left":[0,0,1,0,0,1,0,0,0,0,0,0,0,0,0],"id":4,"left_children":[1,3,5,7,9,11,13,-1,-1,-1,-1,-1,-1,-1,-1],"loss_changes":[4.2884758E4,7.873459E3,4.7841953E3,7.4068677E2,1.6176953E2,1.2599766E3,5.4592017E2,0E0,0E0,0E0,0E0,0E0,0E0,0E0,0E0],"parents":[2147483647,0,0,1,1,2,2,3,3,4,4,5,5,6,6],"right_children":[2,4,6,8,10,12,14,-1,-1,-1,-1,-1,-1,-1,-1],"split_conditions":[1.5E1,1.4E1,9E0,1.3E1,1.5E1,1.8E1,1E1,-2.5445847E-2,-6.0438175E-2,-1.1020858E-1,-1.3097179E-1,8.311852E-2,1.3270122E-1,5.472968E-2,2.1231191E-2],"split_indices":[4,0,6,0,0,4,0,0,0,0,0,0,0,0,0],"split_type":[0,0,0,0,0,0,0,0,0,0,0,0,0,0,0],"sum_hessian":[1.374E4,7.297E3,6.443E3,4.68E3,2.617E3,3.3E3,3.143E3,3.311E3,1.369E3,1.095E3,1.522E3,1.616E3,1.684E3,1.711E3,1.432E3],"tree_param":{"num_deleted":"0","num_feature":"15","num_nodes":"15","size_leaf_vector":"1"}},{"base_weights":[-5.9558335E-3,-1.6073407E0,1.7951272E0,-2.9455504E0,-8.634971E-1,1.2862719E0,3.187557E0,-1.2646115E-1,-1.0548756E-1,-4.6174336E-2,-1.2640443E-2,2.0237489E-2,6.52952E-2,1.10185295E-1,1.4647797E-1],"categories":[],"categories_nodes":[],"categories_segments":[],"categories_sizes":[],"default_left":[0,0,0,0,0,0,0,0,0,0,0,0,0,0,0],"id":5,"left_children":[1,3,5,7,9,11,13,-1,-1,-1,-1,-1,-1,-1,-1],"loss_changes":[3.9949414E4,7.2954863E3,4.614459E3,1.6550586E2,7.501572E2,1.2888623E3,3.474453E2,0E0,0E0,0E0,0E0,0E0,0E0,0E0,0E0],"parents":[2147483647,0,0,1,1,2,2,3,3,4,4,5,5,6,6],"right_children":[2,4,6,8,10,12,14,-1,-1,-1,-1,-1,-1,-1,-1],"split_conditions":[1.5E1,1.2E1,1.8E1,1.1E1,1.4E1,1.6E1,1.9E1,-1.2646115E-1,-1.0548756E-1,-4.6174336E-2,-1.2640443E-2,2.0237489E-2,6.52952E-2,1.10185295E-1,1.4647797E-1],"split_indices":[1,1,1,1,1,1,4,0,0,0,0,0,0,0,0],"split_type":[0,0,0,0,0,0,0,0,0,0,0,0,0,0,0],"sum_hessian":[1.3849E4,7.331E3,6.518E3,2.618E3,4.713E3,4.775E3,1.743E3,1.534E3,1.084E3,3.077E3,1.636E3,1.468E3,3.307E3,9.15E2,8.28E2],"tree_param":{"num_deleted":"0","num_feature":"15","num_nodes":"15","size_leaf_vector":"1"}},{"base_weights":[-8.987473E-3,-1.4903692E0,1.7478579E0,-7.865445E-1,-2.8200817E0,2.5551531E0,9.7357506E-1,-2.126344E-2,-5.7831082E-2,-1.02009006E-1,-1.20540835E-1,8.81652E-2,1.3695356E-1,2.3203347E-2,5.3592496E-2],"categories":[],"categories_nodes":[],"categories_segments":[],"categories_sizes":[],"default_left":[0,0,0,0,0,0,0,0,0,0,0,0,0,0,0],"id":6,"left_children":[1,3,5,7,9,11,13,-1,-1,-1,-1,-1,-1,-1,-1],"loss_changes":[3.5334918E4,6.8911465E3,3.8795E3,8.0882837E2,1.2481836E2,9.1887305E2,4.561516E2,0E0,0E0,0E0,0E0,0E0,0E0,0E0,0E0],"parents":[2147483647,0,0,1,1,2,2,3,3,4,4,5,5,6,6],"right_children":[2,4,6,8,10,12,14,-1,-1,-1,-1,-1,-1,-1,-1],"split_conditions":[1.49E1,1.4E1,9E0,1.3E1,1.5E1,1.81E1,1.6E1,-2.126344E-2,-5.7831082E-2,-1.02009006E-1,-1.20540835E-1,8.81652E-2,1.3695356E-1,2.3203347E-2,5.3592496E-2],"split_indices":[7,0,0,0,0,7,7,0,0,0,0,0,0,0,0],"split_type":[0,0,0,0,0,0,0,0,0,0,0,0,0,0,0],"sum_hessian":[1.3575E4,7.365E3,6.21E3,4.817E3,2.548E3,3.039E3,3.171E3,3.475E3,1.342E3,1.07E3,1.478E3,2.167E3,8.72E2,1.53E3,1.641E3],"tree_param":{"num_deleted":"0","num_feature":"15","num_nodes":"15","size_leaf_vector":"1"}},{"base_weights":[-8.542472E-3,1.6144052E0,-1.4846786E0,2.4381437E0,8.8446414E-1,-8.053894E-1,-2.7241397E0,8.39133E-2,1.3101332E-1,4.917103E-2,1.7709969E-2,-1.1846906E-2,-4.3188956E-2,-9.8788776E-2,-1.1614331E-1],"categories":[],"categories_nodes":[],"categories_segments":[],"categories_sizes":[],"default_left":[0,0,0,0,0,0,0,0,0,0,0,0,0,0,0],"id":7,"left_children":[1,3,5,7,9,11,13,-1,-1,-1,-1,-1,-1,-1,-1],"loss_changes":[3.29695E4,3.9389043E3,6.0654053E3,8.6981445E2,5.28865E2,6.5010596E2,1.0875586E2,0E0,0E0,0E0,0E0,0E0,0E0,0E0,0E0],"parents":[2147483647,0,0,1,1,2,2,3,3,4,4,5,5,6,6],"right_children":[2,4,6,8,10,12,14,-1,-1,-1,-1,-1,-1,-1,-1],"split_conditions":[1.1E1,9E0,1.4E1,1.81E1,1E1,1.2E1,1.5E1,8.39133E-2,1.3101332E-1,4.917103E-2,1.7709969E-2,-1.1846906E-2,-4.3188956E-2,-9.8788776E-2,-1.1614331E-1],"split_indices":[0,0,0,7,0,0,0,0,0,0,0,0,0,0,0],"split_type":[0,0,0,0,0,0,0,0,0,0,0,0,0,0,0],"sum_hessian":[1.376E4,6.554E3,7.206E3,3.078E3,3.476E3,4.656E3,2.55E3,2.191E3,8.87E2,1.951E3,1.525E3,1.631E3,3.025E3,1.061E3,1.489E3],"tree_param":{"num_deleted":"0","num_feature":"15","num_nodes":"15","size_leaf_vector":"1"}},{"base_weights":[1.5634282E-2,-1.4141146E0,1.6032013E0,-7.723631E-1,-2.6019895E0,2.387927E0,8.6912346E-1,-2.2161603E-2,-5.2795853E-2,-9.336193E-2,-1.1164907E-1,8.2593344E-2,1.3030106E-1,4.710932E-2,1.8387482E-2],"categories":[],"categories_nodes":[],"categories_segments":[],"categories_sizes":[],"default_left":[0,0,0,0,0,0,0,0,0,0,0,0,0,0,0],"id":8,"left_children":[1,3,5,7,9,11,13,-1,-1,-1,-1,-1,-1,-1,-1],"loss_changes":[3.0987629E4,5.4734004E3,3.7240664E3,5.567312E2,1.20697266E2,8.710293E2,4.2182935E2,0E0,0E0,0E0,0E0,0E0,0E0,0E0,0E0],"parents":[2147483647,0,0,1,1,2,2,3,3,4,4,5,5,6,6],"right_children":[2,4,6,8,10,12,14,-1,-1,-1,-1,-1,-1,-1,-1],"split_conditions":[1.5E1,1.4E1,9E0,1.3E1,1.5E1,1.9E1,1E1,-2.2161603E-2,-5.2795853E-2,-9.336193E-2,-1.1164907E-1,8.2593344E-2,1.3030106E-1,4.710932E-2,1.8387482E-2],"split_indices":[4,0,0,0,0,4,0,0,0,0,0,0,0,0,0],"split_type":[0,0,0,0,0,0,0,0,0,0,0,0,0,0,0],"sum_hessian":[1.365E4,7.182E3,6.468E3,4.664E3,2.518E3,3.125E3,3.343E3,3.336E3,1.328E3,1.048E3,1.47E3,2.281E3,8.44E2,1.905E3,1.438E3],"tree_param":{"num_deleted":"0","num_feature":"15","num_nodes":"15","size_leaf_vector":"1"}},{"base_weights":[4.7408696E-3,-1.3637749E0,1.5452878E0,-2.5009527E0,-7.4472004E-1,1.1209437E0,2.7309422E0,-1.0641835E-1,-9.0780675E-2,-5.2380413E-2,-2.0607412E-2,2.1394482E-2,5.7832252E-2,9.961367E-2,1.4004968E-1],"categories":[],"categories_nodes":[],"categories_segments":[],"categories_sizes":[],"default_left":[0,0,0,0,0,0,0,0,0,0,0,0,0,0,0],"id":9,"left_children":[1,3,5,7,9,11,13,-1,-1,-1,-1,-1,-1,-1,-1],"loss_changes":[2.8986523E4,5.123459E3,3.2507676E3,8.819336E1,6.105205E2,9.062656E2,3.064922E2,0E0,0E0,0E0,0E0,0E0,0E0,0E0,0E0],"parents":[2147483647,0,0,1,1,2,2,3,3,4,4,5,5,6,6],"right_children":[2,4,6,8,10,12,14,-1,-1,-1,-1,-1,-1,-1,-1],"split_conditions":[1.5E1,1.2E1,1.8E1,1.1E1,1.3E1,1.6E1,2E1,-1.0641835E-1,-9.0780675E-2,-5.2380413E-2,-2.0607412E-2,2.1394482E-2,5.7832252E-2,9.961367E-2,1.4004968E-1],"split_indices":[1,1,1,1,1,7,1,0,0,0,0,0,0,0,0],"split_type":[0,0,0,0,0,0,0,0,0,0,0,0,0,0,0],"sum_hessian":[1.3747E4,7.28E3,6.467E3,2.565E3,4.715E3,4.764E3,1.703E3,1.512E3,1.053E3,1.361E3,3.354E3,1.7E3,3.064E3,1.301E3,4.02E2],"tree_param":{"num_deleted":"0","num_feature":"15","num_nodes":"15","size_leaf_vector":"1"}},{"base_weights":[-1.224708E-2,-1.3233585E0,1.4045697E0,-2.367908E0,-6.7108524E-1,2.152874E0,7.4972117E-1,-6.508758E-2,-9.7311415E-2,-3.8222436E-2,-1.05786575E-2,7.350648E-2,1.1577669E-1,4.1962884E-2,1.5355979E-2],"categories":[],"categories_nodes":[],"categories_segments":[],"categories_sizes":[],"default_left":[0,0,0,0,0,0,0,0,0,0,0,0,0,0,0],"id":10,"left_children":[1,3,5,7,9,11,13,-1,-1,-1,-1,-1,-1,-1,-1],"loss_changes":[2.5404598E4,4.8376055E3,3.2190361E3,1.26828125E2,5.055797E2,7.1109863E2,3.835022E2,0E0,0E0,0E0,0E0,0E0,0E0,0E0,0E0],"parents":[2147483647,0,0,1,1,2,2,3,3,4,4,5,5,6,6],"right_children":[2,4,6,8,10,12,14,-1,-1,-1,-1,-1,-1,-1,-1],"split_conditions":[1.43E1,1.2E1,9E0,1.4E1,1.31E1,1.81E1,1E1,-6.508758E-2,-9.7311415E-2,-3.8222436E-2,-1.05786575E-2,7.350648E-2,1.1577669E-1,4.1962884E-2,1.5355979E-2],"split_indices":[7,7,0,0,7,7,0,0,0,0,0,0,0,0,0],"split_type":[0,0,0,0,0,0,0,0,0,0,0,0,0,0,0],"sum_hessian":[1.3674E4,7.102E3,6.572E3,2.729E3,4.373E3,3.066E3,3.506E3,2.22E2,2.507E3,2.572E3,1.801E3,2.154E3,9.12E2,1.927E3,1.579E3],"tree_param":{"num_deleted":"0","num_feature":"15","num_nodes":"15","size_leaf_vector":"1"}},{"base_weights":[2.908643E-3,-1.249782E0,1.4014424E0,-6.7109734E-1,-2.3040783E0,1.0079308E0,2.5012875E0,-3.6663633E-2,-8.761597E-3,-9.101909E-2,-1.526719E-1,1.9550968E-2,5.1748905E-2,1.2759031E-1,9.184463E-2],"categories":[],"categories_nodes":[],"categories_segments":[],"categories_sizes":[],"default_left":[0,0,0,0,0,0,0,0,0,0,0,0,0,0,0],"id":11,"left_children":[1,3,5,7,9,11,13,-1,-1,-1,-1,-1,-1,-1,-1],"loss_changes":[2.4015473E4,4.409826E3,2.8003848E3,5.17949E2,1.0155176E2,7.0721484E2,2.331084E2,0E0,0E0,0E0,0E0,0E0,0E0,0E0,0E0],"parents":[2147483647,0,0,1,1,2,2,3,3,4,4,5,5,6,6],"right_children":[2,4,6,8,10,12,14,-1,-1,-1,-1,-1,-1,-1,-1],"split_conditions":[1.5E1,1.4E1,1.8E1,1.4E1,1.7E1,1.6E1,6E0,-3.6663633E-2,-8.761597E-3,-9.101909E-2,-1.526719E-1,1.9550968E-2,5.1748905E-2,1.2759031E-1,9.184463E-2],"split_indices":[1,0,1,1,0,7,0,0,0,0,0,0,0,0,0],"split_type":[0,0,0,0,0,0,0,0,0,0,0,0,0,0,0],"sum_hessian":[1.3706E4,7.23E3,6.476E3,4.669E3,2.561E3,4.771E3,1.705E3,3.025E3,1.644E3,2.516E3,4.5E1,1.695E3,3.076E3,3.88E2,1.317E3],"tree_param":{"num_deleted":"0","num_feature":"15","num_nodes":"15","size_leaf_vector":"1"}},{"base_weights":[1.0326066E-2,-1.1883584E0,1.3656094E0,-6.374057E-1,-2.2042863E0,7.6211905E-1,2.0547676E0,-1.7026482E-2,-4.639066E-2,-8.701517E-2,-1.4676325E-1,3.9482668E-2,1.790506E-2,6.2496483E-2,9.639249E-2],"categories":[],"categories_nodes":[],"categories_segments":[],"categories_sizes":[],"default_left":[0,0,0,0,0,0,0,0,0,0,0,0,0,0,0],"id":12,"left_children":[1,3,5,7,9,11,13,-1,-1,-1,-1,-1,-1,-1,-1],"loss_changes":[2.2284068E4,4.0725713E3,2.6757178E3,5.215215E2,9.979004E1,2.4235083E2,5.211367E2,0E0,0E0,0E0,0E0,0E0,0E0,0E0,0E0],"parents":[2147483647,0,0,1,1,2,2,3,3,4,4,5,5,6,6],"right_children":[2,4,6,8,10,12,14,-1,-1,-1,-1,-1,-1,-1,-1],"split_conditions":[1.5E1,1.4E1,1.7E1,1.3E1,1.7E1,1E1,1.8E1,-1.7026482E-2,-4.639066E-2,-8.701517E-2,-1.4676325E-1,3.9482668E-2,1.790506E-2,6.2496483E-2,9.639249E-2],"split_indices":[1,0,1,0,0,0,1,0,0,0,0,0,0,0,0],"split_type":[0,0,0,0,0,0,0,0,0,0,0,0,0,0,0],"sum_hessian":[1.3715E4,7.278E3,6.437E3,4.72E3,2.558E3,3.433E3,3.004E3,3.36E3,1.36E3,2.511E3,4.7E1,2E3,1.433E3,1.261E3,1.743E3],"tree_param":{"num_deleted":"0","num_feature":"15","num_nodes":"15","size_leaf_vector":"1"}},{"base_weights":[8.566248E-3,-1.1609311E0,1.307481E0,-6.069156E-1,-2.0810966E0,7.186696E-1,1.9806383E0,-1.7529575E-2,-4.343922E-2,-7.319733E-2,-9.142907E-2,3.7813365E-2,1.6323693E-2,6.84109E-2,1.08537994E-1],"categories":[],"categories_nodes":[],"categories_segments":[],"categories_sizes":[],"default_left":[0,0,0,0,0,1,0,0,0,0,0,0,0,0,0],"id":13,"left_children":[1,3,5,7,9,11,13,-1,-1,-1,-1,-1,-1,-1,-1],"loss_changes":[2.0805297E4,3.672495E3,2.5703037E3,3.6300256E2,1.3458496E2,2.4326318E2,5.9464746E2,0E0,0E0,0E0,0E0,0E0,0E0,0E0,0E0],"parents":[2147483647,0,0,1,1,2,2,3,3,4,4,5,5,6,6],"right_children":[2,4,6,8,10,12,14,-1,-1,-1,-1,-1,-1,-1,-1],"split_conditions":[1.5E1,1.31E1,1.7E1,1.3E1,1.5E1,1E1,1.9E1,-1.7529575E-2,-4.343922E-2,-7.319733E-2,-9.142907E-2,3.7813365E-2,1.6323693E-2,6.84109E-2,1.08537994E-1],"split_indices":[1,6,1,0,0,3,1,0,0,0,0,0,0,0,0],"split_type":[0,0,0,0,0,0,0,0,0,0,0,0,0,0,0],"sum_hessian":[1.3694E4,7.206E3,6.488E3,4.499E3,2.707E3,3.462E3,3.026E3,3.329E3,1.17E3,1.22E3,1.487E3,2E3,1.462E3,2.213E3,8.13E2],"tree_param":{"num_deleted":"0","num_feature":"15","num_nodes":"15","size_leaf_vector":"1"}},{"base_weights":[2.3003945E-3,-1.1088953E0,1.2363303E0,-1.9902793E0,-5.6455976E-1,6.678905E-1,1.8057611E0,-7.051591E-2,-8.709666E-2,-3.122873E-2,-7.876417E-3,1.7672049E-2,3.6608722E-2,6.288216E-2,1.0118578E-1],"categories":[],"categories_nodes":[],"categories_segments":[],"categories_sizes":[],"default_left":[0,0,0,0,0,0,0,0,0,0,0,0,0,0,0],"id":14,"left_children":[1,3,5,7,9,11,13,-1,-1,-1,-1,-1,-1,-1,-1],"loss_changes":[1.877378E4,3.454874E3,2.0983047E3,1.127832E2,3.5378967E2,1.8108203E2,5.437451E2,0E0,0E0,0E0,0E0,0E0,0E0,0E0,0E0],"parents":[2147483647,0,0,1,1,2,2,3,3,4,4,5,5,6,6],"right_children":[2,4,6,8,10,12,14,-1,-1,-1,-1,-1,-1,-1,-1],"split_conditions":[1.5E1,1.2E1,1.61E1,1.5E1,1.4E1,1.6E1,1.9E1,-7.051591E-2,-8.709666E-2,-3.122873E-2,-7.876417E-3,1.7672049E-2,3.6608722E-2,6.288216E-2,1.0118578E-1],"split_indices":[1,7,7,0,1,7,1,0,0,0,0,0,0,0,0],"split_type":[0,0,0,0,0,0,0,0,0,0,0,0,0,0,0],"sum_hessian":[1.3689E4,7.203E3,6.486E3,2.749E3,4.454E3,3.247E3,3.239E3,1.246E3,1.503E3,2.804E3,1.65E3,1.698E3,1.549E3,2.451E3,7.88E2],"tree_param":{"num_deleted":"0","num_feature":"15","num_nodes":"15","size_leaf_vector":"1"}},{"base_weights":[-7.924409E-3,-1.0634664E0,1.1911911E0,-5.668362E-1,-1.9564629E0,8.4888744E-1,2.1366181E0,-3.1361353E-2,-6.4750174E-3,-7.719353E-2,-1.3241535E-1,4.4316467E-2,1.5632171E-2,1.09890886E-1,7.848677E-2],"categories":[],"categories_nodes":[],"categories_segments":[],"categories_sizes":[],"default_left":[0,0,0,0,0,1,0,0,0,0,0,0,0,0,0],"id":15,"left_children":[1,3,5,7,9,11,13,-1,-1,-1,-1,-1,-1,-1,-1],"loss_changes":[1.7430174E4,3.246753E3,2.0842861E3,4.138778E2,8.742383E1,5.612471E2,1.766206E2,0E0,0E0,0E0,0E0,0E0,0E0,0E0,0E0],"parents":[2147483647,0,0,1,1,2,2,3,3,4,4,5,5,6,6],"right_children":[2,4,6,8,10,12,14,-1,-1,-1,-1,-1,-1,-1,-1],"split_conditions":[1.5E1,1.4E1,1.8E1,1.4E1,1.7E1,9.1E0,6E0,-3.1361353E-2,-6.4750174E-3,-7.719353E-2,-1.3241535E-1,4.4316467E-2,1.5632171E-2,1.09890886E-1,7.848677E-2],"split_indices":[1,0,1,1,0,6,0,0,0,0,0,0,0,0,0],"split_type":[0,0,0,0,0,0,0,0,0,0,0,0,0,0,0],"sum_hessian":[1.3769E4,7.323E3,6.446E3,4.707E3,2.616E3,4.734E3,1.712E3,3.063E3,1.644E3,2.568E3,4.8E1,3.023E3,1.711E3,3.77E2,1.335E3],"tree_param":{"num_deleted":"0","num_feature":"15","num_nodes":"15","size_leaf_vector":"1"}},{"base_weights":[7.027773E-4,-1.0113362E0,1.1410818E0,-1.8673878E0,-5.430249E-1,1.6579136E0,5.9886324E-1,-1.285771E-1,-7.3826954E-2,-2.9324872E-2,-8.03592E-3,5.724897E-2,9.009375E-2,3.3981275E-2,1.5140225E-2],"categories":[],"categories_nodes":[],"categories_segments":[],"categories_sizes":[],"default_left":[0,0,1,0,0,1,0,0,0,0,0,0,0,0,0],"id":16,"left_children":[1,3,5,7,9,11,13,-1,-1,-1,-1,-1,-1,-1,-1],"loss_changes":[1.5699343E4,2.888021E3,1.791169E3,6.808984E1,3.0283313E2,4.3758203E2,1.7206006E2,0E0,0E0,0E0,0E0,0E0,0E0,0E0,0E0],"parents":[2147483647,0,0,1,1,2,2,3,3,4,4,5,5,6,6],"right_children":[2,4,6,8,10,12,14,-1,-1,-1,-1,-1,-1,-1,-1],"split_conditions":[1.5E1,1.2E1,8.9E0,9E0,1.4E1,1.81E1,9.1E0,-1.285771E-1,-7.3826954E-2,-2.9324872E-2,-8.03592E-3,5.724897E-2,9.009375E-2,3.3981275E-2,1.5140225E-2],"split_indices":[1,1,6,1,1,7,6,0,0,0,0,0,0,0,0],"split_type":[0,0,0,0,0,0,0,0,0,0,0,0,0,0,0],"sum_hessian":[1.3601E4,7.206E3,6.395E3,2.547E3,4.659E3,3.273E3,3.122E3,3.8E1,2.509E3,2.994E3,1.665E3,2.372E3,9.01E2,1.459E3,1.663E3],"tree_param":{"num_deleted":"0","num_feature":"15","num_nodes":"15","size_leaf_vector":"1"}},{"base_weights":[-3.5556036E-3,-9.785907E-1,1.0952616E0,-5.0271535E-1,-1.7704427E0,1.6160724E0,5.426446E-1,-1.3598505E-2,-3.8626663E-2,-6.740368E-2,-8.5297994E-2,4.972877E-2,7.844671E-2,2.9523322E-2,1.2174127E-2],"categories":[],"categories_nodes":[],"categories_segments":[],"categories_sizes":[],"default_left":[0,0,1,0,0,1,0,0,0,0,0,0,0,0,0],"id":17,"left_children":[1,3,5,7,9,11,13,-1,-1,-1,-1,-1,-1,-1,-1],"loss_changes":[1.4627612E4,2.7248198E3,1.8463535E3,3.4010767E2,7.991113E1,4.223662E2,1.4478735E2,0E0,0E0,0E0,0E0,0E0,0E0,0E0,0E0],"parents":[2147483647,0,0,1,1,2,2,3,3,4,4,5,5,6,6],"right_children":[2,4,6,8,10,12,14,-1,-1,-1,-1,-1,-1,-1,-1],"split_conditions":[1.5E1,1.31E1,9E0,1.3E1,1.6E1,1.8E1,1E1,-1.3598505E-2,-3.8626663E-2,-6.740368E-2,-8.5297994E-2,4.972877E-2,7.844671E-2,2.9523322E-2,1.2174127E-2],"split_indices":[4,6,6,0,0,4,0,0,0,0,0,0,0,0,0],"split_type":[0,0,0,0,0,0,0,0,0,0,0,0,0,0,0],"sum_hessian":[1.3651E4,7.233E3,6.418E3,4.519E3,2.714E3,3.303E3,3.115E3,3.345E3,1.174E3,2.201E3,5.13E2,1.59E3,1.713E3,1.71E3,1.405E3],"tree_param":{"num_deleted":"0","num_feature":"15","num_nodes":"15","size_leaf_vector":"1"}},{"base_weights":[8.749764E-3,-9.262894E-1,1.0642433E0,-4.6386632E-1,-1.6898469E0,7.6407653E-1,1.9081299E0,-2.6179964E-2,-5.519194E-3,-7.335715E-2,-6.0561273E-2,3.941667E-2,1.4287236E-2,9.971014E-2,6.864407E-2],"categories":[],"categories_nodes":[],"categories_segments":[],"categories_sizes":[],"default_left":[0,0,0,0,0,1,0,0,0,0,0,0,0,0,0],"id":18,"left_children":[1,3,5,7,9,11,13,-1,-1,-1,-1,-1,-1,-1,-1],"loss_changes":[1.3587048E4,2.5765327E3,1.6364097E3,2.8237335E2,6.662695E1,4.292915E2,1.8570166E2,0E0,0E0,0E0,0E0,0E0,0E0,0E0,0E0],"parents":[2147483647,0,0,1,1,2,2,3,3,4,4,5,5,6,6],"right_children":[2,4,6,8,10,12,14,-1,-1,-1,-1,-1,-1,-1,-1],"split_conditions":[1.5E1,1.31E1,1.8E1,1.4E1,1.1E1,9.1E0,6E0,-2.6179964E-2,-5.519194E-3,-7.335715E-2,-6.0561273E-2,3.941667E-2,1.4287236E-2,9.971014E-2,6.864407E-2],"split_indices":[1,6,1,1,1,6,6,0,0,0,0,0,0,0,0],"split_type":[0,0,0,0,0,0,0,0,0,0,0,0,0,0,0],"sum_hessian":[1.3765E4,7.299E3,6.466E3,4.547E3,2.752E3,4.771E3,1.695E3,2.868E3,1.679E3,1.507E3,1.245E3,3.089E3,1.682E3,4.16E2,1.279E3],"tree_param":{"num_deleted":"0","num_feature":"15","num_nodes":"15","size_leaf_vector":"1"}},{"base_weights":[7.205948E-3,-8.930169E-1,1.0235014E0,-4.7563833E-1,-1.6565161E0,5.550727E-1,1.5502857E0,-2.6263885E-2,-5.547943E-3,-6.2657505E-2,-8.098007E-2,2.9494595E-2,1.2502697E-2,5.37416E-2,8.407791E-2],"categories":[],"categories_nodes":[],"categories_segments":[],"categories_sizes":[],"default_left":[0,0,0,0,0,0,0,0,0,0,0,0,0,0,0],"id":19,"left_children":[1,3,5,7,9,11,13,-1,-1,-1,-1,-1,-1,-1,-1],"loss_changes":[1.2479144E4,2.3039258E3,1.5799258E3,2.8505737E2,8.119531E1,1.4965833E2,3.407036E2,0E0,0E0,0E0,0E0,0E0,0E0,0E0,0E0],"parents":[2147483647,0,0,1,1,2,2,3,3,4,4,5,5,6,6],"right_children":[2,4,6,8,10,12,14,-1,-1,-1,-1,-1,-1,-1,-1],"split_conditions":[1.5E1,1.4E1,1.7E1,1.4E1,1.6E1,1E1,1.9E1,-2.6263885E-2,-5.547943E-3,-6.2657505E-2,-8.098007E-2,2.9494595E-2,1.2502697E-2,5.37416E-2,8.407791E-2],"split_indices":[1,0,1,1,0,0,1,0,0,0,0,0,0,0,0],"split_type":[0,0,0,0,0,0,0,0,0,0,0,0,0,0,0],"sum_hessian":[1.3638E4,7.232E3,6.406E3,4.677E3,2.555E3,3.392E3,3.014E3,3.042E3,1.635E3,2.057E3,4.98E2,1.935E3,1.457E3,2.195E3,8.19E2],"tree_param":{"num_deleted":"0","num_feature":"15","num_nodes":"15","size_leaf_vector":"1"}},{"base_weights":[5.643162E-3,-8.670806E-1,9.8230636E-1,-4.5195723E-1,-1.6210302E0,6.974265E-1,1.7625332E0,-1.2024735E-2,-3.4003638E-2,-6.380512E-2,-1.14462934E-1,1.37554975E-2,3.5866305E-2,9.5544085E-2,6.333605E-2],"categories":[],"categories_nodes":[],"categories_segments":[],"categories_sizes":[],"default_left":[0,0,0,0,0,0,0,0,0,0,0,0,0,0,0],"id":20,"left_children":[1,3,5,7,9,11,13,-1,-1,-1,-1,-1,-1,-1,-1],"loss_changes":[1.1633834E4,2.2550356E3,1.4301719E3,2.798064E2,7.7217285E1,3.3202515E2,1.8894092E2,0E0,0E0,0E0,0E0,0E0,0E0,0E0,0E0],"parents":[2147483647,0,0,1,1,2,2,3,3,4,4,5,5,6,6],"right_children":[2,4,6,8,10,12,14,-1,-1,-1,-1,-1,-1,-1,-1],"split_conditions":[1.5E1,1.4E1,1.8E1,1.3E1,1.7E1,1.6E1,6E0,-1.2024735E-2,-3.4003638E-2,-6.380512E-2,-1.14462934E-1,1.37554975E-2,3.5866305E-2,9.5544085E-2,6.333605E-2],"split_indices":[1,0,1,0,0,7,0,0,0,0,0,0,0,0,0],"split_type":[0,0,0,0,0,0,0,0,0,0,0,0,0,0,0],"sum_hessian":[1.3647E4,7.207E3,6.44E3,4.649E3,2.558E3,4.719E3,1.721E3,3.37E3,1.279E3,2.508E3,5E1,1.702E3,3.017E3,3.8E2,1.341E3],"tree_param":{"num_deleted":"0","num_feature":"15","num_nodes":"15","size_leaf_vector":"1"}},{"base_weights":[9.398439E-3,-8.310328E-1,9.431239E-1,-4.3519622E-1,-1.5554571E0,1.4592465E0,5.251423E-1,-1.0842643E-2,-3.40241E-2,-6.109682E-2,-1.1460265E-1,4.334956E-2,6.8290055E-2,2.7609736E-2,1.1072901E-2],"categories":[],"categories_nodes":[],"categories_segments":[],"categories_sizes":[],"default_left":[0,0,1,0,0,0,0,0,0,0,0,0,0,0,0],"id":21,"left_children":[1,3,5,7,9,11,13,-1,-1,-1,-1,-1,-1,-1,-1],"loss_changes":[1.0716312E4,2.0600225E3,1.3945913E3,3.1662933E2,8.840918E1,2.6738184E2,1.4632074E2,0E0,0E0,0E0,0E0,0E0,0E0,0E0,0E0],"parents":[2147483647,0,0,1,1,2,2,3,3,4,4,5,5,6,6],"right_children":[2,4,6,8,10,12,14,-1,-1,-1,-1,-1,-1,-1,-1],"split_conditions":[1.5E1,1.4E1,8.1E0,1.3E1,1.7E1,1.8E1,1E1,-1.0842643E-2,-3.40241E-2,-6.109682E-2,-1.1460265E-1,4.334956E-2,6.8290055E-2,2.7609736E-2,1.1072901E-2],"split_indices":[1,0,6,0,0,1,0,0,0,0,0,0,0,0,0],"split_type":[0,0,0,0,0,0,0,0,0,0,0,0,0,0,0],"sum_hessian":[1.3654E4,7.186E3,6.468E3,4.648E3,2.538E3,2.893E3,3.575E3,3.333E3,1.315E3,2.487E3,5.1E1,1.153E3,1.74E3,2.146E3,1.429E3],"tree_param":{"num_deleted":"0","num_feature":"15","num_nodes":"15","size_leaf_vector":"1"}},{"base_weights":[7.534175E-3,-7.9916686E-1,8.930458E-1,-1.4616729E0,-3.974954E-1,6.3094336E-1,1.6229043E0,-5.189012E-2,-6.38356E-2,-2.2259364E-2,-4.7543556E-3,1.1934149E-2,3.2637373E-2,5.8652055E-2,8.429435E-2],"categories":[],"categories_nodes":[],"categories_segments":[],"categories_sizes":[],"default_left":[0,0,1,0,0,0,0,0,0,0,0,0,0,0,0],"id":22,"left_children":[1,3,5,7,9,11,13,-1,-1,-1,-1,-1,-1,-1,-1],"loss_changes":[9.741505E3,1.8981924E3,1.2423774E3,5.7069824E1,1.9673584E2,2.940475E2,1.2681543E2,0E0,0E0,0E0,0E0,0E0,0E0,0E0,0E0],"parents":[2147483647,0,0,1,1,2,2,3,3,4,4,5,5,6,6],"right_children":[2,4,6,8,10,12,14,-1,-1,-1,-1,-1,-1,-1,-1],"split_conditions":[1.5E1,1.2E1,1.8E1,1.5E1,1.4E1,1.6E1,1.91E1,-5.189012E-2,-6.38356E-2,-2.2259364E-2,-4.7543556E-3,1.1934149E-2,3.2637373E-2,5.8652055E-2,8.429435E-2],"split_indices":[1,7,4,0,1,7,7,0,0,0,0,0,0,0,0],"split_type":[0,0,0,0,0,0,0,0,0,0,0,0,0,0,0],"sum_hessian":[1.3635E4,7.135E3,6.5E3,2.692E3,4.443E3,4.784E3,1.716E3,1.215E3,1.477E3,2.828E3,1.615E3,1.711E3,3.073E3,1.3E3,4.16E2],"tree_param":{"num_deleted":"0","num_feature":"15","num_nodes":"15","size_leaf_vector":"1"}},{"base_weights":[-1.4561637E-3,-7.8372216E-1,8.292457E-1,-3.9005446E-1,-1.4100026E0,1.2650052E0,3.7814358E-1,-1.0307594E-2,-2.7017124E-2,-4.0587526E-2,-5.8521926E-2,8.118893E-2,4.6152785E-2,1.6189093E-2,-1.0652033E-2],"categories":[],"categories_nodes":[],"categories_segments":[],"categories_sizes":[],"default_left":[0,0,1,0,0,0,0,0,0,0,0,0,0,0,0],"id":23,"left_children":[1,3,5,7,9,11,13,-1,-1,-1,-1,-1,-1,-1,-1],"loss_changes":[8.913061E3,1.7408735E3,1.3069541E3,1.6363129E2,5.5431152E1,2.8498145E2,5.6142487E1,0E0,0E0,0E0,0E0,0E0,0E0,0E0,0E0],"parents":[2147483647,0,0,1,1,2,2,3,3,4,4,5,5,6,6],"right_children":[2,4,6,8,10,12,14,-1,-1,-1,-1,-1,-1,-1,-1],"split_conditions":[1.41E1,1.31E1,9E0,1.21E1,1.4E1,6E0,9.4280905E-1,-1.0307594E-2,-2.7017124E-2,-4.0587526E-2,-5.8521926E-2,8.118893E-2,4.6152785E-2,1.6189093E-2,-1.0652033E-2],"split_indices":[7,6,6,6,6,6,9,0,0,0,0,0,0,0,0],"split_type":[0,0,0,0,0,0,0,0,0,0,0,0,0,0,0],"sum_hessian":[1.3714E4,7.063E3,6.651E3,4.338E3,2.725E3,3.382E3,3.269E3,2.965E3,1.373E3,3.25E2,2.4E3,4.27E2,2.955E3,3.14E3,1.29E2],"tree_param":{"num_deleted":"0","num_feature":"15","num_nodes":"15","size_leaf_vector":"1"}},{"base_weights":[1.5493607E-2,-7.1308607E-1,8.2736874E-1,-3.3842337E-1,-1.3215315E0,5.808297E-1,1.507644E0,-1.9999167E-2,-2.280766E-3,-4.5945767E-2,-5.8280017E-2,2.9172812E-2,9.798365E-3,7.9393074E-2,5.405064E-2],"categories":[],"categories_nodes":[],"categories_segments":[],"categories_sizes":[],"default_left":[0,0,0,0,0,0,0,0,0,0,0,0,0,0,0],"id":24,"left_children":[1,3,5,7,9,11,13,-1,-1,-1,-1,-1,-1,-1,-1],"loss_changes":[8.0854375E3,1.6416238E3,1.0831895E3,2.0267844E2,6.2356445E1,2.36474E2,1.2525781E2,0E0,0E0,0E0,0E0,0E0,0E0,0E0,0E0],"parents":[2147483647,0,0,1,1,2,2,3,3,4,4,5,5,6,6],"right_children":[2,4,6,8,10,12,14,-1,-1,-1,-1,-1,-1,-1,-1],"split_conditions":[1.5E1,1.31E1,1.8E1,1.4E1,1.5E1,1E1,6E0,-1.9999167E-2,-2.280766E-3,-4.5945767E-2,-5.8280017E-2,2.9172812E-2,9.798365E-3,7.9393074E-2,5.405064E-2],"split_indices":[1,6,1,1,0,0,6,0,0,0,0,0,0,0,0],"split_type":[0,0,0,0,0,0,0,0,0,0,0,0,0,0,0],"sum_hessian":[1.3667E4,7.203E3,6.464E3,4.459E3,2.744E3,4.746E3,1.718E3,2.832E3,1.627E3,1.21E3,1.534E3,3.29E3,1.456E3,4.21E2,1.297E3],"tree_param":{"num_deleted":"0","num_feature":"15","num_nodes":"15","size_leaf_vector":"1"}},{"base_weights":[3.3708496E-3,-6.8411344E-1,7.90581E-1,-3.520581E-1,-1.311018E0,1.1803426E0,4.2455152E-1,-2.0665284E-2,-3.116565E-3,-4.6381857E-2,-5.684093E-2,4.0471043E-2,6.603825E-2,2.2263752E-2,9.315831E-3],"categories":[],"categories_nodes":[],"categories_segments":[],"categories_sizes":[],"default_left":[0,0,0,0,0,0,0,0,0,0,0,0,0,0,0],"id":25,"left_children":[1,3,5,7,9,11,13,-1,-1,-1,-1,-1,-1,-1,-1],"loss_changes":[7.3797407E3,1.5146194E3,9.062551E2,2.1465717E2,4.0083984E1,2.4224023E2,8.27973E1,0E0,0E0,0E0,0E0,0E0,0E0,0E0,0E0],"parents":[2147483647,0,0,1,1,2,2,3,3,4,4,5,5,6,6],"right_children":[2,4,6,8,10,12,14,-1,-1,-1,-1,-1,-1,-1,-1],"split_conditions":[1.47E1,1.4E1,9E0,1.4E1,1.5E1,1.9E1,1E1,-2.0665284E-2,-3.116565E-3,-4.6381857E-2,-5.684093E-2,4.0471043E-2,6.603825E-2,2.2263752E-2,9.315831E-3],"split_indices":[7,0,0,1,0,1,0,0,0,0,0,0,0,0,0],"split_type":[0,0,0,0,0,0,0,0,0,0,0,0,0,0,0],"sum_hessian":[1.3634E4,7.278E3,6.356E3,4.759E3,2.519E3,3.077E3,3.279E3,2.973E3,1.786E3,1.065E3,1.454E3,2.268E3,8.09E2,1.94E3,1.339E3],"tree_param":{"num_deleted":"0","num_feature":"15","num_nodes":"15","size_leaf_vector":"1"}},{"base_weights":[1.19227825E-5,-6.8360555E-1,7.840056E-1,-1.2401192E0,-3.5610175E-1,1.1747683E0,4.1957247E-1,-4.6807293E-2,-6.1715078E-2,-9.711149E-3,-2.6862545E-2,3.996965E-2,6.3348226E-2,2.1942368E-2,9.540638E-3],"categories":[],"categories_nodes":[],"categories_segments":[],"categories_sizes":[],"default_left":[0,0,0,0,0,0,0,0,0,0,0,0,0,0,0],"id":26,"left_children":[1,3,5,7,9,11,13,-1,-1,-1,-1,-1,-1,-1,-1],"loss_changes":[7.280914E3,1.322062E3,9.004988E2,5.4838867E1,1.6311884E2,2.1730225E2,7.629779E1,0E0,0E0,0E0,0E0,0E0,0E0,0E0,0E0],"parents":[2147483647,0,0,1,1,2,2,3,3,4,4,5,5,6,6],"right_children":[2,4,6,8,10,12,14,-1,-1,-1,-1,-1,-1,-1,-1],"split_conditions":[1.47E1,1.19E1,9E0,1.6E1,1.3E1,1.82E1,1E1,-4.6807293E-2,-6.1715078E-2,-9.711149E-3,-2.6862545E-2,3.996965E-2,6.3348226E-2,2.1942368E-2,9.540638E-3],"split_indices":[7,7,0,0,0,7,0,0,0,0,0,0,0,0,0],"split_type":[0,0,0,0,0,0,0,0,0,0,0,0,0,0,0],"sum_hessian":[1.3583E4,7.256E3,6.327E3,2.687E3,4.569E3,3.052E3,3.275E3,2.187E3,5E2,3.363E3,1.206E3,2.138E3,9.14E2,1.911E3,1.364E3],"tree_param":{"num_deleted":"0","num_feature":"15","num_nodes":"15","size_leaf_vector":"1"}},{"base_weights":[2.1683406E-3,-6.5673286E-1,7.429894E-1,-1.2245967E0,-3.6580488E-1,4.235958E-1,1.1481471E0,-4.825162E-2,-8.902969E-2,-9.770449E-3,-2.6690478E-2,1.0295327E-2,2.2509042E-2,4.713993E-2,-4.056074E-2],"categories":[],"categories_nodes":[],"categories_segments":[],"categories_sizes":[],"default_left":[0,0,0,0,0,0,0,0,0,0,0,0,0,0,0],"id":27,"left_children":[1,3,5,7,9,11,13,-1,-1,-1,-1,-1,-1,-1,-1],"loss_changes":[6.715184E3,1.2022683E3,8.373821E2,4.2166504E1,1.7620502E2,8.3555786E1,1.8850293E2,0E0,0E0,0E0,0E0,0E0,0E0,0E0,0E0],"parents":[2147483647,0,0,1,1,2,2,3,3,4,4,5,5,6,6],"right_children":[2,4,6,8,10,12,14,-1,-1,-1,-1,-1,-1,-1,-1],"split_conditions":[1.47E1,1.15E1,1.7E1,1.7E1,1.3E1,1.6E1,1E0,-4.825162E-2,-8.902969E-2,-9.770449E-3,-2.6690478E-2,1.0295327E-2,2.2509042E-2,4.713993E-2,-4.056074E-2],"split_indices":[7,7,7,3,3,7,2,0,0,0,0,0,0,0,0],"split_type":[0,0,0,0,0,0,0,0,0,0,0,0,0,0,0],"sum_hessian":[1.3755E4,7.28E3,6.475E3,2.465E3,4.815E3,3.622E3,2.853E3,2.423E3,4.2E1,3.433E3,1.382E3,1.652E3,1.97E3,2.814E3,3.9E1],"tree_param":{"num_deleted":"0","num_feature":"15","num_nodes":"15","size_leaf_vector":"1"}},{"base_weights":[-2.0732584E-3,-6.2813824E-1,6.9829494E-1,-3.270765E-1,-1.1495498E0,4.8383978E-1,1.2915972E0,-8.553585E-3,-2.5168557E-2,-3.8874626E-2,-5.1805448E-2,3.0862581E-2,1.3362299E-2,6.997392E-2,4.654529E-2],"categories":[],"categories_nodes":[],"categories_segments":[],"categories_sizes":[],"default_left":[0,0,0,0,0,1,0,0,0,0,0,0,0,0,0],"id":28,"left_children":[1,3,5,7,9,11,13,-1,-1,-1,-1,-1,-1,-1,-1],"loss_changes":[5.979052E3,1.1297114E3,8.1809326E2,1.5599814E2,6.6677734E1,2.0343298E2,9.772119E1,0E0,0E0,0E0,0E0,0E0,0E0,0E0,0E0],"parents":[2147483647,0,0,1,1,2,2,3,3,4,4,5,5,6,6],"right_children":[2,4,6,8,10,12,14,-1,-1,-1,-1,-1,-1,-1,-1],"split_conditions":[1.5E1,1.32E1,1.8E1,1.3E1,1.5E1,9E0,6E0,-8.553585E-3,-2.5168557E-2,-3.8874626E-2,-5.1805448E-2,3.0862581E-2,1.3362299E-2,6.997392E-2,4.654529E-2],"split_indices":[1,6,1,0,0,6,0,0,0,0,0,0,0,0,0],"split_type":[0,0,0,0,0,0,0,0,0,0,0,0,0,0,0],"sum_hessian":[1.3634E4,7.199E3,6.435E3,4.565E3,2.634E3,4.728E3,1.707E3,3.322E3,1.243E3,1.19E3,1.444E3,1.617E3,3.111E3,3.7E2,1.337E3],"tree_param":{"num_deleted":"0","num_feature":"15","num_nodes":"15","size_leaf_vector":"1"}},{"base_weights":[1.4867397E-2,-5.8562475E-1,6.838628E-1,-1.0932457E0,-3.0580145E-1,4.7407517E-1,1.2533009E0,-9.000324E-2,-4.290458E-2,-2.492909E-2,-7.2650705E-3,7.3493137E-3,2.4068316E-2,4.5050494E-2,6.76744E-2],"categories":[],"categories_nodes":[],"categories_segments":[],"categories_sizes":[],"default_left":[0,0,0,0,0,1,0,0,0,0,0,0,0,0,0],"id":29,"left_children":[1,3,5,7,9,11,13,-1,-1,-1,-1,-1,-1,-1,-1],"loss_changes":[5.510089E3,1.026221E3,7.742969E2,5.854492E1,1.8352548E2,1.75573E2,9.508911E1,0E0,0E0,0E0,0E0,0E0,0E0,0E0,0E0],"parents":[2147483647,0,0,1,1,2,2,3,3,4,4,5,5,6,6],"right_children":[2,4,6,8,10,12,14,-1,-1,-1,-1,-1,-1,-1,-1],"split_conditions":[1.5E1,1.2E1,1.8E1,9E0,1.3E1,1.6E1,2E1,-9.000324E-2,-4.290458E-2,-2.492909E-2,-7.2650705E-3,7.3493137E-3,2.4068316E-2,4.5050494E-2,6.76744E-2],"split_indices":[1,1,1,1,1,4,1,0,0,0,0,0,0,0,0],"split_type":[0,0,0,0,0,0,0,0,0,0,0,0,0,0,0],"sum_hessian":[1.3714E4,7.227E3,6.487E3,2.567E3,4.66E3,4.742E3,1.745E3,4.3E1,2.524E3,1.309E3,3.351E3,1.449E3,3.293E3,1.356E3,3.89E2],"tree_param":{"num_deleted":"0","num_feature":"15","num_nodes":"15","size_leaf_vector":"1"}},{"base_weights":[-3.1645661E-3,-5.7744545E-1,6.3704616E-1,-3.1291163E-1,-1.0773324E0,4.313105E-1,1.2174958E0,-1.7531794E-2,-3.334876E-3,-4.2327236E-2,-8.559231E-2,2.238966E-2,5.2972804E-3,6.459784E-2,4.420024E-2],"categories":[],"categories_nodes":[],"categories_segments":[],"categories_sizes":[],"default_left":[0,0,0,0,0,0,0,0,0,0,0,0,0,0,0],"id":30,"left_children":[1,3,5,7,9,11,13,-1,-1,-1,-1,-1,-1,-1,-1],"loss_changes":[5.017461E3,9.508367E2,7.699221E2,1.3535196E2,4.8062256E1,1.828006E2,7.34126E1,0E0,0E0,0E0,0E0,0E0,0E0,0E0,0E0],"parents":[2147483647,0,0,1,1,2,2,3,3,4,4,5,5,6,6],"right_children":[2,4,6,8,10,12,14,-1,-1,-1,-1,-1,-1,-1,-1],"split_conditions":[1.5E1,1.4E1,1.8E1,1.4E1,1.7E1,1E1,6E0,-1.7531794E-2,-3.334876E-3,-4.2327236E-2,-8.559231E-2,2.238966E-2,5.2972804E-3,6.459784E-2,4.420024E-2],"split_indices":[1,0,1,1,0,0,0,0,0,0,0,0,0,0,0],"split_type":[0,0,0,0,0,0,0,0,0,0,0,0,0,0,0],"sum_hessian":[1.3645E4,7.193E3,6.452E3,4.705E3,2.488E3,4.765E3,1.687E3,3.042E3,1.663E3,2.446E3,4.2E1,3.332E3,1.433E3,3.69E2,1.318E3],"tree_param":{"num_deleted":"0","num_feature":"15","num_nodes":"15","size_leaf_vector":"1"}},{"base_weights":[-7.3128603E-3,-5.659267E-1,6.304482E-1,-1.041371E0,-3.03838E-1,4.4379798E-1,1.1481795E0,-8.058553E-2,-4.0851712E-2,-1.6775526E-2,-3.481244E-3,7.6962905E-3,2.2121815E-2,3.911301E-2,5.375059E-2],"categories":[],"categories_nodes":[],"categories_segments":[],"categories_sizes":[],"default_left":[0,0,0,0,0,0,0,0,0,0,0,0,0,0,0],"id":31,"left_children":[1,3,5,7,9,11,13,-1,-1,-1,-1,-1,-1,-1,-1],"loss_changes":[4.8512163E3,9.040825E2,6.137344E2,4.803662E1,1.1718164E2,1.2821234E2,5.4562744E1,0E0,0E0,0E0,0E0,0E0,0E0,0E0,0E0],"parents":[2147483647,0,0,1,1,2,2,3,3,4,4,5,5,6,6],"right_children":[2,4,6,8,10,12,14,-1,-1,-1,-1,-1,-1,-1,-1],"split_conditions":[1.5E1,1.2E1,1.8E1,9E0,1.4E1,1.6E1,1.9E1,-8.058553E-2,-4.0851712E-2,-1.6775526E-2,-3.481244E-3,7.6962905E-3,2.2121815E-2,3.911301E-2,5.375059E-2],"split_indices":[1,1,1,1,1,1,4,0,0,0,0,0,0,0,0],"split_type":[0,0,0,0,0,0,0,0,0,0,0,0,0,0,0],"sum_hessian":[1.3615E4,7.258E3,6.357E3,2.578E3,4.68E3,4.674E3,1.683E3,5E1,2.528E3,3.052E3,1.628E3,1.417E3,3.257E3,9.03E2,7.8E2],"tree_param":{"num_deleted":"0","num_feature":"15","num_nodes":"15","size_leaf_vector":"1"}},{"base_weights":[-6.595125E-3,-5.4824454E-1,6.0152715E-1,-9.890467E-1,-3.0443454E-1,4.1855922E-1,1.110183E0,-4.401965E-2,-3.31718E-2,-1.7175453E-2,-3.0468516E-3,2.6695749E-2,1.1733875E-2,6.108286E-2,3.838947E-2],"categories":[],"categories_nodes":[],"categories_segments":[],"categories_sizes":[],"default_left":[0,0,0,0,0,1,0,0,0,0,0,0,0,0,0],"id":32,"left_children":[1,3,5,7,9,11,13,-1,-1,-1,-1,-1,-1,-1,-1],"loss_changes":[4.5057085E3,7.771294E2,5.991111E2,4.4756104E1,1.3282883E2,1.4742432E2,1.0515918E2,0E0,0E0,0E0,0E0,0E0,0E0,0E0,0E0],"parents":[2147483647,0,0,1,1,2,2,3,3,4,4,5,5,6,6],"right_children":[2,4,6,8,10,12,14,-1,-1,-1,-1,-1,-1,-1,-1],"split_conditions":[1.5E1,1.2E1,1.8E1,1.1E1,1.4E1,9E0,6E0,-4.401965E-2,-3.31718E-2,-1.7175453E-2,-3.0468516E-3,2.6695749E-2,1.1733875E-2,6.108286E-2,3.838947E-2],"split_indices":[1,1,1,1,1,6,6,0,0,0,0,0,0,0,0],"split_type":[0,0,0,0,0,0,0,0,0,0,0,0,0,0,0],"sum_hessian":[1.3677E4,7.234E3,6.443E3,2.575E3,4.659E3,4.74E3,1.703E3,1.513E3,1.062E3,3.01E3,1.649E3,1.585E3,3.155E3,4.49E2,1.254E3],"tree_param":{"num_deleted":"0","num_feature":"15","num_nodes":"15","size_leaf_vector":"1"}},{"base_weights":[4.109886E-3,-5.0343853E-1,5.916386E-1,-2.7024695E-1,-9.419911E-1,8.6812437E-1,2.8655237E-1,-1.5932525E-2,-2.026015E-3,-3.700722E-2,-7.648829E-2,3.0021925E-2,4.885567E-2,6.799567E-3,1.45137245E-2],"categories":[],"categories_nodes":[],"categories_segments":[],"categories_sizes":[],"default_left":[0,0,1,0,0,0,0,0,0,0,0,0,0,0,0],"id":33,"left_children":[1,3,5,7,9,11,13,-1,-1,-1,-1,-1,-1,-1,-1],"loss_changes":[4.0468708E3,7.442284E2,5.3020996E2,1.3365927E2,3.916211E1,1.3591284E2,2.6491974E1,0E0,0E0,0E0,0E0,0E0,0E0,0E0,0E0],"parents":[2147483647,0,0,1,1,2,2,3,3,4,4,5,5,6,6],"right_children":[2,4,6,8,10,12,14,-1,-1,-1,-1,-1,-1,-1,-1],"split_conditions":[1.47E1,1.4E1,9E0,1.4E1,1.7E1,1.9E1,1.52E1,-1.5932525E-2,-2.026015E-3,-3.700722E-2,-7.648829E-2,3.0021925E-2,4.885567E-2,6.799567E-3,1.45137245E-2],"split_indices":[7,0,6,1,0,1,7,0,0,0,0,0,0,0,0],"split_type":[0,0,0,0,0,0,0,0,0,0,0,0,0,0,0],"sum_hessian":[1.3569E4,7.28E3,6.289E3,4.754E3,2.526E3,3.298E3,2.991E3,3.002E3,1.752E3,2.485E3,4.1E1,2.477E3,8.21E2,1.185E3,1.806E3],"tree_param":{"num_deleted":"0","num_feature":"15","num_nodes":"15","size_leaf_vector":"1"}},{"base_weights":[-6.6511924E-3,-4.9770612E-1,5.323027E-1,-2.7057552E-1,-9.0245056E-1,8.283896E-1,2.6958907E-1,-7.013606E-3,-2.0134598E-2,-3.5400853E-2,-7.2639816E-2,5.3212576E-2,3.0257858E-2,1.48653025E-2,5.6248894E-3],"categories":[],"categories_nodes":[],"categories_segments":[],"categories_sizes":[],"default_left":[0,0,0,0,0,0,0,0,0,0,0,0,0,0,0],"id":34,"left_children":[1,3,5,7,9,11,13,-1,-1,-1,-1,-1,-1,-1,-1],"loss_changes":[3.6128154E3,6.562932E2,5.0589844E2,1.01315E2,3.8995605E1,1.0924585E2,4.529927E1,0E0,0E0,0E0,0E0,0E0,0E0,0E0,0E0],"parents":[2147483647,0,0,1,1,2,2,3,3,4,4,5,5,6,6],"right_children":[2,4,6,8,10,12,14,-1,-1,-1,-1,-1,-1,-1,-1],"split_conditions":[1.43E1,1.35E1,9E0,1.3E1,1.7E1,6E0,1E1,-7.013606E-3,-2.0134598E-2,-3.5400853E-2,-7.2639816E-2,5.3212576E-2,3.0257858E-2,1.48653025E-2,5.6248894E-3],"split_indices":[7,6,0,0,0,0,0,0,0,0,0,0,0,0,0],"split_type":[0,0,0,0,0,0,0,0,0,0,0,0,0,0,0],"sum_hessian":[1.3649E4,7.142E3,6.507E3,4.576E3,2.566E3,3.058E3,3.449E3,3.249E3,1.327E3,2.52E3,4.6E1,3.81E2,2.677E3,1.924E3,1.525E3],"tree_param":{"num_deleted":"0","num_feature":"15","num_nodes":"15","size_leaf_vector":"1"}},{"base_weights":[4.898268E-3,-4.5379415E-1,5.315149E-1,-2.3093523E-1,-8.6598086E-1,3.65586E-1,9.8657817E-1,-5.4140454E-3,-1.8999325E-2,-3.2153603E-2,-4.49171E-2,1.038612E-2,2.3165043E-2,4.002081E-2,-5.905652E-2],"categories":[],"categories_nodes":[],"categories_segments":[],"categories_sizes":[],"default_left":[0,0,0,0,0,0,0,0,0,0,0,0,0,0,0],"id":35,"left_children":[1,3,5,7,9,11,13,-1,-1,-1,-1,-1,-1,-1,-1],"loss_changes":[3.3259792E3,6.756842E2,4.8351123E2,1.1133156E2,4.0131104E1,1.0606152E2,6.021826E1,0E0,0E0,0E0,0E0,0E0,0E0,0E0,0E0],"parents":[2147483647,0,0,1,1,2,2,3,3,4,4,5,5,6,6],"right_children":[2,4,6,8,10,12,14,-1,-1,-1,-1,-1,-1,-1,-1],"split_conditions":[1.47E1,1.4E1,1.8E1,1.3E1,1.6E1,1.61E1,1E-1,-5.4140454E-3,-1.8999325E-2,-3.2153603E-2,-4.49171E-2,1.038612E-2,2.3165043E-2,4.002081E-2,-5.905652E-2],"split_indices":[7,0,1,0,0,7,8,0,0,0,0,0,0,0,0],"split_type":[0,0,0,0,0,0,0,0,0,0,0,0,0,0,0],"sum_hessian":[1.3767E4,7.358E3,6.409E3,4.777E3,2.581E3,4.698E3,1.711E3,3.434E3,1.343E3,2.082E3,4.99E2,3.142E3,1.556E3,1.702E3,9E0],"tree_param":{"num_deleted":"0","num_feature":"15","num_nodes":"15","size_leaf_vector":"1"}},{"base_weights":[6.25705E-3,5.132281E-1,-4.311075E-1,7.681221E-1,2.6260847E-1,-1.1120349E-1,-7.1595216E-1,3.204336E-2,-7.278043E-3,1.4632093E-2,4.5627854E-3,-8.768544E-4,-8.436077E-3,-1.9696042E-2,-3.421181E-2],"categories":[],"categories_nodes":[],"categories_segments":[],"categories_sizes":[],"default_left":[1,0,0,0,0,0,0,0,0,0,0,0,0,0,0],"id":36,"left_children":[1,3,5,7,9,11,13,-1,-1,-1,-1,-1,-1,-1,-1],"loss_changes":[3.0328467E3,4.043839E2,6.689535E2,9.854089E1,4.889949E1,3.0770557E1,1.20431885E2,0E0,0E0,0E0,0E0,0E0,0E0,0E0,0E0],"parents":[2147483647,0,0,1,1,2,2,3,3,4,4,5,5,6,6],"right_children":[2,4,6,8,10,12,14,-1,-1,-1,-1,-1,-1,-1,-1],"split_conditions":[1.01E1,9E0,1.3E1,1E-1,1E1,1.2E1,1.4E1,3.204336E-2,-7.278043E-3,1.4632093E-2,4.5627854E-3,-8.768544E-4,-8.436077E-3,-1.9696042E-2,-3.421181E-2],"split_indices":[6,0,0,8,0,0,6,0,0,0,0,0,0,0,0],"split_type":[0,0,0,0,0,0,0,0,0,0,0,0,0,0,0],"sum_hessian":[1.3676E4,6.334E3,7.342E3,3.139E3,3.195E3,3.459E3,3.883E3,3.034E3,1.05E2,1.884E3,1.311E3,1.826E3,1.633E3,1.493E3,2.39E3],"tree_param":{"num_deleted":"0","num_feature":"15","num_nodes":"15","size_leaf_vector":"1"}},{"base_weights":[-1.1603315E-2,-4.2187643E-1,4.7943255E-1,-2.1671028E-1,-7.787309E-1,3.476104E-1,8.7943155E-1,-1.3578366E-2,-2.3953023E-3,-4.011807E-2,-2.8977139E-2,2.0961337E-2,9.866619E-3,3.5625406E-2,-8.608858E-2],"categories":[],"categories_nodes":[],"categories_segments":[],"categories_sizes":[],"default_left":[0,0,0,0,0,0,1,0,0,0,0,0,0,0,0],"id":37,"left_children":[1,3,5,7,9,11,13,-1,-1,-1,-1,-1,-1,-1,-1],"loss_changes":[2.785163E3,5.51183E2,3.313933E2,9.203377E1,3.2571533E1,8.4119385E1,5.4742798E1,0E0,0E0,0E0,0E0,0E0,0E0,0E0,0E0],"parents":[2147483647,0,0,1,1,2,2,3,3,4,4,5,5,6,6],"right_children":[2,4,6,8,10,12,14,-1,-1,-1,-1,-1,-1,-1,-1],"split_conditions":[1.49E1,1.32E1,1.79E1,1.31E1,1E1,9E0,1E0,-1.3578366E-2,-2.3953023E-3,-4.011807E-2,-2.8977139E-2,2.0961337E-2,9.866619E-3,3.5625406E-2,-8.608858E-2],"split_indices":[7,6,7,7,4,6,8,0,0,0,0,0,0,0,0],"split_type":[0,0,0,0,0,0,0,0,0,0,0,0,0,0,0],"sum_hessian":[1.3823E4,7.531E3,6.292E3,4.783E3,2.748E3,4.734E3,1.558E3,2.682E3,2.101E3,5.32E2,2.216E3,1.721E3,3.013E3,1.553E3,5E0],"tree_param":{"num_deleted":"0","num_feature":"15","num_nodes":"15","size_leaf_vector":"1"}},{"base_weights":[-6.5231505E-3,-4.2480278E-1,4.810069E-1,-8.119708E-1,-2.38404E-1,3.3764377E-1,8.961944E-1,-3.1827237E-2,-6.599987E-2,-5.653098E-3,-1.8335022E-2,9.654819E-3,2.070719E-2,3.626889E-2,-8.393264E-2],"categories":[],"categories_nodes":[],"categories_segments":[],"categories_sizes":[],"default_left":[0,0,0,0,0,0,1,0,0,0,0,0,0,0,0],"id":38,"left_children":[1,3,5,7,9,11,13,-1,-1,-1,-1,-1,-1,-1,-1],"loss_changes":[2.8161836E3,5.3612354E2,3.791494E2,3.14104E1,1.0705133E2,8.19906E1,5.3359497E1,0E0,0E0,0E0,0E0,0E0,0E0,0E0,0E0],"parents":[2147483647,0,0,1,1,2,2,3,3,4,4,5,5,6,6],"right_children":[2,4,6,8,10,12,14,-1,-1,-1,-1,-1,-1,-1,-1],"split_conditions":[1.47E1,1.11E1,1.78E1,1.7E1,1.3E1,1.61E1,1E0,-3.1827237E-2,-6.599987E-2,-5.653098E-3,-1.8335022E-2,9.654819E-3,2.070719E-2,3.626889E-2,-8.393264E-2],"split_indices":[7,7,7,0,0,7,5,0,0,0,0,0,0,0,0],"split_type":[0,0,0,0,0,0,0,0,0,0,0,0,0,0,0],"sum_hessian":[1.3808E4,7.432E3,6.376E3,2.414E3,5.018E3,4.741E3,1.635E3,2.37E3,4.4E1,3.483E3,1.535E3,3.091E3,1.65E3,1.63E3,5E0],"tree_param":{"num_deleted":"0","num_feature":"15","num_nodes":"15","size_leaf_vector":"1"}},{"base_weights":[1.7765375E-3,-5.0380725E-1,3.492295E-1,-7.764759E-1,-2.9973608E-1,1.2732981E-1,6.7385894E-1,-3.0453788E-2,-6.0446586E-2,-8.411312E-3,-1.5999738E-2,9.284654E-4,1.1372388E-2,2.7873307E-2,-4.307796E-2],"categories":[],"categories_nodes":[],"categories_segments":[],"categories_sizes":[],"default_left":[0,0,0,0,0,0,1,0,0,0,0,0,0,0,0],"id":39,"left_children":[1,3,5,7,9,11,13,-1,-1,-1,-1,-1,-1,-1,-1],"loss_changes":[2.4048606E3,3.0992957E2,5.843275E2,2.5146606E1,2.847287E1,7.875931E1,1.3320605E2,0E0,0E0,0E0,0E0,0E0,0E0,0E0,0E0],"parents":[2147483647,0,0,1,1,2,2,3,3,4,4,5,5,6,6],"right_children":[2,4,6,8,10,12,14,-1,-1,-1,-1,-1,-1,-1,-1],"split_conditions":[1.4E1,1.11E1,1.61E1,1.7E1,1.3E1,1.52E1,1E0,-3.0453788E-2,-6.0446586E-2,-8.411312E-3,-1.5999738E-2,9.284654E-4,1.1372388E-2,2.7873307E-2,-4.307796E-2],"split_indices":[4,7,7,3,3,7,5,0,0,0,0,0,0,0,0],"split_type":[0,0,0,0,0,0,0,0,0,0,0,0,0,0,0],"sum_hessian":[1.3688E4,5.575E3,8.113E3,2.385E3,3.19E3,4.82E3,3.293E3,2.339E3,4.6E1,1.688E3,1.502E3,2.899E3,1.921E3,3.251E3,4.2E1],"tree_param":{"num_deleted":"0","num_feature":"15","num_nodes":"15","size_leaf_vector":"1"}},{"base_weights":[-1.1204947E-2,-5.107267E-1,3.3404362E-1,-7.1588576E-1,-3.36701E-1,6.6460514E-1,1.2764512E-1,-6.267996E-2,-2.7962105E-2,-9.646495E-3,-1.8148113E-2,2.1901336E-2,3.914088E-2,8.628199E-4,1.1844601E-2],"categories":[],"categories_nodes":[],"categories_segments":[],"categories_sizes":[],"default_left":[0,0,0,0,0,0,0,0,0,0,0,0,0,0,0],"id":40,"left_children":[1,3,5,7,9,11,13,-1,-1,-1,-1,-1,-1,-1,-1],"loss_changes":[2.3677075E3,1.9998291E2,5.5370593E2,3.555542E1,3.3780457E1,1.1397412E2,8.929588E1,0E0,0E0,0E0,0E0,0E0,0E0,0E0,0E0],"parents":[2147483647,0,0,1,1,2,2,3,3,4,4,5,5,6,6],"right_children":[2,4,6,8,10,12,14,-1,-1,-1,-1,-1,-1,-1,-1],"split_conditions":[1.4E1,1.2E1,9E0,9E0,1.3E1,1.9E1,1.6E1,-6.267996E-2,-2.7962105E-2,-9.646495E-3,-1.8148113E-2,2.1901336E-2,3.914088E-2,8.628199E-4,1.1844601E-2],"split_indices":[1,1,3,1,3,1,1,0,0,0,0,0,0,0,0],"split_type":[0,0,0,0,0,0,0,0,0,0,0,0,0,0,0],"sum_hessian":[1.3727E4,5.61E3,8.117E3,2.573E3,3.037E3,3.119E3,4.998E3,4.8E1,2.525E3,1.674E3,1.363E3,2.274E3,8.45E2,3.068E3,1.93E3],"tree_param":{"num_deleted":"0","num_feature":"15","num_nodes":"15","size_leaf_vector":"1"}},{"base_weights":[-2.5892248E-3,-3.751019E-1,4.1825584E-1,-1.22789755E-1,-5.913402E-1,2.7796587E-1,8.093125E-1,-4.258282E-3,-3.5095893E-2,-1.9172765E-2,-3.0837331E-2,1.4289324E-2,4.028792E-3,4.6883143E-2,2.8191304E-2],"categories":[],"categories_nodes":[],"categories_segments":[],"categories_sizes":[],"default_left":[0,0,1,0,0,0,0,0,0,0,0,0,0,0,0],"id":41,"left_children":[1,3,5,7,9,11,13,-1,-1,-1,-1,-1,-1,-1,-1],"loss_changes":[2.1532332E3,3.9737683E2,3.5346704E2,4.1268772E1,7.84292E1,6.662671E1,6.3526E1,0E0,0E0,0E0,0E0,0E0,0E0,0E0,0E0],"parents":[2147483647,0,0,1,1,2,2,3,3,4,4,5,5,6,6],"right_children":[2,4,6,8,10,12,14,-1,-1,-1,-1,-1,-1,-1,-1],"split_conditions":[1.5E1,1.3E1,1.8E1,1E0,1.5E1,1E1,6E0,-4.258282E-3,-3.5095893E-2,-1.9172765E-2,-3.0837331E-2,1.4289324E-2,4.028792E-3,4.6883143E-2,2.8191304E-2],"split_indices":[4,0,4,2,0,0,0,0,0,0,0,0,0,0,0],"split_type":[0,0,0,0,0,0,0,0,0,0,0,0,0,0,0],"sum_hessian":[1.3733E4,7.285E3,6.448E3,3.363E3,3.922E3,4.747E3,1.701E3,3.293E3,7E1,2.418E3,1.504E3,3.279E3,1.468E3,3.78E2,1.323E3],"tree_param":{"num_deleted":"0","num_feature":"15","num_nodes":"15","size_leaf_vector":"1"}},{"base_weights":[-1.2130185E-2,-3.6800435E-1,3.9748195E-1,-1.3784112E-1,-5.720824E-1,2.635364E-1,7.558843E-1,-5.017582E-3,-3.230762E-2,-2.1029472E-2,-3.5660613E-2,-3.81294E-2,1.0933391E-2,3.0883497E-2,-5.0802782E-2],"categories":[],"categories_nodes":[],"categories_segments":[],"categories_sizes":[],"default_left":[0,0,0,0,0,0,0,0,0,0,0,0,0,0,0],"id":42,"left_children":[1,3,5,7,9,11,13,-1,-1,-1,-1,-1,-1,-1,-1],"loss_changes":[1.986702E3,3.4241156E2,3.0386743E2,2.829071E1,5.6608276E1,5.5202484E1,5.7491577E1,0E0,0E0,0E0,0E0,0E0,0E0,0E0,0E0],"parents":[2147483647,0,0,1,1,2,2,3,3,4,4,5,5,6,6],"right_children":[2,4,6,8,10,12,14,-1,-1,-1,-1,-1,-1,-1,-1],"split_conditions":[1.47E1,1.3E1,1.8E1,1E-1,1.6E1,8E0,1E-1,-5.017582E-3,-3.230762E-2,-2.1029472E-2,-3.5660613E-2,-3.81294E-2,1.0933391E-2,3.0883497E-2,-5.0802782E-2],"split_indices":[7,0,1,8,0,0,8,0,0,0,0,0,0,0,0],"split_type":[0,0,0,0,0,0,0,0,0,0,0,0,0,0,0],"sum_hessian":[1.3627E4,7.292E3,6.335E3,3.428E3,3.864E3,4.613E3,1.722E3,3.367E3,6.1E1,3.377E3,4.87E2,3.6E1,4.577E3,1.709E3,1.3E1],"tree_param":{"num_deleted":"0","num_feature":"15","num_nodes":"15","size_leaf_vector":"1"}},{"base_weights":[-2.4644828E-3,-3.484878E-1,3.8400403E-1,-1.7640239E-1,-6.4217293E-1,5.792584E-1,1.7977764E-1,-9.920681E-3,-2.008222E-3,-3.3187617E-2,-2.3933789E-2,2.103903E-2,4.0032137E-2,9.742558E-3,4.0721702E-3],"categories":[],"categories_nodes":[],"categories_segments":[],"categories_sizes":[],"default_left":[0,0,1,0,0,0,0,0,0,0,0,0,0,0,0],"id":43,"left_children":[1,3,5,7,9,11,13,-1,-1,-1,-1,-1,-1,-1,-1],"loss_changes":[1.8327266E3,3.65252E2,2.5797778E2,4.1177948E1,2.13125E1,7.364441E1,1.5687195E1,0E0,0E0,0E0,0E0,0E0,0E0,0E0,0E0],"parents":[2147483647,0,0,1,1,2,2,3,3,4,4,5,5,6,6],"right_children":[2,4,6,8,10,12,14,-1,-1,-1,-1,-1,-1,-1,-1],"split_conditions":[1.5E1,1.32E1,9E0,1.4E1,1E1,2E1,9.7E0,-9.920681E-3,-2.008222E-3,-3.3187617E-2,-2.3933789E-2,2.103903E-2,4.0032137E-2,9.742558E-3,4.0721702E-3],"split_indices":[1,6,6,1,1,1,6,0,0,0,0,0,0,0,0],"split_type":[0,0,0,0,0,0,0,0,0,0,0,0,0,0,0],"sum_hessian":[1.3703E4,7.23E3,6.473E3,4.56E3,2.67E3,3.308E3,3.165E3,2.908E3,1.652E3,5.02E2,2.168E3,2.939E3,3.69E2,1.739E3,1.426E3],"tree_param":{"num_deleted":"0","num_feature":"15","num_nodes":"15","size_leaf_vector":"1"}},{"base_weights":[3.7360445E-4,-3.204218E-1,3.799634E-1,-1.683992E-1,-6.144575E-1,2.4980958E-1,7.2126734E-1,-9.80187E-3,-1.8836246E-3,-2.3734136E-2,-5.060997E-2,1.6199395E-2,6.6238833E-3,2.9301893E-2,-5.1917758E-2],"categories":[],"categories_nodes":[],"categories_segments":[],"categories_sizes":[],"default_left":[0,0,1,0,0,1,0,0,0,0,0,0,0,0,0],"id":44,"left_children":[1,3,5,7,9,11,13,-1,-1,-1,-1,-1,-1,-1,-1],"loss_changes":[1.6801973E3,3.3408545E2,2.804698E2,4.5807724E1,3.405841E1,5.9686737E1,4.0616943E1,0E0,0E0,0E0,0E0,0E0,0E0,0E0,0E0],"parents":[2147483647,0,0,1,1,2,2,3,3,4,4,5,5,6,6],"right_children":[2,4,6,8,10,12,14,-1,-1,-1,-1,-1,-1,-1,-1],"split_conditions":[1.5E1,1.36E1,1.8E1,1.4E1,9.660918E-1,9E0,1E0,-9.80187E-3,-1.8836246E-3,-2.3734136E-2,-5.060997E-2,1.6199395E-2,6.6238833E-3,2.9301893E-2,-5.1917758E-2],"split_indices":[7,6,4,4,9,6,5,0,0,0,0,0,0,0,0],"split_type":[0,0,0,0,0,0,0,0,0,0,0,0,0,0,0],"sum_hessian":[1.3796E4,7.477E3,6.319E3,4.93E3,2.547E3,4.576E3,1.743E3,3.02E3,1.91E3,2.469E3,7.8E1,1.608E3,2.968E3,1.734E3,9E0],"tree_param":{"num_deleted":"0","num_feature":"15","num_nodes":"15","size_leaf_vector":"1"}},{"base_weights":[1.30891865E-2,-2.9640353E-1,3.586837E-1,-1.5278347E-1,-5.868322E-1,2.3442082E-1,6.920713E-1,-1.2316813E-2,-3.2674654E-3,-2.9992837E-2,-2.1781165E-2,1.554633E-2,6.1397473E-3,2.8334592E-2,-5.5429682E-2],"categories":[],"categories_nodes":[],"categories_segments":[],"categories_sizes":[],"default_left":[0,0,0,0,0,1,0,0,0,0,0,0,0,0,0],"id":45,"left_children":[1,3,5,7,9,11,13,-1,-1,-1,-1,-1,-1,-1,-1],"loss_changes":[1.469729E3,3.0220227E2,2.686938E2,5.3452187E1,1.5996277E1,5.8938446E1,6.05661E1,0E0,0E0,0E0,0E0,0E0,0E0,0E0,0E0],"parents":[2147483647,0,0,1,1,2,2,3,3,4,4,5,5,6,6],"right_children":[2,4,6,8,10,12,14,-1,-1,-1,-1,-1,-1,-1,-1],"split_conditions":[1.5E1,1.4E1,1.8E1,1.3E1,1E1,9E0,1E0,-1.2316813E-2,-3.2674654E-3,-2.9992837E-2,-2.1781165E-2,1.554633E-2,6.1397473E-3,2.8334592E-2,-5.5429682E-2],"split_indices":[1,6,1,1,1,6,2,0,0,0,0,0,0,0,0],"split_type":[0,0,0,0,0,0,0,0,0,0,0,0,0,0,0],"sum_hessian":[1.3739E4,7.248E3,6.491E3,4.851E3,2.397E3,4.73E3,1.761E3,1.523E3,3.328E3,4.9E2,1.907E3,1.626E3,3.104E3,1.748E3,1.3E1],"tree_param":{"num_deleted":"0","num_feature":"15","num_nodes":"15","size_leaf_vector":"1"}},{"base_weights":[-7.506542E-3,-3.0965033E-1,3.5048634E-1,-5.623131E-1,-1.575421E-1,1.562912E-1,5.308678E-1,-1.8156536E-2,-2.6075834E-2,-9.263306E-3,-1.4063728E-3,6.7723896E-3,-1.1431572E-2,2.2021301E-2,-3.0774945E-2],"categories":[],"categories_nodes":[],"categories_segments":[],"categories_sizes":[],"default_left":[0,0,0,0,0,0,1,0,0,0,0,0,0,0,0],"id":46,"left_children":[1,3,5,7,9,11,13,-1,-1,-1,-1,-1,-1,-1,-1],"loss_changes":[1.4891084E3,2.8677332E2,2.2056738E2,2.6832153E1,4.2208908E1,1.7509666E1,8.3909546E1,0E0,0E0,0E0,0E0,0E0,0E0,0E0,0E0],"parents":[2147483647,0,0,1,1,2,2,3,3,4,4,5,5,6,6],"right_children":[2,4,6,8,10,12,14,-1,-1,-1,-1,-1,-1,-1,-1],"split_conditions":[1.49E1,1.2E1,1.61E1,1.5E1,1.4E1,8.4327406E-1,1E0,-1.8156536E-2,-2.6075834E-2,-9.263306E-3,-1.4063728E-3,6.7723896E-3,-1.1431572E-2,2.2021301E-2,-3.0774945E-2],"split_indices":[7,7,7,0,1,9,8,0,0,0,0,0,0,0,0],"split_type":[0,0,0,0,0,0,0,0,0,0,0,0,0,0,0],"sum_hessian":[1.3765E4,7.465E3,6.3E3,2.804E3,4.661E3,3.035E3,3.265E3,1.272E3,1.532E3,2.903E3,1.758E3,2.949E3,8.6E1,3.217E3,4.8E1],"tree_param":{"num_deleted":"0","num_feature":"15","num_nodes":"15","size_leaf_vector":"1"}},{"base_weights":[-4.858782E-3,-3.7879956E-1,2.5026047E-1,-2.532069E-1,-5.475929E-1,4.7242007E-1,9.511144E-2,-9.6773375E-3,-4.9193E-2,-2.1253128E-2,-4.4202924E-2,1.508244E-2,3.0413317E-2,9.530629E-3,1.3624217E-3],"categories":[],"categories_nodes":[],"categories_segments":[],"categories_sizes":[],"default_left":[0,0,1,0,0,1,0,0,0,0,0,0,0,0,0],"id":47,"left_children":[1,3,5,7,9,11,13,-1,-1,-1,-1,-1,-1,-1,-1],"loss_changes":[1.3057451E3,1.1745795E2,2.8032877E2,3.4621765E1,2.0711365E1,9.143683E1,4.1845276E1,0E0,0E0,0E0,0E0,0E0,0E0,0E0,0E0],"parents":[2147483647,0,0,1,1,2,2,3,3,4,4,5,5,6,6],"right_children":[2,4,6,8,10,12,14,-1,-1,-1,-1,-1,-1,-1,-1],"split_conditions":[1.4E1,1.4E1,9E0,1.5E1,9.486833E-1,1.9E1,9.1E0,-9.6773375E-3,-4.9193E-2,-2.1253128E-2,-4.4202924E-2,1.508244E-2,3.0413317E-2,9.530629E-3,1.3624217E-3],"split_indices":[4,6,6,0,10,4,6,0,0,0,0,0,0,0,0],"split_type":[0,0,0,0,0,0,0,0,0,0,0,0,0,0,0],"sum_hessian":[1.3685E4,5.55E3,8.135E3,3.184E3,2.366E3,3.344E3,4.791E3,3.149E3,3.5E1,2.301E3,6.5E1,2.514E3,8.3E2,1.431E3,3.36E3],"tree_param":{"num_deleted":"0","num_feature":"15","num_nodes":"15","size_leaf_vector":"1"}},{"base_weights":[1.8440029E-3,-3.5760581E-1,2.543545E-1,-2.3616007E-1,-5.165378E-1,4.8376188E-1,9.757232E-2,-8.573466E-3,-2.0053105E-2,-1.8550849E-2,-2.8725889E-2,1.6234849E-2,2.896058E-2,8.983725E-3,7.401856E-4],"categories":[],"categories_nodes":[],"categories_segments":[],"categories_sizes":[],"default_left":[0,0,1,0,0,0,0,0,0,0,0,0,0,0,0],"id":48,"left_children":[1,3,5,7,9,11,13,-1,-1,-1,-1,-1,-1,-1,-1],"loss_changes":[1.24483E3,1.0903052E2,2.8964478E2,1.839679E1,2.5612427E1,6.078607E1,4.8048527E1,0E0,0E0,0E0,0E0,0E0,0E0,0E0,0E0],"parents":[2147483647,0,0,1,1,2,2,3,3,4,4,5,5,6,6],"right_children":[2,4,6,8,10,12,14,-1,-1,-1,-1,-1,-1,-1,-1],"split_conditions":[1.4E1,1.4E1,9E0,8.164966E-1,1.6E1,1.9E1,9.9E0,-8.573466E-3,-2.0053105E-2,-1.8550849E-2,-2.8725889E-2,1.6234849E-2,2.896058E-2,8.983725E-3,7.401856E-4],"split_indices":[1,6,6,10,0,1,6,0,0,0,0,0,0,0,0],"split_type":[0,0,0,0,0,0,0,0,0,0,0,0,0,0,0],"sum_hessian":[1.3713E4,5.658E3,8.055E3,3.209E3,2.449E3,3.269E3,4.786E3,2.967E3,2.42E2,1.944E3,5.05E2,2.471E3,7.98E2,1.835E3,2.951E3],"tree_param":{"num_deleted":"0","num_feature":"15","num_nodes":"15","size_leaf_vector":"1"}},{"base_weights":[3.7364578E-3,-2.7343276E-1,3.1442174E-1,-4.5035437E-1,-6.764497E-2,2.187126E-1,5.833056E-1,-2.4346236E-2,-1.40181845E-2,-2.1693537E-3,-2.663638E-2,3.840613E-3,1.0878073E-2,1.9830005E-2,3.5230573E-2],"categories":[],"categories_nodes":[],"categories_segments":[],"categories_sizes":[],"default_left":[0,0,0,0,0,0,0,0,0,0,0,0,0,0,0],"id":49,"left_children":[1,3,5,7,9,11,13,-1,-1,-1,-1,-1,-1,-1,-1],"loss_changes":[1.1770743E3,2.6293134E2,1.6565192E2,6.1113586E1,2.6698048E1,3.09982E1,4.346637E1,0E0,0E0,0E0,0E0,0E0,0E0,0E0,0E0],"parents":[2147483647,0,0,1,1,2,2,3,3,4,4,5,5,6,6],"right_children":[2,4,6,8,10,12,14,-1,-1,-1,-1,-1,-1,-1,-1],"split_conditions":[1.5E1,1.3E1,1.8E1,1.1E1,1E0,1.6E1,2E1,-2.4346236E-2,-1.40181845E-2,-2.1693537E-3,-2.663638E-2,3.840613E-3,1.0878073E-2,1.9830005E-2,3.5230573E-2],"split_indices":[1,1,1,1,2,1,1,0,0,0,0,0,0,0,0],"split_type":[0,0,0,0,0,0,0,0,0,0,0,0,0,0,0],"sum_hessian":[1.3667E4,7.223E3,6.444E3,3.883E3,3.34E3,4.754E3,1.69E3,1.5E3,2.383E3,3.268E3,7.2E1,1.44E3,3.314E3,1.308E3,3.82E2],"tree_param":{"num_deleted":"0","num_feature":"15","num_nodes":"15","size_leaf_vector":"1"}},{"base_weights":[-4.7784094E-3,-2.6169407E-1,2.8644744E-1,-1.2938896E-1,-4.795729E-1,1.9675042E-1,5.4321146E-1,-4.7538835E-3,-3.0685375E-2,-1.8777417E-2,-4.9836524E-2,-3.7798345E-2,8.169835E-3,2.2296956E-2,-4.6173777E-2],"categories":[],"categories_nodes":[],"categories_segments":[],"categories_sizes":[],"default_left":[0,0,0,0,0,0,0,0,0,0,0,0,0,0,0],"id":50,"left_children":[1,3,5,7,9,11,13,-1,-1,-1,-1,-1,-1,-1,-1],"loss_changes":[1.02039935E3,2.0875366E2,1.4703308E2,3.0141083E1,2.0506592E1,4.067369E1,4.048883E1,0E0,0E0,0E0,0E0,0E0,0E0,0E0,0E0],"parents":[2147483647,0,0,1,1,2,2,3,3,4,4,5,5,6,6],"right_children":[2,4,6,8,10,12,14,-1,-1,-1,-1,-1,-1,-1,-1],"split_conditions":[1.5E1,1.31E1,1.8E1,1E0,1.7E1,8E0,1E0,-4.7538835E-3,-3.0685375E-2,-1.8777417E-2,-4.9836524E-2,-3.7798345E-2,8.169835E-3,2.2296956E-2,-4.6173777E-2],"split_indices":[1,6,1,5,0,0,5,0,0,0,0,0,0,0,0],"split_type":[0,0,0,0,0,0,0,0,0,0,0,0,0,0,0],"sum_hessian":[1.3636E4,7.245E3,6.391E3,4.509E3,2.736E3,4.738E3,1.653E3,4.437E3,7.2E1,2.702E3,3.4E1,3E1,4.708E3,1.64E3,1.3E1],"tree_param":{"num_deleted":"0","num_feature":"15","num_nodes":"15","size_leaf_vector":"1"}},{"base_weights":[-1.0812458E-3,-3.1738305E-1,2.1828279E-1,-1.9685204E-1,-4.6265414E-1,4.1099527E-1,8.2494505E-2,-5.781792E-3,-1.0573864E-2,-1.7926045E-2,-5.0131887E-2,3.2048736E-2,1.4544129E-2,-3.3885267E-4,5.515591E-3],"categories":[],"categories_nodes":[],"categories_segments":[],"categories_sizes":[],"default_left":[0,0,1,0,0,0,0,0,0,0,0,0,0,0,0],"id":51,"left_children":[1,3,5,7,9,11,13,-1,-1,-1,-1,-1,-1,-1,-1],"loss_changes":[9.479509E2,9.780957E1,2.1101477E2,1.0724091E1,2.834784E1,6.124945E1,2.3869099E1,0E0,0E0,0E0,0E0,0E0,0E0,0E0,0E0],"parents":[2147483647,0,0,1,1,2,2,3,3,4,4,5,5,6,6],"right_children":[2,4,6,8,10,12,14,-1,-1,-1,-1,-1,-1,-1,-1],"split_conditions":[1.36E1,1.4E1,9E0,1.3E1,1.7E1,6E0,1.49E1,-5.781792E-3,-1.0573864E-2,-1.7926045E-2,-5.0131887E-2,3.2048736E-2,1.4544129E-2,-3.3885267E-4,5.515591E-3],"split_indices":[7,0,6,0,0,0,7,0,0,0,0,0,0,0,0],"split_type":[0,0,0,0,0,0,0,0,0,0,0,0,0,0,0],"sum_hessian":[1.366E4,5.594E3,8.066E3,3.059E3,2.535E3,3.333E3,4.733E3,1.726E3,1.333E3,2.491E3,4.4E1,3.59E2,2.974E3,1.791E3,2.942E3],"tree_param":{"num_deleted":"0","num_feature":"15","num_nodes":"15","size_leaf_vector":"1"}},{"base_weights":[-8.094949E-3,-3.2164335E-1,2.1040405E-1,-4.690388E-1,-1.9533876E-1,1.3332567E-1,4.918892E-1,-1.7463967E-2,-3.4368165E-2,-1.1746145E-2,-4.7108023E-3,9.0576976E-4,9.389981E-3,2.0189587E-2,-4.4998962E-2],"categories":[],"categories_nodes":[],"categories_segments":[],"categories_sizes":[],"default_left":[0,0,0,0,0,0,0,0,0,0,0,0,0,0,0],"id":52,"left_children":[1,3,5,7,9,11,13,-1,-1,-1,-1,-1,-1,-1,-1],"loss_changes":[9.4353015E2,1.0513806E2,1.7596008E2,3.2516907E1,2.31688E1,7.1510574E1,3.67417E1,0E0,0E0,0E0,0E0,0E0,0E0,0E0,0E0],"parents":[2147483647,0,0,1,1,2,2,3,3,4,4,5,5,6,6],"right_children":[2,4,6,8,10,12,14,-1,-1,-1,-1,-1,-1,-1,-1],"split_conditions":[1.4E1,1.2E1,1.8E1,5.676462E-1,1.3E1,1.6E1,1E0,-1.7463967E-2,-3.4368165E-2,-1.1746145E-2,-4.7108023E-3,9.0576976E-4,9.389981E-3,2.0189587E-2,-4.4998962E-2],"split_indices":[1,1,1,10,1,1,2,0,0,0,0,0,0,0,0],"split_type":[0,0,0,0,0,0,0,0,0,0,0,0,0,0,0],"sum_hessian":[1.377E4,5.655E3,8.115E3,2.608E3,3.047E3,6.372E3,1.743E3,2.41E3,1.98E2,1.342E3,1.705E3,3.048E3,3.324E3,1.73E3,1.3E1],"tree_param":{"num_deleted":"0","num_feature":"15","num_nodes":"15","size_leaf_vector":"1"}},{"base_weights":[-7.8435434E-4,-2.389139E-1,2.4939573E-1,-4.6010536E-1,-1.21832035E-1,1.6361743E-1,5.2330655E-1,-1.799293E-2,-4.207332E-2,-2.9417814E-3,-8.983135E-3,8.935561E-3,1.6275106E-3,2.1346923E-2,-7.6444164E-2],"categories":[],"categories_nodes":[],"categories_segments":[],"categories_sizes":[],"default_left":[0,0,1,0,0,0,0,0,0,0,0,0,0,0,0],"id":53,"left_children":[1,3,5,7,9,11,13,-1,-1,-1,-1,-1,-1,-1,-1],"loss_changes":[8.246398E2,1.8355084E2,1.5844101E2,1.4307312E1,2.2969437E1,3.77464E1,4.148755E1,0E0,0E0,0E0,0E0,0E0,0E0,0E0,0E0],"parents":[2147483647,0,0,1,1,2,2,3,3,4,4,5,5,6,6],"right_children":[2,4,6,8,10,12,14,-1,-1,-1,-1,-1,-1,-1,-1],"split_conditions":[1.41E1,1.11E1,1.79E1,1.7E1,1.3E1,1E1,1E0,-1.799293E-2,-4.207332E-2,-2.9417814E-3,-8.983135E-3,8.935561E-3,1.6275106E-3,2.1346923E-2,-7.6444164E-2],"split_indices":[7,7,7,0,0,0,2,0,0,0,0,0,0,0,0],"split_type":[0,0,0,0,0,0,0,0,0,0,0,0,0,0,0],"sum_hessian":[1.384E4,7.091E3,6.749E3,2.453E3,4.638E3,5.141E3,1.608E3,2.413E3,4E1,3.157E3,1.481E3,3.458E3,1.683E3,1.602E3,6E0],"tree_param":{"num_deleted":"0","num_feature":"15","num_nodes":"15","size_leaf_vector":"1"}},{"base_weights":[1.0044999E-2,-2.0127258E-1,2.5639072E-1,-8.979671E-2,-3.8917217E-1,3.6943784E-1,1.2872295E-1,-3.2621154E-3,-2.7812628E-2,-2.245707E-2,-1.4090905E-2,1.2338675E-2,2.2191877E-2,5.828311E-3,-1.0372187E-2],"categories":[],"categories_nodes":[],"categories_segments":[],"categories_sizes":[],"default_left":[0,0,1,0,0,0,0,0,0,0,0,0,0,0,0],"id":54,"left_children":[1,3,5,7,9,11,13,-1,-1,-1,-1,-1,-1,-1,-1],"loss_changes":[7.144378E2,1.5464722E2,9.136124E1,2.301754E1,1.7190216E1,3.7715607E1,1.9653187E1,0E0,0E0,0E0,0E0,0E0,0E0,0E0,0E0],"parents":[2147483647,0,0,1,1,2,2,3,3,4,4,5,5,6,6],"right_children":[2,4,6,8,10,12,14,-1,-1,-1,-1,-1,-1,-1,-1],"split_conditions":[1.49E1,1.32E1,9E0,1E0,1E1,1.9E1,5.676462E-1,-3.2621154E-3,-2.7812628E-2,-2.245707E-2,-1.4090905E-2,1.2338675E-2,2.2191877E-2,5.828311E-3,-1.0372187E-2],"split_indices":[7,6,6,2,1,1,9,0,0,0,0,0,0,0,0],"split_type":[0,0,0,0,0,0,0,0,0,0,0,0,0,0,0],"sum_hessian":[1.3722E4,7.386E3,6.336E3,4.637E3,2.749E3,3.359E3,2.977E3,4.576E3,6.1E1,4.82E2,2.267E3,2.53E3,8.29E2,2.853E3,1.24E2],"tree_param":{"num_deleted":"0","num_feature":"15","num_nodes":"15","size_leaf_vector":"1"}},{"base_weights":[-1.4982717E-2,-2.8528225E-1,1.7479008E-1,-3.518651E-1,-1.356317E-1,3.5306808E-1,5.089376E-2,-2.097919E-2,-1.2999978E-2,-2.570139E-2,-4.6351645E-3,1.233617E-2,2.7781438E-2,2.2606852E-3,-2.0952927E-2],"categories":[],"categories_nodes":[],"categories_segments":[],"categories_sizes":[],"default_left":[0,0,1,0,0,0,0,0,0,0,0,0,0,0,0],"id":55,"left_children":[1,3,5,7,9,11,13,-1,-1,-1,-1,-1,-1,-1,-1],"loss_changes":[7.0347614E2,5.6270752E1,1.7790454E2,1.7895447E1,1.7311752E1,5.0060425E1,1.5350312E1,0E0,0E0,0E0,0E0,0E0,0E0,0E0,0E0],"parents":[2147483647,0,0,1,1,2,2,3,3,4,4,5,5,6,6],"right_children":[2,4,6,8,10,12,14,-1,-1,-1,-1,-1,-1,-1,-1],"split_conditions":[1.4E1,1.3E1,9E0,1E1,1.11E1,2E1,1E0,-2.097919E-2,-1.2999978E-2,-2.570139E-2,-4.6351645E-3,1.233617E-2,2.7781438E-2,2.2606852E-3,-2.0952927E-2],"split_indices":[1,1,6,1,6,1,5,0,0,0,0,0,0,0,0],"split_type":[0,0,0,0,0,0,0,0,0,0,0,0,0,0,0],"sum_hessian":[1.3712E4,5.656E3,8.056E3,3.913E3,1.743E3,3.302E3,4.754E3,5.24E2,3.389E3,6.4E1,1.679E3,2.922E3,3.8E2,4.709E3,4.5E1],"tree_param":{"num_deleted":"0","num_feature":"15","num_nodes":"15","size_leaf_vector":"1"}},{"base_weights":[1.0268231E-2,-2.0218322E-1,2.597615E-1,-1.0792201E-1,-3.9939976E-1,2.1359482E-1,5.5944276E-1,-4.066761E-3,-3.9489E-2,-1.5449024E-2,-4.232534E-2,1.1744397E-2,5.949773E-3,2.310727E-2,-3.414279E-2],"categories":[],"categories_nodes":[],"categories_segments":[],"categories_sizes":[],"default_left":[0,0,0,0,0,1,0,0,0,0,0,0,0,0,0],"id":56,"left_children":[1,3,5,7,9,11,13,-1,-1,-1,-1,-1,-1,-1,-1],"loss_changes":[7.2342035E2,1.369321E2,8.664731E1,2.7221592E1,2.0127197E1,2.8145523E1,2.2036682E1,0E0,0E0,0E0,0E0,0E0,0E0,0E0,0E0],"parents":[2147483647,0,0,1,1,2,2,3,3,4,4,5,5,6,6],"right_children":[2,4,6,8,10,12,14,-1,-1,-1,-1,-1,-1,-1,-1],"split_conditions":[1.5E1,1.4E1,1.9E1,1.5E1,1.7E1,8.8E0,7E0,-4.066761E-3,-3.9489E-2,-1.5449024E-2,-4.232534E-2,1.1744397E-2,5.949773E-3,2.310727E-2,-3.414279E-2],"split_indices":[7,6,1,0,0,6,6,0,0,0,0,0,0,0,0],"split_type":[0,0,0,0,0,0,0,0,0,0,0,0,0,0,0],"sum_hessian":[1.3646E4,7.37E3,6.276E3,4.988E3,2.382E3,5.44E3,8.36E2,4.954E3,3.4E1,2.337E3,4.5E1,2.433E3,3.007E3,8.26E2,1E1],"tree_param":{"num_deleted":"0","num_feature":"15","num_nodes":"15","size_leaf_vector":"1"}},{"base_weights":[-3.1908173E-3,-1.9297698E-1,2.2347674E-1,-3.6981925E-1,-1.0763273E-1,3.5200778E-1,9.962221E-2,-1.3956396E-2,-2.963534E-2,-4.0211566E-3,-4.0391006E-2,2.6727568E-2,1.2305217E-2,4.3721707E-3,-8.849397E-3],"categories":[],"categories_nodes":[],"categories_segments":[],"categories_sizes":[],"default_left":[0,0,0,0,0,0,1,0,0,0,0,0,0,0,0],"id":57,"left_children":[1,3,5,7,9,11,13,-1,-1,-1,-1,-1,-1,-1,-1],"loss_changes":[5.8801514E2,1.1220047E2,9.908014E1,1.8416382E1,3.1958878E1,4.2576508E1,9.873198E0,0E0,0E0,0E0,0E0,0E0,0E0,0E0,0E0],"parents":[2147483647,0,0,1,1,2,2,3,3,4,4,5,5,6,6],"right_children":[2,4,6,8,10,12,14,-1,-1,-1,-1,-1,-1,-1,-1],"split_conditions":[1.5E1,1.11E1,9E0,5.676462E-1,1.5E1,6E0,9.9442893E-1,-1.3956396E-2,-2.963534E-2,-4.0211566E-3,-4.0391006E-2,2.6727568E-2,1.2305217E-2,4.3721707E-3,-8.849397E-3],"split_indices":[7,7,0,9,0,0,9,0,0,0,0,0,0,0,0],"split_type":[0,0,0,0,0,0,0,0,0,0,0,0,0,0,0],"sum_hessian":[1.3667E4,7.439E3,6.228E3,2.42E3,5.019E3,3.055E3,3.173E3,2.293E3,1.27E2,4.981E3,3.8E1,3.74E2,2.681E3,3.081E3,9.2E1],"tree_param":{"num_deleted":"0","num_feature":"15","num_nodes":"15","size_leaf_vector":"1"}},{"base_weights":[-1.7401179E-3,-1.9675693E-1,2.0672448E-1,-1.04517005E-1,-3.729569E-1,3.3074492E-1,8.612133E-2,-2.1878374E-3,-8.374035E-3,-1.4501109E-2,-3.662625E-2,1.4086036E-2,-9.87976E-3,3.2117728E-3,2.4170497E-2],"categories":[],"categories_nodes":[],"categories_segments":[],"categories_sizes":[],"default_left":[0,0,1,0,0,0,0,0,0,0,0,0,0,0,0],"id":58,"left_children":[1,3,5,7,9,11,13,-1,-1,-1,-1,-1,-1,-1,-1],"loss_changes":[5.568383E2,1.1493341E2,9.894684E1,2.4233128E1,1.3299438E1,4.0451263E1,1.0021555E1,0E0,0E0,0E0,0E0,0E0,0E0,0E0,0E0],"parents":[2147483647,0,0,1,1,2,2,3,3,4,4,5,5,6,6],"right_children":[2,4,6,8,10,12,14,-1,-1,-1,-1,-1,-1,-1,-1],"split_conditions":[1.41E1,1.4E1,9E0,1.3E1,1.7E1,1E0,1.0593499E0,-2.1878374E-3,-8.374035E-3,-1.4501109E-2,-3.662625E-2,1.4086036E-2,-9.87976E-3,3.2117728E-3,2.4170497E-2],"split_indices":[7,6,6,0,0,2,9,0,0,0,0,0,0,0,0],"split_type":[0,0,0,0,0,0,0,0,0,0,0,0,0,0,0],"sum_hessian":[1.3695E4,7.076E3,6.619E3,4.646E3,2.43E3,3.262E3,3.357E3,3.151E3,1.495E3,2.386E3,4.4E1,3.146E3,1.16E2,3.321E3,3.6E1],"tree_param":{"num_deleted":"0","num_feature":"15","num_nodes":"15","size_leaf_vector":"1"}},{"base_weights":[6.73641E-3,-2.3508687E-1,1.7266151E-1,-2.9683203E-1,-9.108465E-2,1.1696825E-1,4.0585643E-1,-1.5417083E-2,-9.686291E-3,-3.2636235E-3,-3.342533E-2,1.7509256E-3,7.3087355E-3,1.3241875E-2,2.517524E-2],"categories":[],"categories_nodes":[],"categories_segments":[],"categories_sizes":[],"default_left":[0,0,0,0,0,0,0,0,0,0,0,0,0,0,0],"id":59,"left_children":[1,3,5,7,9,11,13,-1,-1,-1,-1,-1,-1,-1,-1],"loss_changes":[5.536729E2,4.985959E1,1.06189026E2,1.887564E1,1.1765153E1,3.1770943E1,2.6065857E1,0E0,0E0,0E0,0E0,0E0,0E0,0E0,0E0],"parents":[2147483647,0,0,1,1,2,2,3,3,4,4,5,5,6,6],"right_children":[2,4,6,8,10,12,14,-1,-1,-1,-1,-1,-1,-1,-1],"split_conditions":[1.4E1,1.3E1,1.8E1,1.1E1,1E-1,1.6E1,2E1,-1.5417083E-2,-9.686291E-3,-3.2636235E-3,-3.342533E-2,1.7509256E-3,7.3087355E-3,1.3241875E-2,2.517524E-2],"split_indices":[1,1,7,1,8,1,1,0,0,0,0,0,0,0,0],"split_type":[0,0,0,0,0,0,0,0,0,0,0,0,0,0,0],"sum_hessian":[1.3797E4,5.614E3,8.183E3,3.928E3,1.686E3,6.607E3,1.576E3,1.496E3,2.432E3,1.666E3,2E1,3.128E3,3.479E3,1.183E3,3.93E2],"tree_param":{"num_deleted":"0","num_feature":"15","num_nodes":"15","size_leaf_vector":"1"}},{"base_weights":[1.2700316E-3,2.3945147E-1,-1.4354698E-1,6.060238E-1,2.0700493E-1,-4.5864135E-2,-2.5748998E-1,2.5102304E-2,4.303473E-3,9.438915E-3,-6.461911E-3,-1.5312178E-3,-2.4134368E-2,-7.1800477E-3,-1.2298195E-2],"categories":[],"categories_nodes":[],"categories_segments":[],"categories_sizes":[],"default_left":[1,1,0,0,0,0,0,0,0,0,0,0,0,0,0],"id":60,"left_children":[1,3,5,7,9,11,13,-1,-1,-1,-1,-1,-1,-1,-1],"loss_changes":[4.776302E2,6.207022E1,9.5800644E1,4.420624E0,5.1419525E1,1.9521603E1,1.5381622E1,0E0,0E0,0E0,0E0,0E0,0E0,0E0,0E0],"parents":[2147483647,0,0,1,1,2,2,3,3,4,4,5,5,6,6],"right_children":[2,4,6,8,10,12,14,-1,-1,-1,-1,-1,-1,-1,-1],"split_conditions":[9.9E0,6E0,1.3E1,7E0,5.676462E-1,1E0,1.4E1,2.5102304E-2,4.303473E-3,9.438915E-3,-6.461911E-3,-1.5312178E-3,-2.4134368E-2,-7.1800477E-3,-1.2298195E-2],"split_indices":[6,6,3,3,10,2,6,0,0,0,0,0,0,0,0],"split_type":[0,0,0,0,0,0,0,0,0,0,0,0,0,0,0],"sum_hessian":[1.3845E4,5.235E3,8.61E3,4.24E2,4.811E3,4.637E3,3.973E3,4.06E2,1.8E1,4.461E3,3.5E2,4.576E3,6.1E1,1.554E3,2.419E3],"tree_param":{"num_deleted":"0","num_feature":"15","num_nodes":"15","size_leaf_vector":"1"}},{"base_weights":[-2.968282E-3,2.3670301E-1,-1.5125151E-1,1.5461643E-1,3.988075E-1,-7.264219E-2,-3.3295605E-1,-3.0396445E-2,6.7747263E-3,1.6430544E-2,-4.0193304E-2,-3.123885E-3,2.4150709E-2,-1.1952917E-2,-2.9140482E-2],"categories":[],"categories_nodes":[],"categories_segments":[],"categories_sizes":[],"default_left":[1,0,0,0,0,0,0,0,0,0,0,0,0,0,0],"id":61,"left_children":[1,3,5,7,9,11,13,-1,-1,-1,-1,-1,-1,-1,-1],"loss_changes":[4.8435587E2,6.919711E1,1.2020375E2,4.6748047E1,2.9721954E1,2.1686747E1,3.400049E1,0E0,0E0,0E0,0E0,0E0,0E0,0E0,0E0],"parents":[2147483647,0,0,1,1,2,2,3,3,4,4,5,5,6,6],"right_children":[2,4,6,8,10,12,14,-1,-1,-1,-1,-1,-1,-1,-1],"split_conditions":[1E1,1.8E1,1.4E1,7.1E0,1E0,1.0593499E0,5.676462E-1,-3.0396445E-2,6.7747263E-3,1.6430544E-2,-4.0193304E-2,-3.123885E-3,2.4150709E-2,-1.1952917E-2,-2.9140482E-2],"split_indices":[6,1,0,6,2,9,9,0,0,0,0,0,0,0,0],"split_type":[0,0,0,0,0,0,0,0,0,0,0,0,0,0,0],"sum_hessian":[1.3627E4,5.208E3,8.419E3,3.459E3,1.749E3,5.878E3,2.541E3,5.4E1,3.405E3,1.735E3,1.4E1,5.832E3,4.6E1,2.341E3,2E2],"tree_param":{"num_deleted":"0","num_feature":"15","num_nodes":"15","size_leaf_vector":"1"}},{"base_weights":[-1.2751675E-3,-1.5675305E-1,1.825553E-1,-8.134449E-2,-3.1474364E-1,2.9613897E-1,8.599445E-2,-2.8890003E-3,-2.7086595E-2,-1.2289728E-2,-3.0196229E-2,1.2542352E-2,-8.126267E-3,3.6327802E-3,-3.251328E-2],"categories":[],"categories_nodes":[],"categories_segments":[],"categories_sizes":[],"default_left":[0,0,1,0,0,0,0,0,0,0,0,0,0,0,0],"id":62,"left_children":[1,3,5,7,9,11,13,-1,-1,-1,-1,-1,-1,-1,-1],"loss_changes":[3.8904984E2,8.779939E1,6.834209E1,2.7011433E1,7.5258026E0,2.4993515E1,1.4629936E1,0E0,0E0,0E0,0E0,0E0,0E0,0E0,0E0],"parents":[2147483647,0,0,1,1,2,2,3,3,4,4,5,5,6,6],"right_children":[2,4,6,8,10,12,14,-1,-1,-1,-1,-1,-1,-1,-1],"split_conditions":[1.49E1,1.4E1,8.1E0,1E0,1.7E1,1E0,2E0,-2.8890003E-3,-2.7086595E-2,-1.2289728E-2,-3.0196229E-2,1.2542352E-2,-8.126267E-3,3.6327802E-3,-3.251328E-2],"split_indices":[7,6,6,5,0,5,12,0,0,0,0,0,0,0,0],"split_type":[0,0,0,0,0,0,0,0,0,0,0,0,0,0,0],"sum_hessian":[1.361E4,7.374E3,6.236E3,4.993E3,2.381E3,2.864E3,3.372E3,4.919E3,7.4E1,2.343E3,3.8E1,2.768E3,9.6E1,3.355E3,1.7E1],"tree_param":{"num_deleted":"0","num_feature":"15","num_nodes":"15","size_leaf_vector":"1"}},{"base_weights":[8.823319E-3,-1.8463722E-1,1.321674E-1,-1.0395413E-1,-2.6771244E-1,2.6221737E-1,4.570704E-2,-3.12611E-2,-4.0339036E-3,-1.0220353E-2,-2.3930186E-2,1.1231687E-2,-1.280904E-2,2.0791062E-3,-2.514813E-2],"categories":[],"categories_nodes":[],"categories_segments":[],"categories_sizes":[],"default_left":[0,0,1,0,0,0,0,0,0,0,0,0,0,0,0],"id":63,"left_children":[1,3,5,7,9,11,13,-1,-1,-1,-1,-1,-1,-1,-1],"loss_changes":[3.2521338E2,3.5499878E1,9.3542435E1,5.503565E0,1.0302139E1,3.603676E1,2.112407E1,0E0,0E0,0E0,0E0,0E0,0E0,0E0,0E0],"parents":[2147483647,0,0,1,1,2,2,3,3,4,4,5,5,6,6],"right_children":[2,4,6,8,10,12,14,-1,-1,-1,-1,-1,-1,-1,-1],"split_conditions":[1.31E1,1.34E1,9E0,1.11E1,9.4280905E-1,1E0,1E0,-3.12611E-2,-4.0339036E-3,-1.0220353E-2,-2.3930186E-2,1.1231687E-2,-1.280904E-2,2.0791062E-3,-2.514813E-2],"split_indices":[7,6,6,6,10,5,5,0,0,0,0,0,0,0,0],"split_type":[0,0,0,0,0,0,0,0,0,0,0,0,0,0,0],"sum_hessian":[1.3627E4,5.305E3,8.322E3,2.693E3,2.612E3,3.322E3,5E3,1.1E1,2.682E3,2.521E3,9.1E1,3.22E3,1.02E2,4.955E3,4.5E1],"tree_param":{"num_deleted":"0","num_feature":"15","num_nodes":"15","size_leaf_vector":"1"}},{"base_weights":[-3.0177024E-3,-2.094685E-1,1.360555E-1,-3.2841796E-1,-1.6537902E-1,7.977518E-2,3.6223784E-1,-1.1641934E-2,-2.9806448E-2,8.0679385E-3,-7.19697E-3,2.3778807E-4,5.882642E-3,1.2143153E-2,2.3677323E-2],"categories":[],"categories_nodes":[],"categories_segments":[],"categories_sizes":[],"default_left":[0,0,0,0,0,0,0,0,0,0,0,0,0,0,0],"id":64,"left_children":[1,3,5,7,9,11,13,-1,-1,-1,-1,-1,-1,-1,-1],"loss_changes":[3.9424847E2,2.8882202E1,1.0436066E2,2.2930786E1,2.1577896E1,3.262932E1,2.174678E1,0E0,0E0,0E0,0E0,0E0,0E0,0E0,0E0],"parents":[2147483647,0,0,1,1,2,2,3,3,4,4,5,5,6,6],"right_children":[2,4,6,8,10,12,14,-1,-1,-1,-1,-1,-1,-1,-1],"split_conditions":[1.4E1,1.1E1,1.78E1,5.676462E-1,1.1E1,1.6E1,4.2163703E-1,-1.1641934E-2,-2.9806448E-2,8.0679385E-3,-7.19697E-3,2.3778807E-4,5.882642E-3,1.2143153E-2,2.3677323E-2],"split_indices":[1,1,7,10,7,1,10,0,0,0,0,0,0,0,0],"split_type":[0,0,0,0,0,0,0,0,0,0,0,0,0,0,0],"sum_hessian":[1.3729E4,5.526E3,8.203E3,1.492E3,4.034E3,6.57E3,1.633E3,1.371E3,1.21E2,1.53E2,3.881E3,3.134E3,3.436E3,1.303E3,3.3E2],"tree_param":{"num_deleted":"0","num_feature":"15","num_nodes":"15","size_leaf_vector":"1"}},{"base_weights":[7.8491215E-3,-1.0591347E-1,2.1744944E-1,-4.1663904E-2,-2.8066033E-1,2.307316E-1,-3.5914803E-1,-2.970046E-2,-1.4399489E-3,-1.0754996E-2,-3.3012453E-2,1.2643029E-2,7.280951E-3,-5.0409816E-2,1.2688507E-2],"categories":[],"categories_nodes":[],"categories_segments":[],"categories_sizes":[],"default_left":[0,0,0,0,0,0,0,0,0,0,0,0,0,0,0],"id":65,"left_children":[1,3,5,7,9,11,13,-1,-1,-1,-1,-1,-1,-1,-1],"loss_changes":[3.2742157E2,9.988002E1,3.7068085E1,2.5738941E1,1.5022751E1,1.9525803E1,6.692595E1,0E0,0E0,0E0,0E0,0E0,0E0,0E0,0E0],"parents":[2147483647,0,0,1,1,2,2,3,3,4,4,5,5,6,6],"right_children":[2,4,6,8,10,12,14,-1,-1,-1,-1,-1,-1,-1,-1],"split_conditions":[1.6E1,1.4E1,1E0,-1E0,1.7E1,8E0,7.6E0,-2.970046E-2,-1.4399489E-3,-1.0754996E-2,-3.3012453E-2,1.2643029E-2,7.280951E-3,-5.0409816E-2,1.2688507E-2],"split_indices":[7,6,2,13,0,0,6,0,0,0,0,0,0,0,0],"split_type":[0,0,0,0,0,0,0,0,0,0,0,0,0,0,0],"sum_hessian":[1.3729E4,8.899E3,4.83E3,6.508E3,2.391E3,4.722E3,1.08E2,5.1E1,6.457E3,2.342E3,4.9E1,1.713E3,3.009E3,4.6E1,6.2E1],"tree_param":{"num_deleted":"0","num_feature":"15","num_nodes":"15","size_leaf_vector":"1"}},{"base_weights":[-4.0213056E-3,-1.4893153E-1,1.6529828E-1,-1.1039227E-1,-2.988889E-1,1.4107643E-1,4.952601E-1,-5.8931923E-3,-8.6823147E-4,-1.0218838E-2,-2.984654E-2,6.3608065E-3,-5.003476E-3,2.1069612E-2,-3.1595351E-3],"categories":[],"categories_nodes":[],"categories_segments":[],"categories_sizes":[],"default_left":[0,0,0,0,0,0,0,0,0,0,0,0,0,0,0],"id":66,"left_children":[1,3,5,7,9,11,13,-1,-1,-1,-1,-1,-1,-1,-1],"loss_changes":[3.3430338E2,4.2357315E1,5.008203E1,1.9120743E1,2.8838806E1,2.7986572E1,7.841614E0,0E0,0E0,0E0,0E0,0E0,0E0,0E0,0E0],"parents":[2147483647,0,0,1,1,2,2,3,3,4,4,5,5,6,6],"right_children":[2,4,6,8,10,12,14,-1,-1,-1,-1,-1,-1,-1,-1],"split_conditions":[1.49E1,1.5E1,1.91E1,3.1622776E-1,5.676462E-1,6.324555E-1,7E0,-5.8931923E-3,-8.6823147E-4,-1.0218838E-2,-2.984654E-2,6.3608065E-3,-5.003476E-3,2.1069612E-2,-3.1595351E-3],"split_indices":[7,0,7,9,9,9,0,0,0,0,0,0,0,0,0],"split_type":[0,0,0,0,0,0,0,0,0,0,0,0,0,0,0],"sum_hessian":[1.3623E4,7.341E3,6.282E3,5.842E3,1.499E3,5.854E3,4.28E2,4.123E3,1.719E3,1.368E3,1.31E2,5.485E3,3.69E2,4.06E2,2.2E1],"tree_param":{"num_deleted":"0","num_feature":"15","num_nodes":"15","size_leaf_vector":"1"}},{"base_weights":[-8.153692E-3,-1.7578498E-1,1.0524296E-1,-2.5140074E-1,-1.12909906E-1,5.5901047E-2,2.913435E-1,-3.1221919E-2,-9.66409E-3,-4.7647785E-3,2.1153314E-2,-2.0580947E-2,2.4464314E-3,1.2079615E-2,-4.0606372E-2],"categories":[],"categories_nodes":[],"categories_segments":[],"categories_sizes":[],"default_left":[0,0,0,0,0,0,0,0,0,0,0,0,0,0,0],"id":67,"left_children":[1,3,5,7,9,11,13,-1,-1,-1,-1,-1,-1,-1,-1],"loss_changes":[2.6059854E2,2.6236237E1,7.503476E1,1.2723145E1,1.20685005E1,1.938298E1,2.4063385E1,0E0,0E0,0E0,0E0,0E0,0E0,0E0,0E0],"parents":[2147483647,0,0,1,1,2,2,3,3,4,4,5,5,6,6],"right_children":[2,4,6,8,10,12,14,-1,-1,-1,-1,-1,-1,-1,-1],"split_conditions":[1.4E1,1.2E1,1.8E1,9E0,1.2516656E0,8E0,1E0,-3.1221919E-2,-9.66409E-3,-4.7647785E-3,2.1153314E-2,-2.0580947E-2,2.4464314E-3,1.2079615E-2,-4.0606372E-2],"split_indices":[1,1,1,1,9,3,2,0,0,0,0,0,0,0,0],"split_type":[0,0,0,0,0,0,0,0,0,0,0,0,0,0,0],"sum_hessian":[1.3707E4,5.531E3,8.176E3,2.509E3,3.022E3,6.464E3,1.712E3,4.4E1,2.465E3,2.994E3,2.8E1,5.8E1,6.406E3,1.699E3,1.3E1],"tree_param":{"num_deleted":"0","num_feature":"15","num_nodes":"15","size_leaf_vector":"1"}},{"base_weights":[2.268132E-3,-1.6912372E-1,1.2080634E-1,-2.9536456E-1,-1.2280685E-1,2.3631087E-1,4.0254183E-2,-2.8513584E-2,-1.0979084E-2,-5.4223887E-3,7.547087E-3,1.0094532E-2,-8.445977E-3,1.8423052E-3,-2.0362629E-2],"categories":[],"categories_nodes":[],"categories_segments":[],"categories_sizes":[],"default_left":[0,0,1,0,0,0,0,0,0,0,0,0,0,0,0],"id":68,"left_children":[1,3,5,7,9,11,13,-1,-1,-1,-1,-1,-1,-1,-1],"loss_changes":[2.7942822E2,3.280005E1,7.561478E1,1.2855331E1,1.6370323E1,2.4048035E1,1.5253796E1,0E0,0E0,0E0,0E0,0E0,0E0,0E0,0E0],"parents":[2147483647,0,0,1,1,2,2,3,3,4,4,5,5,6,6],"right_children":[2,4,6,8,10,12,14,-1,-1,-1,-1,-1,-1,-1,-1],"split_conditions":[1.4E1,1.1E1,9E0,1.44E1,1.41E1,1E0,1E0,-2.8513584E-2,-1.0979084E-2,-5.4223887E-3,7.547087E-3,1.0094532E-2,-8.445977E-3,1.8423052E-3,-2.0362629E-2],"split_indices":[1,1,6,6,6,5,2,0,0,0,0,0,0,0,0],"split_type":[0,0,0,0,0,0,0,0,0,0,0,0,0,0,0],"sum_hessian":[1.3752E4,5.622E3,8.13E3,1.507E3,4.115E3,3.339E3,4.791E3,7E1,1.437E3,3.954E3,1.61E2,3.224E3,1.15E2,4.742E3,4.9E1],"tree_param":{"num_deleted":"0","num_feature":"15","num_nodes":"15","size_leaf_vector":"1"}},{"base_weights":[-9.14985E-3,1.1169741E-1,-1.8170346E-1,5.0836533E-1,8.900723E-2,-6.9933996E-2,-2.226297E-1,2.1485345E-2,-8.853033E-3,3.974156E-3,-1.3949682E-2,-1.715055E-3,-1.2994472E-2,-8.688185E-3,-2.9600572E-2],"categories":[],"categories_nodes":[],"categories_segments":[],"categories_sizes":[],"default_left":[0,1,0,0,0,0,0,0,0,0,0,0,0,0,0],"id":69,"left_children":[1,3,5,7,9,11,13,-1,-1,-1,-1,-1,-1,-1,-1],"loss_changes":[2.84061E2,7.199776E1,2.5621582E1,9.239998E0,3.433689E1,1.0337293E1,1.1268402E1,0E0,0E0,0E0,0E0,0E0,0E0,0E0,0E0],"parents":[2147483647,0,0,1,1,2,2,3,3,4,4,5,5,6,6],"right_children":[2,4,6,8,10,12,14,-1,-1,-1,-1,-1,-1,-1,-1],"split_conditions":[1.2E1,6E0,1.21E1,7E0,1E0,5.676462E-1,1.7E1,2.1485345E-2,-8.853033E-3,3.974156E-3,-1.3949682E-2,-1.715055E-3,-1.2994472E-2,-8.688185E-3,-2.9600572E-2],"split_indices":[0,6,6,0,2,10,0,0,0,0,0,0,0,0,0],"split_type":[0,0,0,0,0,0,0,0,0,0,0,0,0,0,0],"sum_hessian":[1.362E4,8.01E3,5.61E3,4.32E2,7.578E3,1.505E3,4.105E3,4.16E2,1.6E1,7.404E3,1.74E2,1.362E3,1.43E2,4.064E3,4.1E1],"tree_param":{"num_deleted":"0","num_feature":"15","num_nodes":"15","size_leaf_vector":"1"}},{"base_weights":[8.966738E-4,-1.165345E-1,1.4037362E-1,-5.3282347E-2,-2.474214E-1,1.0419968E-1,3.6077967E-1,-1.9130968E-3,-3.2284316E-2,-9.458734E-3,-3.1385627E-2,-7.167E-2,4.28035E-3,1.0626528E-2,2.1180935E-2],"categories":[],"categories_nodes":[],"categories_segments":[],"categories_sizes":[],"default_left":[0,0,0,0,0,0,0,0,0,0,0,0,0,0,0],"id":70,"left_children":[1,3,5,7,9,11,13,-1,-1,-1,-1,-1,-1,-1,-1],"loss_changes":[2.253766E2,6.1799957E1,5.0065804E1,2.0592484E1,1.4028564E1,2.8809586E1,1.4000381E1,0E0,0E0,0E0,0E0,0E0,0E0,0E0,0E0],"parents":[2147483647,0,0,1,1,2,2,3,3,4,4,5,5,6,6],"right_children":[2,4,6,8,10,12,14,-1,-1,-1,-1,-1,-1,-1,-1],"split_conditions":[1.49E1,1.4E1,1.82E1,1.5E1,1.7E1,6.3E0,3.1622776E-1,-1.9130968E-3,-3.2284316E-2,-9.458734E-3,-3.1385627E-2,-7.167E-2,4.28035E-3,1.0626528E-2,2.1180935E-2],"split_indices":[7,6,7,0,0,6,10,0,0,0,0,0,0,0,0],"split_type":[0,0,0,0,0,0,0,0,0,0,0,0,0,0,0],"sum_hessian":[1.3758E4,7.469E3,6.289E3,5.037E3,2.432E3,5.404E3,8.85E2,5.002E3,3.5E1,2.385E3,4.7E1,7E0,5.397E3,5.68E2,3.17E2],"tree_param":{"num_deleted":"0","num_feature":"15","num_nodes":"15","size_leaf_vector":"1"}},{"base_weights":[4.641479E-3,-1.4963263E-1,1.1133504E-1,-2.7537808E-1,-1.0396603E-1,7.553171E-2,2.4358039E-1,-9.72975E-3,-2.3891078E-2,-4.3015047E-3,2.117861E-2,-2.5925415E-2,3.301746E-3,1.0120668E-2,-3.6689274E-2],"categories":[],"categories_nodes":[],"categories_segments":[],"categories_sizes":[],"default_left":[0,0,0,0,0,0,0,0,0,0,0,0,0,0,0],"id":71,"left_children":[1,3,5,7,9,11,13,-1,-1,-1,-1,-1,-1,-1,-1],"loss_changes":[2.2490656E2,3.2010284E1,3.8197594E1,1.5152184E1,9.290413E0,3.226444E1,1.9006172E1,0E0,0E0,0E0,0E0,0E0,0E0,0E0,0E0],"parents":[2147483647,0,0,1,1,2,2,3,3,4,4,5,5,6,6],"right_children":[2,4,6,8,10,12,14,-1,-1,-1,-1,-1,-1,-1,-1],"split_conditions":[1.4E1,1.1E1,1.8E1,5.676462E-1,1.5E1,8E0,1E0,-9.72975E-3,-2.3891078E-2,-4.3015047E-3,2.117861E-2,-2.5925415E-2,3.301746E-3,1.0120668E-2,-3.6689274E-2],"split_indices":[1,1,1,9,3,3,2,0,0,0,0,0,0,0,0],"split_type":[0,0,0,0,0,0,0,0,0,0,0,0,0,0,0],"sum_hessian":[1.3662E4,5.585E3,8.077E3,1.486E3,4.099E3,6.358E3,1.719E3,1.353E3,1.33E2,4.077E3,2.2E1,6E1,6.298E3,1.706E3,1.3E1],"tree_param":{"num_deleted":"0","num_feature":"15","num_nodes":"15","size_leaf_vector":"1"}},{"base_weights":[-6.3388916E-3,-9.641641E-2,1.496496E-1,-1.8816157E-1,-2.1309255E-2,9.563846E-2,2.551332E-1,-6.809944E-3,-1.4977232E-2,-6.5205485E-4,-3.46039E-2,3.990118E-3,-2.4706814E-2,1.0470064E-2,-2.7441036E-2],"categories":[],"categories_nodes":[],"categories_segments":[],"categories_sizes":[],"default_left":[0,0,0,0,0,1,0,0,0,0,0,0,0,0,0],"id":72,"left_children":[1,3,5,7,9,11,13,-1,-1,-1,-1,-1,-1,-1,-1],"loss_changes":[1.9215729E2,5.9717567E1,2.8461159E1,1.2901321E1,2.0049616E1,9.733141E0,1.0689011E1,0E0,0E0,0E0,0E0,0E0,0E0,0E0,0E0],"parents":[2147483647,0,0,1,1,2,2,3,3,4,4,5,5,6,6],"right_children":[2,4,6,8,10,12,14,-1,-1,-1,-1,-1,-1,-1,-1],"split_conditions":[1.6E1,1.3E1,1.8E1,5.676462E-1,2E0,1.82E1,1E0,-6.809944E-3,-1.4977232E-2,-6.5205485E-4,-3.46039E-2,3.990118E-3,-2.4706814E-2,1.0470064E-2,-2.7441036E-2],"split_indices":[1,1,1,10,12,7,2,0,0,0,0,0,0,0,0],"split_type":[0,0,0,0,0,0,0,0,0,0,0,0,0,0,0],"sum_hessian":[1.3674E4,8.669E3,5.005E3,3.901E3,4.768E3,3.312E3,1.693E3,3.561E3,3.4E2,4.741E3,2.7E1,3.294E3,1.8E1,1.682E3,1.1E1],"tree_param":{"num_deleted":"0","num_feature":"15","num_nodes":"15","size_leaf_vector":"1"}},{"base_weights":[-3.1276767E-3,-1.6501772E-1,1.0073525E-1,-7.273496E-2,-2.0029694E-1,1.9615275E-1,3.7636444E-2,-2.749319E-3,-2.8270189E-2,7.4444246E-3,-8.238539E-3,8.39901E-3,-9.056592E-3,1.6807143E-3,-1.581258E-2],"categories":[],"categories_nodes":[],"categories_segments":[],"categories_sizes":[],"default_left":[0,0,1,0,0,0,0,0,0,0,0,0,0,0,0],"id":73,"left_children":[1,3,5,7,9,11,13,-1,-1,-1,-1,-1,-1,-1,-1],"loss_changes":[2.2938794E2,1.7317337E1,5.000151E1,3.6215196E0,8.483398E0,1.9361877E1,9.473558E0,0E0,0E0,0E0,0E0,0E0,0E0,0E0,0E0],"parents":[2147483647,0,0,1,1,2,2,3,3,4,4,5,5,6,6],"right_children":[2,4,6,8,10,12,14,-1,-1,-1,-1,-1,-1,-1,-1],"split_conditions":[1.31E1,1.3E1,9E0,1E0,0E0,1E0,1E0,-2.749319E-3,-2.8270189E-2,7.4444246E-3,-8.238539E-3,8.39901E-3,-9.056592E-3,1.6807143E-3,-1.581258E-2],"split_indices":[7,0,6,5,12,5,5,0,0,0,0,0,0,0,0],"split_type":[0,0,0,0,0,0,0,0,0,0,0,0,0,0,0],"sum_hessian":[1.364E4,5.331E3,8.309E3,1.476E3,3.855E3,3.306E3,5.003E3,1.468E3,8E0,5.5E1,3.8E3,3.202E3,1.04E2,4.954E3,4.9E1],"tree_param":{"num_deleted":"0","num_feature":"15","num_nodes":"15","size_leaf_vector":"1"}},{"base_weights":[1.9534149E-3,-1.0234449E-1,1.24321185E-1,-5.7273313E-2,-1.796601E-1,1.8503039E-1,5.683229E-2,-2.0410272E-3,-1.9757146E-2,-6.5145097E-3,-1.879506E-2,7.9342965E-3,-1.0263248E-2,2.7143215E-3,-7.5527374E-3],"categories":[],"categories_nodes":[],"categories_segments":[],"categories_sizes":[],"default_left":[0,0,1,0,0,0,0,0,0,0,0,0,0,0,0],"id":74,"left_children":[1,3,5,7,9,11,13,-1,-1,-1,-1,-1,-1,-1,-1],"loss_changes":[1.7592326E2,2.5895706E1,2.595382E1,1.2750378E1,1.3212456E1,1.9690437E1,8.142419E0,0E0,0E0,0E0,0E0,0E0,0E0,0E0,0E0],"parents":[2147483647,0,0,1,1,2,2,3,3,4,4,5,5,6,6],"right_children":[2,4,6,8,10,12,14,-1,-1,-1,-1,-1,-1,-1,-1],"split_conditions":[1.49E1,1.32E1,9E0,1E0,8.4327406E-1,1E0,5.676462E-1,-2.0410272E-3,-1.9757146E-2,-6.5145097E-3,-1.879506E-2,7.9342965E-3,-1.0263248E-2,2.7143215E-3,-7.5527374E-3],"split_indices":[7,6,6,2,9,2,9,0,0,0,0,0,0,0,0],"split_type":[0,0,0,0,0,0,0,0,0,0,0,0,0,0,0],"sum_hessian":[1.3782E4,7.44E3,6.342E3,4.702E3,2.738E3,3.337E3,3.005E3,4.637E3,6.5E1,2.59E3,1.48E2,3.24E3,9.7E1,2.877E3,1.28E2],"tree_param":{"num_deleted":"0","num_feature":"15","num_nodes":"15","size_leaf_vector":"1"}},{"base_weights":[-8.481786E-3,7.673268E-2,-1.4407037E-1,1.8531834E-1,1.6103981E-2,-1.0573009E-1,-2.3965995E-1,8.528945E-3,-5.774858E-3,9.177349E-4,-1.7629787E-2,-4.873489E-3,1.0631598E-2,-8.321066E-3,-2.6038786E-2],"categories":[],"categories_nodes":[],"categories_segments":[],"categories_sizes":[],"default_left":[1,1,0,1,0,0,0,0,0,0,0,0,0,0,0],"id":75,"left_children":[1,3,5,7,9,11,13,-1,-1,-1,-1,-1,-1,-1,-1],"loss_changes":[1.5932585E2,5.5718582E1,1.9444885E1,2.7941559E1,1.6950357E1,2.2763649E1,1.9581535E1,0E0,0E0,0E0,0E0,0E0,0E0,0E0,0E0],"parents":[2147483647,0,0,1,1,2,2,3,3,4,4,5,5,6,6],"right_children":[2,4,6,8,10,12,14,-1,-1,-1,-1,-1,-1,-1,-1],"split_conditions":[1.2E1,8.4E0,1.5E1,6.324555E-1,1E0,1.41E1,6.666667E-1,8.528945E-3,-5.774858E-3,9.177349E-4,-1.7629787E-2,-4.873489E-3,1.0631598E-2,-8.321066E-3,-2.6038786E-2],"split_indices":[6,6,0,9,2,6,9,0,0,0,0,0,0,0,0],"split_type":[0,0,0,0,0,0,0,0,0,0,0,0,0,0,0],"sum_hessian":[1.3787E4,8.466E3,5.321E3,3.032E3,5.434E3,3.8E3,1.521E3,2.796E3,2.36E2,5.355E3,7.9E1,3.643E3,1.57E2,1.414E3,1.07E2],"tree_param":{"num_deleted":"0","num_feature":"15","num_nodes":"15","size_leaf_vector":"1"}},{"base_weights":[6.474814E-3,-9.867319E-2,7.9535306E-2,-8.5030496E-2,-3.182185E-1,5.5352286E-2,2.901615E-1,-1.6957655E-3,-5.404192E-3,-9.256175E-3,-2.2235688E-2,5.0217346E-3,1.0402967E-3,7.4711307E-3,2.112799E-2],"categories":[],"categories_nodes":[],"categories_segments":[],"categories_sizes":[],"default_left":[0,0,0,0,0,1,0,0,0,0,0,0,0,0,0],"id":76,"left_children":[1,3,5,7,9,11,13,-1,-1,-1,-1,-1,-1,-1,-1],"loss_changes":[1.056357E2,1.6816498E1,4.1278667E1,1.1311165E1,6.581032E0,1.4976543E1,2.0378487E1,0E0,0E0,0E0,0E0,0E0,0E0,0E0,0E0],"parents":[2147483647,0,0,1,1,2,2,3,3,4,4,5,5,6,6],"right_children":[2,4,6,8,10,12,14,-1,-1,-1,-1,-1,-1,-1,-1],"split_conditions":[1.4E1,8.4327406E-1,1.9E1,1.37E1,1.5E1,8.3E0,3.1622776E-1,-1.6957655E-3,-5.404192E-3,-9.256175E-3,-2.2235688E-2,5.0217346E-3,1.0402967E-3,7.4711307E-3,2.112799E-2],"split_indices":[1,9,1,6,0,6,9,0,0,0,0,0,0,0,0],"split_type":[0,0,0,0,0,0,0,0,0,0,0,0,0,0,0],"sum_hessian":[1.3749E4,5.636E3,8.113E3,5.308E3,3.28E2,7.279E3,8.34E2,2.869E3,2.439E3,2.42E2,8.6E1,2.144E3,5.135E3,5.83E2,2.51E2],"tree_param":{"num_deleted":"0","num_feature":"15","num_nodes":"15","size_leaf_vector":"1"}},{"base_weights":[-2.875268E-3,-1.01571254E-1,1.0750078E-1,-2.2440208E-1,-6.944638E-2,3.5094374E-1,9.0741254E-2,-7.4830884E-3,-2.5211612E-2,-3.0977514E-3,8.1740115E-3,1.1905589E-2,2.6850574E-2,3.908737E-3,-6.161235E-3],"categories":[],"categories_nodes":[],"categories_segments":[],"categories_sizes":[],"default_left":[0,0,1,0,0,1,0,0,0,0,0,0,0,0,0],"id":77,"left_children":[1,3,5,7,9,11,13,-1,-1,-1,-1,-1,-1,-1,-1],"loss_changes":[1.486E2,2.8373596E1,2.619503E1,2.240374E1,1.2508305E1,6.772106E0,1.0300724E1,0E0,0E0,0E0,0E0,0E0,0E0,0E0,0E0],"parents":[2147483647,0,0,1,1,2,2,3,3,4,4,5,5,6,6],"right_children":[2,4,6,8,10,12,14,-1,-1,-1,-1,-1,-1,-1,-1],"split_conditions":[1.5E1,1.1E1,5.9E0,5.676462E-1,1.41E1,5.4E0,9.486833E-1,-7.4830884E-3,-2.5211612E-2,-3.0977514E-3,8.1740115E-3,1.1905589E-2,2.6850574E-2,3.908737E-3,-6.161235E-3],"split_indices":[1,1,6,10,6,6,10,0,0,0,0,0,0,0,0],"split_type":[0,0,0,0,0,0,0,0,0,0,0,0,0,0,0],"sum_hessian":[1.3639E4,7.201E3,6.438E3,1.491E3,5.71E3,4.13E2,6.025E3,1.367E3,1.24E2,5.549E3,1.61E2,3.56E2,5.7E1,5.859E3,1.66E2],"tree_param":{"num_deleted":"0","num_feature":"15","num_nodes":"15","size_leaf_vector":"1"}},{"base_weights":[3.5845367E-3,1.3489282E-1,-7.3387556E-2,1.6015452E-1,-1.9089122E-1,-3.5364557E-2,-1.6553676E-1,1.1470267E-2,5.3533227E-3,2.6031967E-2,-1.0648801E-2,-1.2223904E-3,-1.740608E-2,-6.004425E-3,-1.883272E-2],"categories":[],"categories_nodes":[],"categories_segments":[],"categories_sizes":[],"default_left":[1,1,0,1,0,0,0,0,0,0,0,0,0,0,0],"id":78,"left_children":[1,3,5,7,9,11,13,-1,-1,-1,-1,-1,-1,-1,-1],"loss_changes":[1.3788663E2,4.1522438E1,3.0106647E1,1.5514984E1,2.3150284E1,1.163839E1,1.1692299E1,0E0,0E0,0E0,0E0,0E0,0E0,0E0,0E0],"parents":[2147483647,0,0,1,1,2,2,3,3,4,4,5,5,6,6],"right_children":[2,4,6,8,10,12,14,-1,-1,-1,-1,-1,-1,-1,-1],"split_conditions":[9.6E0,6.324555E-1,1.36E1,6.9E0,5.3E0,1E0,8.4327406E-1,1.1470267E-2,5.3533227E-3,2.6031967E-2,-1.0648801E-2,-1.2223904E-3,-1.740608E-2,-6.004425E-3,-1.883272E-2],"split_indices":[6,10,6,6,6,2,10,0,0,0,0,0,0,0,0],"split_type":[0,0,0,0,0,0,0,0,0,0,0,0,0,0,0],"sum_hessian":[1.364E4,5.041E3,8.599E3,4.679E3,3.62E2,6.089E3,2.51E3,8.03E2,3.876E3,2.9E1,3.33E2,6.018E3,7.1E1,2.391E3,1.19E2],"tree_param":{"num_deleted":"0","num_feature":"15","num_nodes":"15","size_leaf_vector":"1"}},{"base_weights":[-8.389253E-3,-1.1049865E-1,6.270104E-2,-3.6201958E-2,-1.4231886E-1,7.1682066E-2,-3.96722E-1,-6.2931335E-4,-1.1014887E-2,-5.4745353E-3,-2.2720933E-2,6.0407566E-3,9.793967E-4,-5.0094575E-2,5.421086E-4],"categories":[],"categories_nodes":[],"categories_segments":[],"categories_sizes":[],"default_left":[0,0,0,0,0,0,0,0,0,0,0,0,0,0,0],"id":79,"left_children":[1,3,5,7,9,11,13,-1,-1,-1,-1,-1,-1,-1,-1],"loss_changes":[9.8944435E1,1.3204338E1,3.3149063E1,8.191172E0,8.946396E0,2.9492683E1,5.420232E1,0E0,0E0,0E0,0E0,0E0,0E0,0E0,0E0],"parents":[2147483647,0,0,1,1,2,2,3,3,4,4,5,5,6,6],"right_children":[2,4,6,8,10,12,14,-1,-1,-1,-1,-1,-1,-1,-1],"split_conditions":[1.4E1,1.3E1,1E0,5.2704626E-1,1.7E1,9E0,8E0,-6.2931335E-4,-1.1014887E-2,-5.4745353E-3,-2.2720933E-2,6.0407566E-3,9.793967E-4,-5.0094575E-2,5.421086E-4],"split_indices":[1,0,5,9,0,0,0,0,0,0,0,0,0,0,0],"split_type":[0,0,0,0,0,0,0,0,0,0,0,0,0,0,0],"sum_hessian":[1.3628E4,5.594E3,8.034E3,1.679E3,3.915E3,7.881E3,1.53E2,1.548E3,1.31E2,3.867E3,4.8E1,2.938E3,4.943E3,4.9E1,1.04E2],"tree_param":{"num_deleted":"0","num_feature":"15","num_nodes":"15","size_leaf_vector":"1"}},{"base_weights":[-8.064737E-3,4.668475E-2,-1.457914E-1,1.0281854E-1,-5.958438E-3,-1.0761336E-1,-2.0630653E-1,1.0370583E-2,3.4239339E-3,-5.0370715E-4,3.4088418E-2,-5.3175353E-3,9.582848E-3,-6.9185966E-3,-2.3146426E-2],"categories":[],"categories_nodes":[],"categories_segments":[],"categories_sizes":[],"default_left":[0,1,0,1,0,0,0,0,0,0,0,0,0,0,0],"id":80,"left_children":[1,3,5,7,9,11,13,-1,-1,-1,-1,-1,-1,-1,-1],"loss_changes":[1.04097755E2,2.9197441E1,9.019142E0,1.28234825E1,2.894552E1,2.12198E1,1.8658142E1,0E0,0E0,0E0,0E0,0E0,0E0,0E0,0E0],"parents":[2147483647,0,0,1,1,2,2,3,3,4,4,5,5,6,6],"right_children":[2,4,6,8,10,12,14,-1,-1,-1,-1,-1,-1,-1,-1],"split_conditions":[1.3E1,9.1E0,1.5E1,6E0,1.0593499E0,1.41E1,5.676462E-1,1.0370583E-2,3.4239339E-3,-5.0370715E-4,3.4088418E-2,-5.3175353E-3,9.582848E-3,-6.9185966E-3,-2.3146426E-2],"split_indices":[0,6,0,6,9,6,9,0,0,0,0,0,0,0,0],"split_type":[0,0,0,0,0,0,0,0,0,0,0,0,0,0,0],"sum_hessian":[1.3802E4,9.876E3,3.926E3,4.78E3,5.096E3,2.41E3,1.516E3,4.72E2,4.308E3,5.058E3,3.8E1,2.247E3,1.63E2,1.393E3,1.23E2],"tree_param":{"num_deleted":"0","num_feature":"15","num_nodes":"15","size_leaf_vector":"1"}},{"base_weights":[8.788803E-3,-6.3346356E-2,8.917768E-2,-1.8047249E-2,-1.4524361E-1,5.177403E-2,1.9216216E-1,-4.4239088E-4,-1.8535448E-2,-4.9055987E-3,-1.5785988E-2,-3.5328444E-2,2.3751087E-3,8.01906E-3,-3.2913275E-2],"categories":[],"categories_nodes":[],"categories_segments":[],"categories_sizes":[],"default_left":[0,0,0,0,0,0,0,0,0,0,0,0,0,0,0],"id":81,"left_children":[1,3,5,7,9,11,13,-1,-1,-1,-1,-1,-1,-1,-1],"loss_changes":[7.87858E1,2.654374E1,2.4718582E1,1.4299028E1,1.4269825E1,3.349769E1,1.4541866E1,0E0,0E0,0E0,0E0,0E0,0E0,0E0,0E0],"parents":[2147483647,0,0,1,1,2,2,3,3,4,4,5,5,6,6],"right_children":[2,4,6,8,10,12,14,-1,-1,-1,-1,-1,-1,-1,-1],"split_conditions":[1.5E1,1.4E1,1.8E1,1E0,5.676462E-1,8E0,1E0,-4.4239088E-4,-1.8535448E-2,-4.9055987E-3,-1.5785988E-2,-3.5328444E-2,2.3751087E-3,8.01906E-3,-3.2913275E-2],"split_indices":[1,0,1,2,9,0,2,0,0,0,0,0,0,0,0],"split_type":[0,0,0,0,0,0,0,0,0,0,0,0,0,0,0],"sum_hessian":[1.3584E4,7.159E3,6.425E3,4.611E3,2.548E3,4.715E3,1.71E3,4.541E3,7E1,2.338E3,2.1E2,3.7E1,4.678E3,1.697E3,1.3E1],"tree_param":{"num_deleted":"0","num_feature":"15","num_nodes":"15","size_leaf_vector":"1"}},{"base_weights":[-4.137096E-3,7.998689E-2,-5.2298147E-2,5.7353824E-2,1.973407E-1,-1.5339311E-2,-9.732786E-2,-3.684431E-2,2.4173446E-3,4.741856E-3,1.7828707E-2,-8.3992985E-4,2.2499684E-2,-3.6914437E-3,-2.1003108E-2],"categories":[],"categories_nodes":[],"categories_segments":[],"categories_sizes":[],"default_left":[0,1,0,0,0,0,0,0,0,0,0,0,0,0,0],"id":82,"left_children":[1,3,5,7,9,11,13,-1,-1,-1,-1,-1,-1,-1,-1],"loss_changes":[5.5146378E1,1.3124071E1,1.4394617E1,1.249352E1,1.5547289E1,1.55126295E1,8.30275E0,0E0,0E0,0E0,0E0,0E0,0E0,0E0,0E0],"parents":[2147483647,0,0,1,1,2,2,3,3,4,4,5,5,6,6],"right_children":[2,4,6,8,10,12,14,-1,-1,-1,-1,-1,-1,-1,-1],"split_conditions":[1E1,1.9E1,1.3E1,7E0,4.2163703E-1,1.0593499E0,1.7E1,-3.684431E-2,2.4173446E-3,4.741856E-3,1.7828707E-2,-8.3992985E-4,2.2499684E-2,-3.6914437E-3,-2.1003108E-2],"split_indices":[0,4,0,3,9,9,0,0,0,0,0,0,0,0,0],"split_type":[0,0,0,0,0,0,0,0,0,0,0,0,0,0,0],"sum_hessian":[1.361E4,4.954E3,8.656E3,4.155E3,7.99E2,4.756E3,3.9E3,1.2E1,4.143E3,6.08E2,1.91E2,4.711E3,4.5E1,3.856E3,4.4E1],"tree_param":{"num_deleted":"0","num_feature":"15","num_nodes":"15","size_leaf_vector":"1"}},{"base_weights":[-3.3360112E-3,9.647597E-2,-6.1887406E-2,2.735949E-1,8.0449484E-2,-2.8835326E-2,-1.4236394E-1,1.19304145E-2,-7.3103406E-3,3.5217335E-3,-9.594333E-3,-9.3396223E-4,-2.1937866E-2,-5.401979E-3,-2.196501E-2],"categories":[],"categories_nodes":[],"categories_segments":[],"categories_sizes":[],"default_left":[1,1,0,0,0,0,0,0,0,0,0,0,0,0,0],"id":83,"left_children":[1,3,5,7,9,11,13,-1,-1,-1,-1,-1,-1,-1,-1],"loss_changes":[8.038268E1,1.4376831E1,2.3040249E1,4.804903E0,1.1352951E1,1.7456295E1,7.3639565E0,0E0,0E0,0E0,0E0,0E0,0E0,0E0,0E0],"parents":[2147483647,0,0,1,1,2,2,3,3,4,4,5,5,6,6],"right_children":[2,4,6,8,10,12,14,-1,-1,-1,-1,-1,-1,-1,-1],"split_conditions":[9.7E0,6E0,1.37E1,7E0,1E-1,1E0,1.7E1,1.19304145E-2,-7.3103406E-3,3.5217335E-3,-9.594333E-3,-9.3396223E-4,-2.1937866E-2,-5.401979E-3,-2.196501E-2],"split_indices":[6,6,6,0,8,8,0,0,0,0,0,0,0,0,0],"split_type":[0,0,0,0,0,0,0,0,0,0,0,0,0,0,0],"sum_hessian":[1.3753E4,5.084E3,8.669E3,4.2E2,4.664E3,6.147E3,2.522E3,3.99E2,2.1E1,4.557E3,1.07E2,6.084E3,6.3E1,2.479E3,4.3E1],"tree_param":{"num_deleted":"0",