{"learner":{"attributes":{"scikit_learn":"{\"_estimator_type\": \"regressor\"}"},"feature_names":["num_carts_full","num_carts_empty","num_carts_maintenance","num_carts_full_lag1","num_carts_empty_lag1","num_carts_maintenance_lag1","num_carts_full_roll_mean","num_carts_empty_roll_mean","num_carts_maintenance_roll_mean","num_carts_full_roll_std","num_carts_empty_roll_std","num_carts_maintenance_roll_std","num_carts_full_diff1","num_carts_empty_diff1","num_carts_maintenance_diff1"],"feature_types":["int","int","int","float","float","float","float","float","float","float","float","float","float","float","float"],"gradient_booster":{"model":{"cats":{"enc":[],"feature_segments":[],"sorted_idx":[]},"gbtree_model_param":{"num_parallel_tree":"1","num_trees":"600"},"iteration_indptr":[0,1,2,3,4,5,6,7,8,9,10,11,12,13,14,15,16,17,18,19,20,21,22,23,24,25,26,27,28,29,30,31,32,33,34,35,36,37,38,39,40,41,42,43,44,45,46,47,48,49,50,51,52,53,54,55,56,57,58,59,60,61,62,63,64,65,66,67,68,69,70,71,72,73,74,75,76,77,78,79,80,81,82,83,84,85,86,87,88,89,90,91,92,93,94,95,96,97,98,99,100,101,102,103,104,105,106,107,108,109,110,111,112,113,114,115,116,117,118,119,120,121,122,123,124,125,126,127,128,129,130,131,132,133,134,135,136,137,138,139,140,141,142,143,144,145,146,147,148,149,150,151,152,153,154,155,156,157,158,159,160,161,162,163,164,165,166,167,168,169,170,171,172,173,174,175,176,177,178,179,180,181,182,183,184,185,186,187,188,189,190,191,192,193,194,195,196,197,198,199,200,201,202,203,204,205,206,207,208,209,210,211,212,213,214,215,216,217,218,219,220,221,222,223,224,225,226,227,228,229,230,231,232,233,234,235,236,237,238,239,240,241,242,243,244,245,246,247,248,249,250,251,252,253,254,255,256,257,258,259,260,261,262,263,264,265,266,267,268,269,270,271,272,273,274,275,276,277,278,279,280,281,282,283,284,285,286,287,288,289,290,291,292,293,294,295,296,297,298,299,300,301,302,303,304,305,306,307,308,309,310,311,312,313,314,315,316,317,318,319,320,321,322,323,324,325,326,327,328,329,330,331,332,333,334,335,336,337,338,339,340,341,342,343,344,345,346,347,348,349,350,351,352,353,354,355,356,357,358,359,360,361,362,363,364,365,366,367,368,369,370,371,372,373,374,375,376,377,378,379,380,381,382,383,384,385,386,387,388,389,390,391,392,393,394,395,396,397,398,399,400,401,402,403,404,405,406,407,408,409,410,411,412,413,414,415,416,417,418,419,420,421,422,423,424,425,426,427,428,429,430,431,432,433,434,435,436,437,438,439,440,441,442,443,444,445,446,447,448,449,450,451,452,453,454,455,456,457,458,459,460,461,462,463,464,465,466,467,468,469,470,471,472,473,474,475,476,477,478,479,480,481,482,483,484,485,486,487,488,489,490,491,492,493,494,495,496,497,498,499,500,501,502,503,504,505,506,507,508,509,510,511,512,513,514,515,516,517,518,519,520,521,522,523,524,525,526,527,528,529,530,531,532,533,534,535,536,537,538,539,540,541,542,543,544,545,546,547,548,549,550,551,552,553,554,555,556,557,558,559,560,561,562,563,564,565,566,567,568,569,570,571,572,573,574,575,576,577,578,579,580,581,582,583,584,585,586,587,588,589,590,591,592,593,594,595,596,597,598,599,600],"tree_info":[0,0,0,0,0,0,0,0,0,0,0,0,0,0,0,0,0,0,0,0,0,0,0,0,0,0,0,0,0,0,0,0,0,0,0,0,0,0,0,0,0,0,0,0,0,0,0,0,0,0,0,0,0,0,0,0,0,0,0,0,0,0,0,0,0,0,0,0,0,0,0,0,0,0,0,0,0,0,0,0,0,0,0,0,0,0,0,0,0,0,0,0,0,0,0,0,0,0,0,0,0,0,0,0,0,0,0,0,0,0,0,0,0,0,0,0,0,0,0,0,0,0,0,0,0,0,0,0,0,0,0,0,0,0,0,0,0,0,0,0,0,0,0,0,0,0,0,0,0,0,0,0,0,0,0,0,0,0,0,0,0,0,0,0,0,0,0,0,0,0,0,0,0,0,0,0,0,0,0,0,0,0,0,0,0,0,0,0,0,0,0,0,0,0,0,0,0,0,0,0,0,0,0,0,0,0,0,0,0,0,0,0,0,0,0,0,0,0,0,0,0,0,0,0,0,0,0,0,0,0,0,0,0,0,0,0,0,0,0,0,0,0,0,0,0,0,0,0,0,0,0,0,0,0,0,0,0,0,0,0,0,0,0,0,0,0,0,0,0,0,0,0,0,0,0,0,0,0,0,0,0,0,0,0,0,0,0,0,0,0,0,0,0,0,0,0,0,0,0,0,0,0,0,0,0,0,0,0,0,0,0,0,0,0,0,0,0,0,0,0,0,0,0,0,0,0,0,0,0,0,0,0,0,0,0,0,0,0,0,0,0,0,0,0,0,0,0,0,0,0,0,0,0,0,0,0,0,0,0,0,0,0,0,0,0,0,0,0,0,0,0,0,0,0,0,0,0,0,0,0,0,0,0,0,0,0,0,0,0,0,0,0,0,0,0,0,0,0,0,0,0,0,0,0,0,0,0,0,0,0,0,0,0,0,0,0,0,0,0,0,0,0,0,0,0,0,0,0,0,0,0,0,0,0,0,0,0,0,0,0,0,0,0,0,0,0,0,0,0,0,0,0,0,0,0,0,0,0,0,0,0,0,0,0,0,0,0,0,0,0,0,0,0,0,0,0,0,0,0,0,0,0,0,0,0,0,0,0,0,0,0,0,0,0,0,0,0,0,0,0,0,0,0,0,0,0,0,0,0,0,0,0,0,0,0,0,0,0,0,0,0,0,0,0,0,0,0,0,0,0,0,0,0,0,0,0,0,0,0,0,0,0,0,0,0,0,0,0,0,0,0,0,0,0,0,0,0,0,0,0,0,0,0,0,0,0,0,0,0,0,0,0,0,0,0,0,0,0,0,0,0,0,0,0,0,0,0,0,0,0,0,0,0,0,0,0,0,0,0,0],"trees":[{"base_weights":[2.048379E-2,-1.8919425E0,2.1312046E0,-3.4730244E0,-1.0328362E0,1.2267495E0,3.188067E0,-1.3527709E-1,-1.5360507E-1,-6.561017E-2,-3.1353515E-2,2.5365647E-2,6.619475E-2,1.00956105E-1,1.473248E-1],"categories":[],"categories_nodes":[],"categories_segments":[],"categories_sizes":[],"default_left":[0,0,0,0,0,0,0,0,0,0,0,0,0,0,0],"id":0,"left_children":[1,3,5,7,9,11,13,-1,-1,-1,-1,-1,-1,-1,-1],"loss_changes":[5.5365996E4,9.770416E3,6.2280117E3,7.1E1,7.038833E2,8.9050195E2,9.7844727E2,0E0,0E0,0E0,0E0,0E0,0E0,0E0,0E0],"parents":[2147483647,0,0,1,1,2,2,3,3,4,4,5,5,6,6],"right_children":[2,4,6,8,10,12,14,-1,-1,-1,-1,-1,-1,-1,-1],"split_conditions":[1.5E1,1.2E1,1.7E1,1.6E1,1.3E1,1.6E1,1.8E1,-1.3527709E-1,-1.5360507E-1,-6.561017E-2,-3.1353515E-2,2.5365647E-2,6.619475E-2,1.00956105E-1,1.473248E-1],"split_indices":[1,1,1,3,1,1,1,0,0,0,0,0,0,0,0],"split_type":[0,0,0,0,0,0,0,0,0,0,0,0,0,0,0],"sum_hessian":[1.3714E4,7.195E3,6.519E3,2.532E3,4.663E3,3.514E3,3.005E3,2.037E3,4.95E2,1.354E3,3.309E3,1.475E3,2.039E3,1.286E3,1.719E3],"tree_param":{"num_deleted":"0","num_feature":"15","num_nodes":"15","size_leaf_vector":"1"}},{"base_weights":[2.7418539E-2,-1.8150923E0,2.092802E0,-9.790406E-1,-3.3415883E0,3.0444512E0,1.2004203E0,-4.9529523E-2,-2.0041069E-2,-1.3058817E-1,-1.4611982E-1,1.0814195E-1,1.5832432E-1,6.431756E-2,2.5829077E-2],"categories":[],"categories_nodes":[],"categories_segments":[],"categories_sizes":[],"default_left":[0,0,0,0,0,0,1,0,0,0,0,0,0,0,0],"id":1,"left_children":[1,3,5,7,9,11,13,-1,-1,-1,-1,-1,-1,-1,-1],"loss_changes":[5.2382613E4,9.280867E3,5.507453E3,5.817837E2,4.9009766E1,9.666406E2,7.5622314E2,0E0,0E0,0E0,0E0,0E0,0E0,0E0,0E0],"parents":[2147483647,0,0,1,1,2,2,3,3,4,4,5,5,6,6],"right_children":[2,4,6,8,10,12,14,-1,-1,-1,-1,-1,-1,-1,-1],"split_conditions":[1.5E1,1.4E1,9E0,1.4E1,1.6E1,1.9E1,1E1,-4.9529523E-2,-2.0041069E-2,-1.3058817E-1,-1.4611982E-1,1.0814195E-1,1.5832432E-1,6.431756E-2,2.5829077E-2],"split_indices":[4,3,3,4,3,4,3,0,0,0,0,0,0,0,0],"split_type":[0,0,0,0,0,0,0,0,0,0,0,0,0,0,0],"sum_hessian":[1.3763E4,7.274E3,6.489E3,4.701E3,2.573E3,3.139E3,3.35E3,3.047E3,1.654E3,2.073E3,5E2,2.289E3,8.5E2,1.93E3,1.42E3],"tree_param":{"num_deleted":"0","num_feature":"15","num_nodes":"15","size_leaf_vector":"1"}},{"base_weights":[-2.1776598E-2,-1.752651E0,1.9489105E0,-8.925672E-1,-3.1051557E0,2.9060335E0,1.0913719E0,-4.562927E-2,-1.922891E-2,-1.2797347E-1,-9.333608E-2,1.01714335E-1,1.5412411E-1,2.2801612E-2,5.9251554E-2],"categories":[],"categories_nodes":[],"categories_segments":[],"categories_sizes":[],"default_left":[0,0,0,0,0,0,0,0,0,0,0,0,0,0,0],"id":2,"left_children":[1,3,5,7,9,11,13,-1,-1,-1,-1,-1,-1,-1,-1],"loss_changes":[4.701396E4,8.532883E3,5.286291E3,4.5788403E2,1.992793E2,1.0368965E3,6.902927E2,0E0,0E0,0E0,0E0,0E0,0E0,0E0,0E0],"parents":[2147483647,0,0,1,1,2,2,3,3,4,4,5,5,6,6],"right_children":[2,4,6,8,10,12,14,-1,-1,-1,-1,-1,-1,-1,-1],"split_conditions":[1.5E1,1.3066667E1,9E0,1.4E1,1.2E1,1.9E1,1.6E1,-4.562927E-2,-1.922891E-2,-1.2797347E-1,-9.333608E-2,1.01714335E-1,1.5412411E-1,2.2801612E-2,5.9251554E-2],"split_indices":[1,6,3,1,1,1,1,0,0,0,0,0,0,0,0],"split_type":[0,0,0,0,0,0,0,0,0,0,0,0,0,0,0],"sum_hessian":[1.3781E4,7.337E3,6.444E3,4.486E3,2.851E3,3.044E3,3.4E3,2.798E3,1.688E3,2.538E3,3.13E2,2.203E3,8.41E2,1.456E3,1.944E3],"tree_param":{"num_deleted":"0","num_feature":"15","num_nodes":"15","size_leaf_vector":"1"}},{"base_weights":[-1.0777839E-2,-1.7041798E0,1.8795236E0,-3.1052544E0,-9.206094E-1,1.0775659E0,2.8024724E0,-1.2944673E-1,-1.16409935E-1,-5.9011433E-2,-2.8106961E-2,6.1073642E-2,2.698227E-2,9.910231E-2,1.4693712E-1],"categories":[],"categories_nodes":[],"categories_segments":[],"categories_sizes":[],"default_left":[0,0,0,0,0,1,0,0,0,0,0,0,0,0,0],"id":3,"left_children":[1,3,5,7,9,11,13,-1,-1,-1,-1,-1,-1,-1,-1],"loss_changes":[4.410071E4,7.974748E3,4.815074E3,5.6496094E1,5.623054E2,6.2975073E2,8.465996E2,0E0,0E0,0E0,0E0,0E0,0E0,0E0,0E0],"parents":[2147483647,0,0,1,1,2,2,3,3,4,4,5,5,6,6],"right_children":[2,4,6,8,10,12,14,-1,-1,-1,-1,-1,-1,-1,-1],"split_conditions":[1.5E1,1.2E1,1.7E1,1.1E1,1.3E1,9.066667E0,1.9E1,-1.2944673E-1,-1.16409935E-1,-5.9011433E-2,-2.8106961E-2,6.1073642E-2,2.698227E-2,9.910231E-2,1.4693712E-1],"split_indices":[1,1,1,1,1,6,1,0,0,0,0,0,0,0,0],"split_type":[0,0,0,0,0,0,0,0,0,0,0,0,0,0,0],"sum_hessian":[1.3775E4,7.266E3,6.509E3,2.605E3,4.661E3,3.484E3,3.025E3,1.549E3,1.056E3,1.313E3,3.348E3,1.646E3,1.838E3,2.206E3,8.19E2],"tree_param":{"num_deleted":"0","num_feature":"15","num_nodes":"15","size_leaf_vector":"1"}},{"base_weights":[-1.37057565E-2,-1.6228195E0,1.8095267E0,-8.8606614E-1,-2.9391997E0,2.665006E0,1.0298675E0,-2.6918208E-2,-5.601561E-2,-1.08941875E-1,-1.2369578E-1,8.304834E-2,1.2621467E-1,5.674211E-2,2.0605015E-2],"categories":[],"categories_nodes":[],"categories_segments":[],"categories_sizes":[],"default_left":[0,0,0,0,0,0,0,0,0,0,0,0,0,0,0],"id":4,"left_children":[1,3,5,7,9,11,13,-1,-1,-1,-1,-1,-1,-1,-1],"loss_changes":[4.0301434E4,7.07399E3,4.29225E3,5.1181616E2,7.748828E1,8.7930664E2,6.7352124E2,0E0,0E0,0E0,0E0,0E0,0E0,0E0,0E0],"parents":[2147483647,0,0,1,1,2,2,3,3,4,4,5,5,6,6],"right_children":[2,4,6,8,10,12,14,-1,-1,-1,-1,-1,-1,-1,-1],"split_conditions":[1.5E1,1.4E1,9E0,1.3E1,1.5E1,1.8E1,1E1,-2.6918208E-2,-5.601561E-2,-1.08941875E-1,-1.2369578E-1,8.304834E-2,1.2621467E-1,5.674211E-2,2.0605015E-2],"split_indices":[4,0,0,0,0,4,0,0,0,0,0,0,0,0,0],"split_type":[0,0,0,0,0,0,0,0,0,0,0,0,0,0,0],"sum_hessian":[1.3735E4,7.296E3,6.439E3,4.679E3,2.617E3,3.069E3,3.37E3,3.31E3,1.369E3,1.095E3,1.522E3,1.397E3,1.672E3,1.919E3,1.451E3],"tree_param":{"num_deleted":"0","num_feature":"15","num_nodes":"15","size_leaf_vector":"1"}},{"base_weights":[-4.6037505E-3,-1.5552526E0,1.7420648E0,-7.873261E-1,-2.7456975E0,9.948876E-1,2.603032E0,-4.0235467E-2,-1.6395086E-2,-1.1904187E-1,-9.928446E-2,1.9524718E-2,5.452259E-2,7.9943515E-2,1.2181829E-1],"categories":[],"categories_nodes":[],"categories_segments":[],"categories_sizes":[],"default_left":[0,0,0,0,0,0,0,0,0,0,0,0,0,0,0],"id":5,"left_children":[1,3,5,7,9,11,13,-1,-1,-1,-1,-1,-1,-1,-1],"loss_changes":[3.749333E4,6.701123E3,4.1849004E3,3.6729346E2,1.666289E2,6.497573E2,8.020918E2,0E0,0E0,0E0,0E0,0E0,0E0,0E0,0E0],"parents":[2147483647,0,0,1,1,2,2,3,3,4,4,5,5,6,6],"right_children":[2,4,6,8,10,12,14,-1,-1,-1,-1,-1,-1,-1,-1],"split_conditions":[1.5E1,1.3066667E1,1.7E1,1.4E1,1.1E1,1.6E1,1.8E1,-4.0235467E-2,-1.6395086E-2,-1.1904187E-1,-9.928446E-2,1.9524718E-2,5.452259E-2,7.9943515E-2,1.2181829E-1],"split_indices":[1,6,1,1,1,1,1,0,0,0,0,0,0,0,0],"split_type":[0,0,0,0,0,0,0,0,0,0,0,0,0,0,0],"sum_hessian":[1.3841E4,7.332E3,6.509E3,4.458E3,2.874E3,3.486E3,3.023E3,2.822E3,1.636E3,1.528E3,1.346E3,1.468E3,2.018E3,1.28E3,1.743E3],"tree_param":{"num_deleted":"0","num_feature":"15","num_nodes":"15","size_leaf_vector":"1"}},{"base_weights":[-1.0010471E-2,1.6396294E0,-1.5002518E0,2.4690216E0,9.002853E-1,-8.2583976E-1,-2.7119253E0,8.73293E-2,1.2638514E-1,2.0429896E-2,5.4707542E-2,-2.4261393E-2,-5.4169018E-2,-1.194136E-1,-1.0525749E-1],"categories":[],"categories_nodes":[],"categories_segments":[],"categories_sizes":[],"default_left":[0,0,0,0,0,0,0,0,0,0,0,0,0,0,0],"id":6,"left_children":[1,3,5,7,9,11,13,-1,-1,-1,-1,-1,-1,-1,-1],"loss_changes":[3.336241E4,3.9471016E3,5.8238096E3,5.915781E2,6.194304E2,5.2993384E2,4.767578E1,0E0,0E0,0E0,0E0,0E0,0E0,0E0,0E0],"parents":[2147483647,0,0,1,1,2,2,3,3,4,4,5,5,6,6],"right_children":[2,4,6,8,10,12,14,-1,-1,-1,-1,-1,-1,-1,-1],"split_conditions":[1.1E1,9E0,1.4E1,1.8133333E1,1.6E1,1.3E1,9.933333E0,8.73293E-2,1.2638514E-1,2.0429896E-2,5.4707542E-2,-2.4261393E-2,-5.4169018E-2,-1.194136E-1,-1.0525749E-1],"split_indices":[0,0,0,7,7,0,7,0,0,0,0,0,0,0,0],"split_type":[0,0,0,0,0,0,0,0,0,0,0,0,0,0,0],"sum_hessian":[1.3569E4,6.44E3,7.129E3,3.034E3,3.406E3,4.581E3,2.548E3,2.149E3,8.85E2,1.859E3,1.547E3,3.239E3,1.342E3,5.71E2,1.977E3],"tree_param":{"num_deleted":"0","num_feature":"15","num_nodes":"15","size_leaf_vector":"1"}},{"base_weights":[-7.468638E-3,1.5582823E0,-1.4304963E0,2.340354E0,8.6637914E-1,-7.7432925E-1,-2.6277678E0,7.540886E-2,1.1278924E-1,4.8794936E-2,1.6521636E-2,-1.3377003E-2,-4.045168E-2,-9.882694E-2,-1.09516256E-1],"categories":[],"categories_nodes":[],"categories_segments":[],"categories_sizes":[],"default_left":[0,0,0,0,0,0,0,0,0,0,0,0,0,0,0],"id":7,"left_children":[1,3,5,7,9,11,13,-1,-1,-1,-1,-1,-1,-1,-1],"loss_changes":[3.0652053E4,3.5419736E3,5.6595195E3,6.649004E2,5.5653076E2,4.8497705E2,3.6851562E1,0E0,0E0,0E0,0E0,0E0,0E0,0E0,0E0],"parents":[2147483647,0,0,1,1,2,2,3,3,4,4,5,5,6,6],"right_children":[2,4,6,8,10,12,14,-1,-1,-1,-1,-1,-1,-1,-1],"split_conditions":[1.1E1,9E0,1.4E1,1.7866667E1,1E1,1.2E1,1.5E1,7.540886E-2,1.1278924E-1,4.8794936E-2,1.6521636E-2,-1.3377003E-2,-4.045168E-2,-9.882694E-2,-1.09516256E-1],"split_indices":[0,0,0,7,0,0,0,0,0,0,0,0,0,0,0],"split_type":[0,0,0,0,0,0,0,0,0,0,0,0,0,0,0],"sum_hessian":[1.3755E4,6.549E3,7.206E3,3.073E3,3.476E3,4.656E3,2.55E3,1.579E3,1.494E3,1.952E3,1.524E3,1.631E3,3.025E3,1.061E3,1.489E3],"tree_param":{"num_deleted":"0","num_feature":"15","num_nodes":"15","size_leaf_vector":"1"}},{"base_weights":[1.404318E-2,-1.3628628E0,1.5445676E0,-7.5144964E-1,-2.4948165E0,2.304618E0,8.353773E-1,-2.3142006E-2,-4.740297E-2,-9.898071E-2,-1.3944557E-1,7.120641E-2,1.0842515E-1,4.5454074E-2,1.745418E-2],"categories":[],"categories_nodes":[],"categories_segments":[],"categories_sizes":[],"default_left":[0,0,0,0,0,0,0,0,0,0,0,0,0,0,0],"id":8,"left_children":[1,3,5,7,9,11,13,-1,-1,-1,-1,-1,-1,-1,-1],"loss_changes":[2.8759543E4,4.969786E3,3.4814492E3,3.489646E2,4.1466797E1,6.588711E2,4.010669E2,0E0,0E0,0E0,0E0,0E0,0E0,0E0,0E0],"parents":[2147483647,0,0,1,1,2,2,3,3,4,4,5,5,6,6],"right_children":[2,4,6,8,10,12,14,-1,-1,-1,-1,-1,-1,-1,-1],"split_conditions":[1.5E1,1.4E1,9E0,1.3E1,1.7E1,1.8E1,1E1,-2.3142006E-2,-4.740297E-2,-9.898071E-2,-1.3944557E-1,7.120641E-2,1.0842515E-1,4.5454074E-2,1.745418E-2],"split_indices":[4,0,0,0,0,4,0,0,0,0,0,0,0,0,0],"split_type":[0,0,0,0,0,0,0,0,0,0,0,0,0,0,0],"sum_hessian":[1.3645E4,7.183E3,6.462E3,4.665E3,2.518E3,3.118E3,3.344E3,3.337E3,1.328E3,2.471E3,4.7E1,1.363E3,1.755E3,1.905E3,1.439E3],"tree_param":{"num_deleted":"0","num_feature":"15","num_nodes":"15","size_leaf_vector":"1"}},{"base_weights":[8.083288E-3,-1.3112998E0,1.4949305E0,-2.3364348E0,-6.619687E-1,8.603397E-1,2.221725E0,-9.633204E-2,-7.057817E-2,-3.4870397E-2,-1.2346506E-2,1.7517295E-2,4.695547E-2,7.7727266E-2,1.17806345E-1],"categories":[],"categories_nodes":[],"categories_segments":[],"categories_sizes":[],"default_left":[0,0,0,0,0,0,0,0,0,0,0,0,0,0,0],"id":9,"left_children":[1,3,5,7,9,11,13,-1,-1,-1,-1,-1,-1,-1,-1],"loss_changes":[2.6957988E4,4.8447646E3,2.977704E3,1.1137598E2,3.301162E2,4.5639087E2,6.005283E2,0E0,0E0,0E0,0E0,0E0,0E0,0E0,0E0],"parents":[2147483647,0,0,1,1,2,2,3,3,4,4,5,5,6,6],"right_children":[2,4,6,8,10,12,14,-1,-1,-1,-1,-1,-1,-1,-1],"split_conditions":[1.5E1,1.2E1,1.7E1,1.2E1,1.4E1,1.6E1,1.9E1,-9.633204E-2,-7.057817E-2,-3.4870397E-2,-1.2346506E-2,1.7517295E-2,4.695547E-2,7.7727266E-2,1.17806345E-1],"split_indices":[1,7,1,1,1,1,1,0,0,0,0,0,0,0,0],"split_type":[0,0,0,0,0,0,0,0,0,0,0,0,0,0,0],"sum_hessian":[1.374E4,7.28E3,6.46E3,2.822E3,4.458E3,3.45E3,3.01E3,2.504E3,3.18E2,2.796E3,1.662E3,1.471E3,1.979E3,2.176E3,8.34E2],"tree_param":{"num_deleted":"0","num_feature":"15","num_nodes":"15","size_leaf_vector":"1"}},{"base_weights":[-1.038931E-2,-1.2916266E0,1.350658E0,-2.261457E0,-6.5357107E-1,2.0707533E0,7.334017E-1,-6.868061E-2,-9.2970826E-2,-3.5332393E-2,-1.4078597E-2,1.2741688E-1,7.626579E-2,4.2369865E-2,1.4082029E-2],"categories":[],"categories_nodes":[],"categories_segments":[],"categories_sizes":[],"default_left":[0,0,0,0,0,0,0,0,0,0,0,0,0,0,0],"id":10,"left_children":[1,3,5,7,9,11,13,-1,-1,-1,-1,-1,-1,-1,-1],"loss_changes":[2.3839822E4,4.3558594E3,2.9446816E3,9.115527E1,2.9398157E2,5.5299023E2,4.4322302E2,0E0,0E0,0E0,0E0,0E0,0E0,0E0,0E0],"parents":[2147483647,0,0,1,1,2,2,3,3,4,4,5,5,6,6],"right_children":[2,4,6,8,10,12,14,-1,-1,-1,-1,-1,-1,-1,-1],"split_conditions":[1.4266666E1,1.2E1,9E0,1.4E1,1.3066667E1,6E0,1E1,-6.868061E-2,-9.2970826E-2,-3.5332393E-2,-1.4078597E-2,1.2741688E-1,7.626579E-2,4.2369865E-2,1.4082029E-2],"split_indices":[7,7,0,3,7,0,0,0,0,0,0,0,0,0,0],"split_type":[0,0,0,0,0,0,0,0,0,0,0,0,0,0,0],"sum_hessian":[1.3669E4,7.041E3,6.628E3,2.793E3,4.248E3,3.058E3,3.57E3,2.92E2,2.501E3,2.41E3,1.838E3,3.9E2,2.668E3,1.924E3,1.646E3],"tree_param":{"num_deleted":"0","num_feature":"15","num_nodes":"15","size_leaf_vector":"1"}},{"base_weights":[-9.481333E-4,-1.2171595E0,1.3579005E0,-2.175479E0,-6.0881424E-1,2.0138845E0,7.76778E-1,-9.025798E-2,-7.15118E-2,-3.2026228E-2,-1.1354523E-2,6.1425135E-2,9.55046E-2,1.904891E-2,4.3897822E-2],"categories":[],"categories_nodes":[],"categories_segments":[],"categories_sizes":[],"default_left":[0,0,0,0,0,0,0,0,0,0,0,0,0,0,0],"id":11,"left_children":[1,3,5,7,9,11,13,-1,-1,-1,-1,-1,-1,-1,-1],"loss_changes":[2.2642908E4,4.213408E3,2.4649473E3,8.367578E1,2.754524E2,5.391289E2,3.3018677E2,0E0,0E0,0E0,0E0,0E0,0E0,0E0,0E0],"parents":[2147483647,0,0,1,1,2,2,3,3,4,4,5,5,6,6],"right_children":[2,4,6,8,10,12,14,-1,-1,-1,-1,-1,-1,-1,-1],"split_conditions":[1.5E1,1.2E1,9E0,1.1066667E1,1.4E1,1.8E1,1.6E1,-9.025798E-2,-7.15118E-2,-3.2026228E-2,-1.1354523E-2,6.1425135E-2,9.55046E-2,1.904891E-2,4.3897822E-2],"split_indices":[1,7,0,7,1,1,7,0,0,0,0,0,0,0,0],"split_type":[0,0,0,0,0,0,0,0,0,0,0,0,0,0,0],"sum_hessian":[1.3699E4,7.229E3,6.47E3,2.806E3,4.423E3,3.038E3,3.432E3,2.317E3,4.89E2,2.78E3,1.643E3,1.335E3,1.703E3,1.773E3,1.659E3],"tree_param":{"num_deleted":"0","num_feature":"15","num_nodes":"15","size_leaf_vector":"1"}},{"base_weights":[7.189075E-3,-1.1586641E0,1.3259197E0,-2.0842304E0,-5.871768E-1,1.9620708E0,7.477951E-1,-8.646408E-2,-6.75704E-2,-3.0823102E-2,-1.1021323E-2,6.041054E-2,9.205189E-2,1.9403245E-2,4.1479554E-2],"categories":[],"categories_nodes":[],"categories_segments":[],"categories_sizes":[],"default_left":[0,0,0,0,0,0,0,0,0,0,0,0,0,0,0],"id":12,"left_children":[1,3,5,7,9,11,13,-1,-1,-1,-1,-1,-1,-1,-1],"loss_changes":[2.1090705E4,3.849789E3,2.365627E3,8.088965E1,2.5705518E2,4.6574707E2,2.5568518E2,0E0,0E0,0E0,0E0,0E0,0E0,0E0,0E0],"parents":[2147483647,0,0,1,1,2,2,3,3,4,4,5,5,6,6],"right_children":[2,4,6,8,10,12,14,-1,-1,-1,-1,-1,-1,-1,-1],"split_conditions":[1.5E1,1.1933333E1,9E0,1.1066667E1,1.4E1,1.8E1,1.6E1,-8.646408E-2,-6.75704E-2,-3.0823102E-2,-1.1021323E-2,6.041054E-2,9.205189E-2,1.9403245E-2,4.1479554E-2],"split_indices":[1,7,0,7,1,1,7,0,0,0,0,0,0,0,0],"split_type":[0,0,0,0,0,0,0,0,0,0,0,0,0,0,0],"sum_hessian":[1.3716E4,7.28E3,6.436E3,2.778E3,4.502E3,3.063E3,3.373E3,2.319E3,4.59E2,2.833E3,1.669E3,1.316E3,1.747E3,1.769E3,1.604E3],"tree_param":{"num_deleted":"0","num_feature":"15","num_nodes":"15","size_leaf_vector":"1"}},{"base_weights":[1.4309873E-2,-1.1229626E0,1.2796178E0,-5.669312E-1,-2.0026085E0,1.9005617E0,7.148166E-1,-2.1678861E-2,-9.4732076E-2,-7.2773784E-2,-8.647619E-2,5.8325667E-2,8.991003E-2,3.7686493E-2,1.6567519E-2],"categories":[],"categories_nodes":[],"categories_segments":[],"categories_sizes":[],"default_left":[0,0,0,0,0,0,1,0,0,0,0,0,0,0,0],"id":13,"left_children":[1,3,5,7,9,11,13,-1,-1,-1,-1,-1,-1,-1,-1],"loss_changes":[1.9686973E4,3.5226504E3,2.2695762E3,1.9697583E2,7.7118164E1,4.7006543E2,2.3137415E2,0E0,0E0,0E0,0E0,0E0,0E0,0E0,0E0],"parents":[2147483647,0,0,1,1,2,2,3,3,4,4,5,5,6,6],"right_children":[2,4,6,8,10,12,14,-1,-1,-1,-1,-1,-1,-1,-1],"split_conditions":[1.5E1,1.3066667E1,9E0,1.4E1,1.5E1,1.8E1,1E1,-2.1678861E-2,-9.4732076E-2,-7.2773784E-2,-8.647619E-2,5.8325667E-2,8.991003E-2,3.7686493E-2,1.6567519E-2],"split_indices":[1,6,3,0,0,1,3,0,0,0,0,0,0,0,0],"split_type":[0,0,0,0,0,0,0,0,0,0,0,0,0,0,0],"sum_hessian":[1.3679E4,7.204E3,6.475E3,4.415E3,2.789E3,3.083E3,3.392E3,4.356E3,5.9E1,1.303E3,1.486E3,1.358E3,1.725E3,1.93E3,1.462E3],"tree_param":{"num_deleted":"0","num_feature":"15","num_nodes":"15","size_leaf_vector":"1"}},{"base_weights":[1.8108904E-3,-1.077985E0,1.2018955E0,-1.9400263E0,-5.348725E-1,1.7671766E0,6.9898915E-1,-7.116508E-2,-8.306014E-2,-1.6489526E-2,-3.5248112E-2,6.2229104E-2,9.485141E-2,1.6941035E-2,3.8138263E-2],"categories":[],"categories_nodes":[],"categories_segments":[],"categories_sizes":[],"default_left":[0,0,0,0,0,0,0,0,0,0,0,0,0,0,0],"id":14,"left_children":[1,3,5,7,9,11,13,-1,-1,-1,-1,-1,-1,-1,-1],"loss_changes":[1.7734967E4,3.3715225E3,1.8412432E3,5.7054688E1,1.87276E2,3.8564746E2,2.4002942E2,0E0,0E0,0E0,0E0,0E0,0E0,0E0,0E0],"parents":[2147483647,0,0,1,1,2,2,3,3,4,4,5,5,6,6],"right_children":[2,4,6,8,10,12,14,-1,-1,-1,-1,-1,-1,-1,-1],"split_conditions":[1.5E1,1.1933333E1,9E0,1.5E1,1.3E1,1.9E1,1.5733334E1,-7.116508E-2,-8.306014E-2,-1.6489526E-2,-3.5248112E-2,6.2229104E-2,9.485141E-2,1.6941035E-2,3.8138263E-2],"split_indices":[1,7,0,0,0,1,7,0,0,0,0,0,0,0,0],"split_type":[0,0,0,0,0,0,0,0,0,0,0,0,0,0,0],"sum_hessian":[1.3684E4,7.203E3,6.481E3,2.783E3,4.42E3,3.05E3,3.431E3,1.284E3,1.499E3,3.266E3,1.154E3,2.262E3,7.88E2,1.649E3,1.782E3],"tree_param":{"num_deleted":"0","num_feature":"15","num_nodes":"15","size_leaf_vector":"1"}},{"base_weights":[-2.9308854E-3,-1.0270668E0,1.162516E0,-5.485077E-1,-1.8873843E0,8.3813685E-1,2.0568526E0,-1.5609295E-2,-3.7315167E-2,-7.469099E-2,-1.16045475E-1,4.448812E-2,1.539944E-2,1.0566282E-1,7.558705E-2],"categories":[],"categories_nodes":[],"categories_segments":[],"categories_sizes":[],"default_left":[0,0,0,0,0,1,0,0,0,0,0,0,0,0,0],"id":15,"left_children":[1,3,5,7,9,11,13,-1,-1,-1,-1,-1,-1,-1,-1],"loss_changes":[1.6421205E4,3.0136948E3,1.8648057E3,2.858612E2,4.7456055E1,5.861113E2,1.6190479E2,0E0,0E0,0E0,0E0,0E0,0E0,0E0,0E0],"parents":[2147483647,0,0,1,1,2,2,3,3,4,4,5,5,6,6],"right_children":[2,4,6,8,10,12,14,-1,-1,-1,-1,-1,-1,-1,-1],"split_conditions":[1.5E1,1.4E1,1.8E1,1.3E1,1.7E1,9.133333E0,6E0,-1.5609295E-2,-3.7315167E-2,-7.469099E-2,-1.16045475E-1,4.448812E-2,1.539944E-2,1.0566282E-1,7.558705E-2],"split_indices":[1,0,1,0,0,6,0,0,0,0,0,0,0,0,0],"split_type":[0,0,0,0,0,0,0,0,0,0,0,0,0,0,0],"sum_hessian":[1.3756E4,7.322E3,6.434E3,4.706E3,2.616E3,4.723E3,1.711E3,3.335E3,1.371E3,2.568E3,4.8E1,2.942E3,1.781E3,3.77E2,1.334E3],"tree_param":{"num_deleted":"0","num_feature":"15","num_nodes":"15","size_leaf_vector":"1"}},{"base_weights":[3.9784904E-3,-9.8108983E-1,1.1153764E0,-1.8093938E0,-5.278596E-1,1.6233698E0,6.4792585E-1,-7.105887E-2,-9.2222385E-2,-3.3948142E-2,-1.615206E-2,5.6794837E-2,8.735752E-2,3.7196152E-2,1.5710672E-2],"categories":[],"categories_nodes":[],"categories_segments":[],"categories_sizes":[],"default_left":[0,0,0,0,0,0,1,0,0,0,0,0,0,0,0],"id":16,"left_children":[1,3,5,7,9,11,13,-1,-1,-1,-1,-1,-1,-1,-1],"loss_changes":[1.4881668E4,2.7040327E3,1.5153887E3,3.7117188E1,1.8497571E2,3.456084E2,2.3894946E2,0E0,0E0,0E0,0E0,0E0,0E0,0E0,0E0],"parents":[2147483647,0,0,1,1,2,2,3,3,4,4,5,5,6,6],"right_children":[2,4,6,8,10,12,14,-1,-1,-1,-1,-1,-1,-1,-1],"split_conditions":[1.5E1,1.2E1,9E0,9.4112396E-1,1.3E1,1.9E1,9.066667E0,-7.105887E-2,-9.2222385E-2,-3.3948142E-2,-1.615206E-2,5.6794837E-2,8.735752E-2,3.7196152E-2,1.5710672E-2],"split_indices":[1,1,3,10,1,1,6,0,0,0,0,0,0,0,0],"split_type":[0,0,0,0,0,0,0,0,0,0,0,0,0,0,0],"sum_hessian":[1.3591E4,7.205E3,6.386E3,2.547E3,4.658E3,3.059E3,3.327E3,2.393E3,1.54E2,1.297E3,3.361E3,2.247E3,8.12E2,1.579E3,1.748E3],"tree_param":{"num_deleted":"0","num_feature":"15","num_nodes":"15","size_leaf_vector":"1"}},{"base_weights":[-8.7468615E-3,-9.54577E-1,1.0578604E0,-4.9323726E-1,-1.6901572E0,1.5671028E0,5.4570913E-1,-8.082054E-3,-2.686059E-2,-5.4293923E-2,-6.990423E-2,9.5138766E-2,5.7215434E-2,2.9373748E-2,1.0175135E-2],"categories":[],"categories_nodes":[],"categories_segments":[],"categories_sizes":[],"default_left":[0,0,0,0,0,0,1,0,0,0,0,0,0,0,0],"id":17,"left_children":[1,3,5,7,9,11,13,-1,-1,-1,-1,-1,-1,-1,-1],"loss_changes":[1.3765468E4,2.4531445E3,1.6715024E3,2.3057715E2,5.0603027E1,3.5284863E2,1.755155E2,0E0,0E0,0E0,0E0,0E0,0E0,0E0,0E0],"parents":[2147483647,0,0,1,1,2,2,3,3,4,4,5,5,6,6],"right_children":[2,4,6,8,10,12,14,-1,-1,-1,-1,-1,-1,-1,-1],"split_conditions":[1.5E1,1.3066667E1,8.733334E0,1.2E1,1.3866667E1,6E0,9.933333E0,-8.082054E-3,-2.686059E-2,-5.4293923E-2,-6.990423E-2,9.5138766E-2,5.7215434E-2,2.9373748E-2,1.0175135E-2],"split_indices":[4,6,6,0,6,6,6,0,0,0,0,0,0,0,0],"split_type":[0,0,0,0,0,0,0,0,0,0,0,0,0,0,0],"sum_hessian":[1.3643E4,7.231E3,6.412E3,4.445E3,2.786E3,3.214E3,3.198E3,1.689E3,2.756E3,4.14E2,2.372E3,4.61E2,2.753E3,1.94E3,1.258E3],"tree_param":{"num_deleted":"0","num_feature":"15","num_nodes":"15","size_leaf_vector":"1"}},{"base_weights":[1.23203145E-2,-8.9409196E-1,1.0368885E0,-4.3934107E-1,-1.6100222E0,1.4933538E0,5.790805E-1,-2.3497287E-2,-7.7209794E-3,-5.2701157E-2,-6.6978626E-2,5.163469E-2,8.4266424E-2,3.0524775E-2,1.1909549E-2],"categories":[],"categories_nodes":[],"categories_segments":[],"categories_sizes":[],"default_left":[0,0,0,0,0,0,1,0,0,0,0,0,0,0,0],"id":18,"left_children":[1,3,5,7,9,11,13,-1,-1,-1,-1,-1,-1,-1,-1],"loss_changes":[1.2780521E4,2.3763994E3,1.3488975E3,1.6275262E2,5.095117E1,3.9855957E2,1.6675366E2,0E0,0E0,0E0,0E0,0E0,0E0,0E0,0E0],"parents":[2147483647,0,0,1,1,2,2,3,3,4,4,5,5,6,6],"right_children":[2,4,6,8,10,12,14,-1,-1,-1,-1,-1,-1,-1,-1],"split_conditions":[1.5E1,1.3066667E1,8.733334E0,1.4E1,1.4E1,1.9E1,9.933333E0,-2.3497287E-2,-7.7209794E-3,-5.2701157E-2,-6.6978626E-2,5.163469E-2,8.4266424E-2,3.0524775E-2,1.1909549E-2],"split_indices":[1,6,6,1,6,1,6,0,0,0,0,0,0,0,0],"split_type":[0,0,0,0,0,0,0,0,0,0,0,0,0,0,0],"sum_hessian":[1.376E4,7.301E3,6.459E3,4.466E3,2.835E3,3.233E3,3.226E3,2.788E3,1.678E3,5.16E2,2.319E3,2.433E3,8E2,1.949E3,1.277E3],"tree_param":{"num_deleted":"0","num_feature":"15","num_nodes":"15","size_leaf_vector":"1"}},{"base_weights":[1.8354631E-3,-8.6829376E-1,9.8507917E-1,-4.6444607E-1,-1.6070384E0,1.4638112E0,5.4476815E-1,-2.44474E-2,-7.6465225E-3,-6.129011E-2,-7.6482065E-2,5.0691288E-2,8.001764E-2,3.1207975E-2,1.347903E-2],"categories":[],"categories_nodes":[],"categories_segments":[],"categories_sizes":[],"default_left":[0,0,0,0,0,0,1,0,0,0,0,0,0,0,0],"id":19,"left_children":[1,3,5,7,9,11,13,-1,-1,-1,-1,-1,-1,-1,-1],"loss_changes":[1.1664567E4,2.156942E3,1.3482749E3,1.873966E2,5.5029785E1,3.2048828E2,1.6282532E2,0E0,0E0,0E0,0E0,0E0,0E0,0E0,0E0],"parents":[2147483647,0,0,1,1,2,2,3,3,4,4,5,5,6,6],"right_children":[2,4,6,8,10,12,14,-1,-1,-1,-1,-1,-1,-1,-1],"split_conditions":[1.5E1,1.4E1,9E0,1.4E1,1.6E1,1.9E1,9.066667E0,-2.44474E-2,-7.6465225E-3,-6.129011E-2,-7.6482065E-2,5.0691288E-2,8.001764E-2,3.1207975E-2,1.347903E-2],"split_indices":[1,0,0,1,0,1,6,0,0,0,0,0,0,0,0],"split_type":[0,0,0,0,0,0,0,0,0,0,0,0,0,0,0],"sum_hessian":[1.3632E4,7.232E3,6.4E3,4.677E3,2.555E3,3.065E3,3.335E3,3.042E3,1.635E3,2.057E3,4.98E2,2.246E3,8.19E2,1.562E3,1.773E3],"tree_param":{"num_deleted":"0","num_feature":"15","num_nodes":"15","size_leaf_vector":"1"}},{"base_weights":[3.7810435E-3,-8.424227E-1,9.519599E-1,-4.4653484E-1,-1.5612739E0,6.862872E-1,1.6781691E0,-1.299543E-2,-3.0655483E-2,-6.0831483E-2,-8.1644714E-2,1.3713996E-2,3.557197E-2,9.190424E-2,6.0039323E-2],"categories":[],"categories_nodes":[],"categories_segments":[],"categories_sizes":[],"default_left":[0,0,0,0,0,0,0,0,0,0,0,0,0,0,0],"id":20,"left_children":[1,3,5,7,9,11,13,-1,-1,-1,-1,-1,-1,-1,-1],"loss_changes":[1.0943297E4,2.050102E3,1.2395635E3,1.8053326E2,4.6254395E1,3.2803198E2,1.8517041E2,0E0,0E0,0E0,0E0,0E0,0E0,0E0,0E0],"parents":[2147483647,0,0,1,1,2,2,3,3,4,4,5,5,6,6],"right_children":[2,4,6,8,10,12,14,-1,-1,-1,-1,-1,-1,-1,-1],"split_conditions":[1.5E1,1.4E1,1.8E1,1.3E1,8.338094E-1,1.5933333E1,6E0,-1.299543E-2,-3.0655483E-2,-6.0831483E-2,-8.1644714E-2,1.3713996E-2,3.557197E-2,9.190424E-2,6.0039323E-2],"split_indices":[1,0,1,0,9,7,3,0,0,0,0,0,0,0,0],"split_type":[0,0,0,0,0,0,0,0,0,0,0,0,0,0,0],"sum_hessian":[1.3637E4,7.206E3,6.431E3,4.648E3,2.558E3,4.71E3,1.721E3,3.369E3,1.279E3,2.363E3,1.95E2,1.751E3,2.959E3,3.8E2,1.341E3],"tree_param":{"num_deleted":"0","num_feature":"15","num_nodes":"15","size_leaf_vector":"1"}},{"base_weights":[1.3832419E-2,-7.9474044E-1,9.13247E-1,-4.1477317E-1,-1.490421E0,1.3884925E0,5.315488E-1,-1.1465035E-2,-2.9541709E-2,-5.8811296E-2,-9.693567E-2,4.8448768E-2,7.354773E-2,2.9309796E-2,1.2637617E-2],"categories":[],"categories_nodes":[],"categories_segments":[],"categories_sizes":[],"default_left":[0,0,0,0,0,0,1,0,0,0,0,0,0,0,0],"id":21,"left_children":[1,3,5,7,9,11,13,-1,-1,-1,-1,-1,-1,-1,-1],"loss_changes":[9.928321E3,1.8995015E3,1.1714604E3,1.9265668E2,4.375293E1,2.2715723E2,1.5522278E2,0E0,0E0,0E0,0E0,0E0,0E0,0E0,0E0],"parents":[2147483647,0,0,1,1,2,2,3,3,4,4,5,5,6,6],"right_children":[2,4,6,8,10,12,14,-1,-1,-1,-1,-1,-1,-1,-1],"split_conditions":[1.5E1,1.4E1,8.2E0,1.3E1,1.7E1,1.9E1,9.133333E0,-1.1465035E-2,-2.9541709E-2,-5.8811296E-2,-9.693567E-2,4.8448768E-2,7.354773E-2,2.9309796E-2,1.2637617E-2],"split_indices":[1,0,6,0,0,1,6,0,0,0,0,0,0,0,0],"split_type":[0,0,0,0,0,0,0,0,0,0,0,0,0,0,0],"sum_hessian":[1.365E4,7.188E3,6.462E3,4.65E3,2.538E3,2.877E3,3.585E3,3.333E3,1.317E3,2.487E3,5.1E1,2.067E3,8.1E2,1.853E3,1.732E3],"tree_param":{"num_deleted":"0","num_feature":"15","num_nodes":"15","size_leaf_vector":"1"}},{"base_weights":[6.2137516E-4,-7.7618164E-1,8.538524E-1,-1.4048609E0,-3.7899637E-1,6.083561E-1,1.5410861E0,-6.6049255E-2,-5.3979788E-2,-1.4370878E-2,-6.8856776E-2,1.0760436E-2,3.2667592E-2,8.0466114E-2,5.6288894E-2],"categories":[],"categories_nodes":[],"categories_segments":[],"categories_sizes":[],"default_left":[0,0,0,0,0,0,0,0,0,0,0,0,0,0,0],"id":22,"left_children":[1,3,5,7,9,11,13,-1,-1,-1,-1,-1,-1,-1,-1],"loss_changes":[9.034531E3,1.7809141E3,1.0948096E3,3.5146973E1,1.1499042E2,3.381693E2,1.04480225E2,0E0,0E0,0E0,0E0,0E0,0E0,0E0,0E0],"parents":[2147483647,0,0,1,1,2,2,3,3,4,4,5,5,6,6],"right_children":[2,4,6,8,10,12,14,-1,-1,-1,-1,-1,-1,-1,-1],"split_conditions":[1.5E1,1.2E1,1.8E1,9.666667E0,1.4E1,1.6E1,6E0,-6.6049255E-2,-5.3979788E-2,-1.4370878E-2,-6.8856776E-2,1.0760436E-2,3.2667592E-2,8.0466114E-2,5.6288894E-2],"split_indices":[1,7,1,7,0,7,0,0,0,0,0,0,0,0,0],"split_type":[0,0,0,0,0,0,0,0,0,0,0,0,0,0,0],"sum_hessian":[1.3629E4,7.134E3,6.495E3,2.761E3,4.373E3,4.787E3,1.708E3,5.01E2,2.26E3,4.311E3,6.2E1,1.822E3,2.965E3,3.75E2,1.333E3],"tree_param":{"num_deleted":"0","num_feature":"15","num_nodes":"15","size_leaf_vector":"1"}},{"base_weights":[-1.1728855E-2,-7.7251494E-1,8.172362E-1,-3.979138E-1,-1.3557495E0,1.2210577E0,4.205775E-1,-2.1547753E-2,-8.513342E-3,-5.1651914E-2,-6.366879E-2,7.639359E-2,4.4385705E-2,1.1432537E-2,2.336078E-2],"categories":[],"categories_nodes":[],"categories_segments":[],"categories_sizes":[],"default_left":[0,0,0,0,0,0,0,0,0,0,0,0,0,0,0],"id":23,"left_children":[1,3,5,7,9,11,13,-1,-1,-1,-1,-1,-1,-1,-1],"loss_changes":[8.645153E3,1.5609819E3,1.0500981E3,1.1325635E2,4.016455E1,2.4698584E2,7.26745E1,0E0,0E0,0E0,0E0,0E0,0E0,0E0,0E0],"parents":[2147483647,0,0,1,1,2,2,3,3,4,4,5,5,6,6],"right_children":[2,4,6,8,10,12,14,-1,-1,-1,-1,-1,-1,-1,-1],"split_conditions":[1.4333333E1,1.3066667E1,8.666667E0,1.3066667E1,1.5133333E1,6E0,1.5933333E1,-2.1547753E-2,-8.513342E-3,-5.1651914E-2,-6.366879E-2,7.639359E-2,4.4385705E-2,1.1432537E-2,2.336078E-2],"split_indices":[7,6,6,7,6,6,7,0,0,0,0,0,0,0,0],"split_type":[0,0,0,0,0,0,0,0,0,0,0,0,0,0,0],"sum_hessian":[1.3706E4,7.147E3,6.559E3,4.353E3,2.794E3,3.249E3,3.31E3,2.471E3,1.882E3,2.2E3,5.94E2,4.5E2,2.799E3,1.816E3,1.494E3],"tree_param":{"num_deleted":"0","num_feature":"15","num_nodes":"15","size_leaf_vector":"1"}},{"base_weights":[1.708265E-2,-6.878219E-1,8.034528E-1,-3.23783E-1,-1.2530224E0,5.7098067E-1,1.4436793E0,-1.8372215E-2,-3.758366E-3,-3.3754516E-2,-5.1704634E-2,2.8970728E-2,9.022842E-3,5.8435064E-2,-7.900015E-2],"categories":[],"categories_nodes":[],"categories_segments":[],"categories_sizes":[],"default_left":[0,0,0,0,0,0,0,0,0,0,0,0,0,0,0],"id":24,"left_children":[1,3,5,7,9,11,13,-1,-1,-1,-1,-1,-1,-1,-1],"loss_changes":[7.5708564E3,1.4812839E3,9.5985156E2,1.3638452E2,4.4395508E1,2.5060449E2,1.0389722E2,0E0,0E0,0E0,0E0,0E0,0E0,0E0,0E0],"parents":[2147483647,0,0,1,1,2,2,3,3,4,4,5,5,6,6],"right_children":[2,4,6,8,10,12,14,-1,-1,-1,-1,-1,-1,-1,-1],"split_conditions":[1.5E1,1.3066667E1,1.8E1,1.4E1,1.3533334E1,1E1,6.666667E-2,-1.8372215E-2,-3.758366E-3,-3.3754516E-2,-5.1704634E-2,2.8970728E-2,9.022842E-3,5.8435064E-2,-7.900015E-2],"split_indices":[1,6,1,1,6,0,8,0,0,0,0,0,0,0,0],"split_type":[0,0,0,0,0,0,0,0,0,0,0,0,0,0,0],"sum_hessian":[1.3656E4,7.201E3,6.455E3,4.381E3,2.82E3,4.737E3,1.718E3,2.755E3,1.626E3,2.51E2,2.569E3,3.28E3,1.457E3,1.71E3,8E0],"tree_param":{"num_deleted":"0","num_feature":"15","num_nodes":"15","size_leaf_vector":"1"}},{"base_weights":[2.562419E-3,-6.842997E-1,7.493769E-1,-1.223935E0,-3.3647808E-1,1.1347876E0,4.070391E-1,-5.782525E-2,-4.6450052E-2,-1.7842932E-2,-6.253752E-3,3.9222714E-2,6.256505E-2,2.2564117E-2,8.222561E-3],"categories":[],"categories_nodes":[],"categories_segments":[],"categories_sizes":[],"default_left":[0,0,0,0,0,0,0,0,0,0,0,0,0,0,0],"id":25,"left_children":[1,3,5,7,9,11,13,-1,-1,-1,-1,-1,-1,-1,-1],"loss_changes":[6.993683E3,1.3324546E3,8.6122046E2,3.673535E1,8.5154816E1,2.016167E2,1.0932849E2,0E0,0E0,0E0,0E0,0E0,0E0,0E0,0E0],"parents":[2147483647,0,0,1,1,2,2,3,3,4,4,5,5,6,6],"right_children":[2,4,6,8,10,12,14,-1,-1,-1,-1,-1,-1,-1,-1],"split_conditions":[1.4333333E1,1.2E1,9E0,1E1,1.4E1,1.9E1,1E1,-5.782525E-2,-4.6450052E-2,-1.7842932E-2,-6.253752E-3,3.9222714E-2,6.256505E-2,2.2564117E-2,8.222561E-3],"split_indices":[7,7,0,7,1,1,0,0,0,0,0,0,0,0,0],"split_type":[0,0,0,0,0,0,0,0,0,0,0,0,0,0,0],"sum_hessian":[1.3632E4,7.101E3,6.531E3,2.782E3,4.319E3,3.071E3,3.46E3,6.08E2,2.174E3,2.684E3,1.635E3,2.262E3,8.09E2,1.943E3,1.517E3],"tree_param":{"num_deleted":"0","num_feature":"15","num_nodes":"15","size_leaf_vector":"1"}},{"base_weights":[6.2639145E-3,-6.962023E-1,7.365981E-1,-3.8587576E-1,-1.2293928E0,1.1319859E0,4.032299E-1,-2.0540137E-2,-7.6618474E-3,-4.7021568E-2,-5.7823617E-2,4.0878147E-2,6.899825E-2,2.2611132E-2,8.783109E-3],"categories":[],"categories_nodes":[],"categories_segments":[],"categories_sizes":[],"default_left":[0,0,0,0,0,0,0,0,0,0,0,0,0,0,0],"id":26,"left_children":[1,3,5,7,9,11,13,-1,-1,-1,-1,-1,-1,-1,-1],"loss_changes":[6.96702E3,1.1447002E3,8.7697925E2,1.0838873E2,2.7681396E1,1.9663599E2,1.0735199E2,0E0,0E0,0E0,0E0,0E0,0E0,0E0,0E0],"parents":[2147483647,0,0,1,1,2,2,3,3,4,4,5,5,6,6],"right_children":[2,4,6,8,10,12,14,-1,-1,-1,-1,-1,-1,-1,-1],"split_conditions":[1.4133333E1,1.4E1,9E0,1.3066667E1,1.6E1,1.9066668E1,1E1,-2.0540137E-2,-7.6618474E-3,-4.7021568E-2,-5.7823617E-2,4.0878147E-2,6.899825E-2,2.2611132E-2,8.783109E-3],"split_indices":[7,0,0,7,0,7,0,0,0,0,0,0,0,0,0],"split_type":[0,0,0,0,0,0,0,0,0,0,0,0,0,0,0],"sum_hessian":[1.3578E4,6.921E3,6.657E3,4.376E3,2.545E3,3.044E3,3.613E3,2.64E3,1.736E3,2.043E3,5.02E2,2.57E3,4.74E2,1.918E3,1.695E3],"tree_param":{"num_deleted":"0","num_feature":"15","num_nodes":"15","size_leaf_vector":"1"}},{"base_weights":[2.1786548E-3,-6.4440817E-1,7.22114E-1,-1.1541544E0,-3.3753958E-1,1.0739611E0,4.0004438E-1,-4.7784124E-2,-3.583817E-2,-1.7707286E-2,-8.429005E-3,4.484402E-2,-1.1916611E-2,1.0605028E-2,2.1573871E-2],"categories":[],"categories_nodes":[],"categories_segments":[],"categories_sizes":[],"default_left":[0,0,0,0,0,0,0,0,0,0,0,0,0,0,0],"id":27,"left_children":[1,3,5,7,9,11,13,-1,-1,-1,-1,-1,-1,-1,-1],"loss_changes":[6.4015737E3,1.132761E3,7.367908E2,2.7148926E1,6.0162537E1,2.0147388E2,6.3659058E1,0E0,0E0,0E0,0E0,0E0,0E0,0E0,0E0],"parents":[2147483647,0,0,1,1,2,2,3,3,4,4,5,5,6,6],"right_children":[2,4,6,8,10,12,14,-1,-1,-1,-1,-1,-1,-1,-1],"split_conditions":[1.46E1,1.2E1,9E0,1.1266666E1,1.3066667E1,1E0,1.5933333E1,-4.7784124E-2,-3.583817E-2,-1.7707286E-2,-8.429005E-3,4.484402E-2,-1.1916611E-2,1.0605028E-2,2.1573871E-2],"split_indices":[7,7,3,7,7,2,7,0,0,0,0,0,0,0,0],"split_type":[0,0,0,0,0,0,0,0,0,0,0,0,0,0,0],"sum_hessian":[1.375E4,7.244E3,6.506E3,2.721E3,4.523E3,3.108E3,3.398E3,2.349E3,3.72E2,2.471E3,2.052E3,3.005E3,1.03E2,1.728E3,1.67E3],"tree_param":{"num_deleted":"0","num_feature":"15","num_nodes":"15","size_leaf_vector":"1"}},{"base_weights":[7.8049756E-4,-6.0831267E-1,6.830523E-1,-3.241929E-1,-1.1421745E0,4.7681242E-1,1.2525308E0,-8.814592E-3,-2.3063585E-2,-4.4470396E-2,-6.429154E-2,2.4489813E-2,6.3479124E-3,5.100329E-2,-8.130632E-2],"categories":[],"categories_nodes":[],"categories_segments":[],"categories_sizes":[],"default_left":[0,0,0,0,0,0,0,0,0,0,0,0,0,0,0],"id":28,"left_children":[1,3,5,7,9,11,13,-1,-1,-1,-1,-1,-1,-1,-1],"loss_changes":[5.662525E3,1.0914321E3,7.540762E2,1.22960846E2,3.3306885E1,2.0317834E2,1.290542E2,0E0,0E0,0E0,0E0,0E0,0E0,0E0,0E0],"parents":[2147483647,0,0,1,1,2,2,3,3,4,4,5,5,6,6],"right_children":[2,4,6,8,10,12,14,-1,-1,-1,-1,-1,-1,-1,-1],"split_conditions":[1.5E1,1.4E1,1.8E1,1.3E1,9.4112396E-1,1E1,6.666667E-2,-8.814592E-3,-2.3063585E-2,-4.4470396E-2,-6.429154E-2,2.4489813E-2,6.3479124E-3,5.100329E-2,-8.130632E-2],"split_indices":[1,0,1,0,9,0,8,0,0,0,0,0,0,0,0],"split_type":[0,0,0,0,0,0,0,0,0,0,0,0,0,0,0],"sum_hessian":[1.3624E4,7.198E3,6.426E3,4.699E3,2.499E3,4.719E3,1.707E3,3.331E3,1.368E3,2.349E3,1.5E2,3.309E3,1.41E3,1.696E3,1.1E1],"tree_param":{"num_deleted":"0","num_feature":"15","num_nodes":"15","size_leaf_vector":"1"}},{"base_weights":[2.0464126E-2,-5.5639595E-1,6.639144E-1,-1.0561014E0,-2.809991E-1,4.696491E-1,1.1904186E0,-7.846857E-2,-4.1594505E-2,-2.1000156E-2,-7.422161E-3,7.3626363E-3,2.3813218E-2,4.2617083E-2,6.4880654E-2],"categories":[],"categories_nodes":[],"categories_segments":[],"categories_sizes":[],"default_left":[0,0,0,0,0,0,0,0,0,0,0,0,0,0,0],"id":29,"left_children":[1,3,5,7,9,11,13,-1,-1,-1,-1,-1,-1,-1,-1],"loss_changes":[5.088897E3,9.94405E2,6.6216113E2,3.542505E1,1.0840509E2,1.6979944E2,9.2193115E1,0E0,0E0,0E0,0E0,0E0,0E0,0E0,0E0],"parents":[2147483647,0,0,1,1,2,2,3,3,4,4,5,5,6,6],"right_children":[2,4,6,8,10,12,14,-1,-1,-1,-1,-1,-1,-1,-1],"split_conditions":[1.5E1,1.2E1,1.8E1,9E0,1.3E1,1.6E1,2E1,-7.846857E-2,-4.1594505E-2,-2.1000156E-2,-7.422161E-3,7.3626363E-3,2.3813218E-2,4.2617083E-2,6.4880654E-2],"split_indices":[1,1,1,1,1,4,1,0,0,0,0,0,0,0,0],"split_type":[0,0,0,0,0,0,0,0,0,0,0,0,0,0,0],"sum_hessian":[1.3708E4,7.228E3,6.48E3,2.567E3,4.661E3,4.735E3,1.745E3,4.3E1,2.524E3,1.309E3,3.352E3,1.448E3,3.287E3,1.356E3,3.89E2],"tree_param":{"num_deleted":"0","num_feature":"15","num_nodes":"15","size_leaf_vector":"1"}},{"base_weights":[-1.6628287E-3,-5.643503E-1,6.264889E-1,-3.0837512E-1,-1.0481634E0,4.2836246E-1,1.186768E0,-1.6291516E-2,-5.087433E-3,-3.9990883E-2,-5.8859818E-2,2.2420535E-2,4.820104E-3,4.7954805E-2,-7.471234E-2],"categories":[],"categories_nodes":[],"categories_segments":[],"categories_sizes":[],"default_left":[0,0,1,0,0,0,0,0,0,0,0,0,0,0,0],"id":30,"left_children":[1,3,5,7,9,11,13,-1,-1,-1,-1,-1,-1,-1,-1],"loss_changes":[4.821094E3,8.9059985E2,7.1476465E2,8.425333E1,4.927002E1,1.9364209E2,6.438745E1,0E0,0E0,0E0,0E0,0E0,0E0,0E0,0E0],"parents":[2147483647,0,0,1,1,2,2,3,3,4,4,5,5,6,6],"right_children":[2,4,6,8,10,12,14,-1,-1,-1,-1,-1,-1,-1,-1],"split_conditions":[1.5E1,1.4E1,1.8E1,1.4E1,7.0373154E-1,1E1,1E0,-1.6291516E-2,-5.087433E-3,-3.9990883E-2,-5.8859818E-2,2.2420535E-2,4.820104E-3,4.7954805E-2,-7.471234E-2],"split_indices":[1,0,4,1,10,0,2,0,0,0,0,0,0,0,0],"split_type":[0,0,0,0,0,0,0,0,0,0,0,0,0,0,0],"sum_hessian":[1.3638E4,7.194E3,6.444E3,4.706E3,2.488E3,4.762E3,1.682E3,3.043E3,1.663E3,2.236E3,2.52E2,3.331E3,1.431E3,1.676E3,6E0],"tree_param":{"num_deleted":"0","num_feature":"15","num_nodes":"15","size_leaf_vector":"1"}},{"base_weights":[-1.3612409E-2,-5.526831E-1,6.024548E-1,-1.0006794E0,-3.0556148E-1,4.1994265E-1,1.1077393E0,-3.8292747E-2,-5.4887492E-2,-2.0166839E-2,-8.931802E-3,8.522178E-3,2.0443453E-2,4.507782E-2,-7.6267555E-2],"categories":[],"categories_nodes":[],"categories_segments":[],"categories_sizes":[],"default_left":[0,0,0,0,0,0,0,0,0,0,0,0,0,0,0],"id":31,"left_children":[1,3,5,7,9,11,13,-1,-1,-1,-1,-1,-1,-1,-1],"loss_changes":[4.5182676E3,8.028723E2,5.848904E2,3.999829E1,7.624802E1,8.780347E1,9.956665E1,0E0,0E0,0E0,0E0,0E0,0E0,0E0,0E0],"parents":[2147483647,0,0,1,1,2,2,3,3,4,4,5,5,6,6],"right_children":[2,4,6,8,10,12,14,-1,-1,-1,-1,-1,-1,-1,-1],"split_conditions":[1.5E1,1.2E1,1.8E1,7.0373154E-1,1.3E1,1.6E1,1E0,-3.8292747E-2,-5.4887492E-2,-2.0166839E-2,-8.931802E-3,8.522178E-3,2.0443453E-2,4.507782E-2,-7.6267555E-2],"split_indices":[1,1,1,9,4,4,2,0,0,0,0,0,0,0,0],"split_type":[0,0,0,0,0,0,0,0,0,0,0,0,0,0,0],"sum_hessian":[1.3603E4,7.255E3,6.348E3,2.578E3,4.677E3,4.665E3,1.683E3,2.312E3,2.66E2,1.368E3,3.309E3,1.428E3,3.237E3,1.673E3,1E1],"tree_param":{"num_deleted":"0","num_feature":"15","num_nodes":"15","size_leaf_vector":"1"}},{"base_weights":[1.3085128E-3,-5.2129614E-1,5.8914244E-1,-2.612795E-1,-9.2758244E-1,4.183172E-1,1.0631189E0,-5.9899267E-2,-9.801261E-3,-4.124381E-2,-3.233785E-2,2.4562184E-2,1.2369569E-2,5.6577228E-2,3.713918E-2],"categories":[],"categories_nodes":[],"categories_segments":[],"categories_sizes":[],"default_left":[0,0,0,0,0,1,0,0,0,0,0,0,0,0,0],"id":32,"left_children":[1,3,5,7,9,11,13,-1,-1,-1,-1,-1,-1,-1,-1],"loss_changes":[4.2004175E3,7.642698E2,5.2043066E2,8.813739E1,3.3808594E1,1.0074902E2,7.905237E1,0E0,0E0,0E0,0E0,0E0,0E0,0E0,0E0],"parents":[2147483647,0,0,1,1,2,2,3,3,4,4,5,5,6,6],"right_children":[2,4,6,8,10,12,14,-1,-1,-1,-1,-1,-1,-1,-1],"split_conditions":[1.5E1,1.3066667E1,1.8E1,1.2E1,1.1E1,9E0,6E0,-5.9899267E-2,-9.801261E-3,-4.124381E-2,-3.233785E-2,2.4562184E-2,1.2369569E-2,5.6577228E-2,3.713918E-2],"split_indices":[1,6,1,1,1,6,6,0,0,0,0,0,0,0,0],"split_type":[0,0,0,0,0,0,0,0,0,0,0,0,0,0,0],"sum_hessian":[1.3671E4,7.237E3,6.434E3,4.414E3,2.823E3,4.731E3,1.703E3,5.6E1,4.358E3,1.506E3,1.317E3,1.691E3,3.04E3,4.69E2,1.234E3],"tree_param":{"num_deleted":"0","num_feature":"15","num_nodes":"15","size_leaf_vector":"1"}},{"base_weights":[4.3295436E-3,-5.014082E-1,5.566467E-1,-2.7459183E-1,-9.125386E-1,8.159992E-1,2.7637205E-1,-1.4574143E-2,-4.1886563E-3,-3.5177536E-2,-5.4104842E-2,2.8111825E-2,4.6620514E-2,6.362172E-3,1.47847E-2],"categories":[],"categories_nodes":[],"categories_segments":[],"categories_sizes":[],"default_left":[0,0,0,0,0,0,0,0,0,0,0,0,0,0,0],"id":33,"left_children":[1,3,5,7,9,11,13,-1,-1,-1,-1,-1,-1,-1,-1],"loss_changes":[3.7890847E3,6.599418E2,4.7098657E2,6.952353E1,3.5251953E1,1.3221362E2,3.399724E1,0E0,0E0,0E0,0E0,0E0,0E0,0E0,0E0],"parents":[2147483647,0,0,1,1,2,2,3,3,4,4,5,5,6,6],"right_children":[2,4,6,8,10,12,14,-1,-1,-1,-1,-1,-1,-1,-1],"split_conditions":[1.4333333E1,1.4E1,8.933333E0,1.4E1,8.997354E-1,1.9E1,1.5266666E1,-1.4574143E-2,-4.1886563E-3,-3.5177536E-2,-5.4104842E-2,2.8111825E-2,4.6620514E-2,6.362172E-3,1.47847E-2],"split_indices":[7,3,6,1,9,1,7,0,0,0,0,0,0,0,0],"split_type":[0,0,0,0,0,0,0,0,0,0,0,0,0,0,0],"sum_hessian":[1.3563E4,7.08E3,6.483E3,4.564E3,2.516E3,3.366E3,3.117E3,2.985E3,1.579E3,2.343E3,1.73E2,2.545E3,8.21E2,1.382E3,1.735E3],"tree_param":{"num_deleted":"0","num_feature":"15","num_nodes":"15","size_leaf_vector":"1"}},{"base_weights":[-7.876493E-3,-4.925013E-1,5.228747E-1,-2.6699963E-1,-8.7860507E-1,7.9051816E-1,2.8667977E-1,-7.841354E-3,-1.7875412E-2,-3.4558024E-2,-6.652605E-2,3.3097707E-2,-1.367389E-2,6.5325797E-3,1.5854346E-2],"categories":[],"categories_nodes":[],"categories_segments":[],"categories_sizes":[],"default_left":[0,0,0,0,0,0,0,0,0,0,0,0,0,0,0],"id":34,"left_children":[1,3,5,7,9,11,13,-1,-1,-1,-1,-1,-1,-1,-1],"loss_changes":[3.5094412E3,6.206129E2,4.1132837E2,5.734494E1,2.8536133E1,1.27941895E2,4.6708588E1,0E0,0E0,0E0,0E0,0E0,0E0,0E0,0E0],"parents":[2147483647,0,0,1,1,2,2,3,3,4,4,5,5,6,6],"right_children":[2,4,6,8,10,12,14,-1,-1,-1,-1,-1,-1,-1,-1],"split_conditions":[1.4333333E1,1.34E1,9E0,1.3E1,1.7E1,1E0,1.5666667E1,-7.841354E-3,-1.7875412E-2,-3.4558024E-2,-6.652605E-2,3.3097707E-2,-1.367389E-2,6.5325797E-3,1.5854346E-2],"split_indices":[7,6,0,0,0,2,7,0,0,0,0,0,0,0,0],"split_type":[0,0,0,0,0,0,0,0,0,0,0,0,0,0,0],"sum_hessian":[1.3642E4,7.131E3,6.511E3,4.503E3,2.628E3,3.051E3,3.46E3,3.231E3,1.272E3,2.582E3,4.6E1,2.955E3,9.6E1,1.63E3,1.83E3],"tree_param":{"num_deleted":"0","num_feature":"15","num_nodes":"15","size_leaf_vector":"1"}},{"base_weights":[-1.2879635E-3,-4.6082196E-1,4.9896693E-1,-8.154827E-1,-2.2931771E-1,3.4411785E-1,9.39738E-1,-4.1536253E-2,-3.0242357E-2,-1.3559247E-2,-3.4855031E-3,6.386581E-3,1.8385502E-2,3.8229965E-2,-7.483746E-2],"categories":[],"categories_nodes":[],"categories_segments":[],"categories_sizes":[],"default_left":[0,0,0,0,0,0,0,0,0,0,0,0,0,0,0],"id":35,"left_children":[1,3,5,7,9,11,13,-1,-1,-1,-1,-1,-1,-1,-1],"loss_changes":[3.163202E3,5.88569E2,4.4919897E2,3.655078E1,6.761258E1,1.0378375E2,7.8740234E1,0E0,0E0,0E0,0E0,0E0,0E0,0E0,0E0],"parents":[2147483647,0,0,1,1,2,2,3,3,4,4,5,5,6,6],"right_children":[2,4,6,8,10,12,14,-1,-1,-1,-1,-1,-1,-1,-1],"split_conditions":[1.4333333E1,1.2E1,1.8E1,9.933333E0,1.3066667E1,1.5933333E1,6.666667E-2,-4.1536253E-2,-3.0242357E-2,-1.3559247E-2,-3.4855031E-3,6.386581E-3,1.8385502E-2,3.8229965E-2,-7.483746E-2],"split_indices":[7,7,1,7,7,7,8,0,0,0,0,0,0,0,0],"split_type":[0,0,0,0,0,0,0,0,0,0,0,0,0,0,0],"sum_hessian":[1.3758E4,7.171E3,6.587E3,2.831E3,4.34E3,4.876E3,1.711E3,5.92E2,2.239E3,2.449E3,1.891E3,1.879E3,2.997E3,1.702E3,9E0],"tree_param":{"num_deleted":"0","num_feature":"15","num_nodes":"15","size_leaf_vector":"1"}},{"base_weights":[3.516519E-3,5.952726E-1,-3.4137216E-1,1.0222203E0,5.075298E-1,-1.2629732E-1,-7.961044E-1,4.2468518E-2,-7.355482E-2,2.4977207E-2,1.4685061E-2,4.4979164E-4,-1.1259872E-2,-3.136958E-2,-6.0475767E-2],"categories":[],"categories_nodes":[],"categories_segments":[],"categories_sizes":[],"default_left":[0,0,0,0,0,0,0,0,0,0,0,0,0,0,0],"id":36,"left_children":[1,3,5,7,9,11,13,-1,-1,-1,-1,-1,-1,-1,-1],"loss_changes":[2.7901384E3,1.8790979E2,8.4451843E2,9.870911E1,6.824585E1,1.2522718E2,2.2135132E1,0E0,0E0,0E0,0E0,0E0,0E0,0E0,0E0],"parents":[2147483647,0,0,1,1,2,2,3,3,4,4,5,5,6,6],"right_children":[2,4,6,8,10,12,14,-1,-1,-1,-1,-1,-1,-1,-1],"split_conditions":[1E1,7E0,1.3133333E1,1E0,9E0,1.2E1,1.7E1,4.2468518E-2,-7.355482E-2,2.4977207E-2,1.4685061E-2,4.4979164E-4,-1.1259872E-2,-3.136958E-2,-6.0475767E-2],"split_indices":[0,0,6,5,0,0,0,0,0,0,0,0,0,0,0],"split_type":[0,0,0,0,0,0,0,0,0,0,0,0,0,0,0],"sum_hessian":[1.3669E4,5.033E3,8.636E3,8.56E2,4.177E3,5.864E3,2.772E3,8.45E2,1.1E1,2.277E3,1.9E3,3.109E3,2.755E3,2.729E3,4.3E1],"tree_param":{"num_deleted":"0","num_feature":"15","num_nodes":"15","size_leaf_vector":"1"}},{"base_weights":[-1.1494856E-2,-4.3039066E-1,4.4002232E-1,-2.2366571E-1,-7.426825E-1,6.609866E-1,2.1118475E-1,-5.2097615E-2,-8.499054E-3,-2.7693478E-2,-3.7447333E-2,2.7859092E-2,-1.446581E-2,1.294925E-2,5.6828335E-3],"categories":[],"categories_nodes":[],"categories_segments":[],"categories_sizes":[],"default_left":[0,0,0,0,0,0,1,0,0,0,0,0,0,0,0],"id":37,"left_children":[1,3,5,7,9,11,13,-1,-1,-1,-1,-1,-1,-1,-1],"loss_changes":[2.613139E3,4.6242822E2,3.3597937E2,5.1645203E1,2.6992432E1,1.2303125E2,2.5327667E1,0E0,0E0,0E0,0E0,0E0,0E0,0E0,0E0],"parents":[2147483647,0,0,1,1,2,2,3,3,4,4,5,5,6,6],"right_children":[2,4,6,8,10,12,14,-1,-1,-1,-1,-1,-1,-1,-1],"split_conditions":[1.42E1,1.3066667E1,9E0,1.0466666E1,1.5266666E1,1.3333334E-1,9.066667E0,-5.2097615E-2,-8.499054E-3,-2.7693478E-2,-3.7447333E-2,2.7859092E-2,-1.446581E-2,1.294925E-2,5.6828335E-3],"split_indices":[7,6,6,6,6,8,6,0,0,0,0,0,0,0,0],"split_type":[0,0,0,0,0,0,0,0,0,0,0,0,0,0,0],"sum_hessian":[1.3814E4,7.166E3,6.648E3,4.313E3,2.853E3,3.381E3,3.267E3,4.3E1,4.27E3,2.268E3,5.85E2,3.268E3,1.13E2,1.241E3,2.026E3],"tree_param":{"num_deleted":"0","num_feature":"15","num_nodes":"15","size_leaf_vector":"1"}},{"base_weights":[-5.9994506E-3,-4.1772294E-1,4.4699487E-1,-2.2389251E-1,-7.674395E-1,3.0118692E-1,8.500973E-1,-6.0519855E-3,-1.5930433E-2,-2.9019393E-2,-4.4688523E-2,5.4292814E-3,1.6364995E-2,2.907851E-2,4.757033E-2],"categories":[],"categories_nodes":[],"categories_segments":[],"categories_sizes":[],"default_left":[0,0,1,0,0,0,0,0,0,0,0,0,0,0,0],"id":38,"left_children":[1,3,5,7,9,11,13,-1,-1,-1,-1,-1,-1,-1,-1],"loss_changes":[2.5743728E3,4.8988733E2,3.859016E2,5.8794647E1,3.6836304E1,8.611261E1,7.1819214E1,0E0,0E0,0E0,0E0,0E0,0E0,0E0,0E0],"parents":[2147483647,0,0,1,1,2,2,3,3,4,4,5,5,6,6],"right_children":[2,4,6,8,10,12,14,-1,-1,-1,-1,-1,-1,-1,-1],"split_conditions":[1.4333333E1,1.4E1,1.74E1,1.3E1,6.399405E-1,1.6E1,1.9066668E1,-6.0519855E-3,-1.5930433E-2,-2.9019393E-2,-4.4688523E-2,5.4292814E-3,1.6364995E-2,2.907851E-2,4.757033E-2],"split_indices":[7,0,7,0,9,7,7,0,0,0,0,0,0,0,0],"split_type":[0,0,0,0,0,0,0,0,0,0,0,0,0,0,0],"sum_hessian":[1.3801E4,7.23E3,6.571E3,4.653E3,2.577E3,4.827E3,1.744E3,3.287E3,1.366E3,2.304E3,2.73E2,1.907E3,2.92E3,1.282E3,4.62E2],"tree_param":{"num_deleted":"0","num_feature":"15","num_nodes":"15","size_leaf_vector":"1"}},{"base_weights":[-8.371011E-5,-3.9764497E-1,4.1729298E-1,-7.1098596E-1,-1.8999518E-1,6.568853E-1,2.1050447E-1,-2.793389E-2,-5.729684E-2,-1.0697929E-2,-3.2748415E-3,4.5347475E-2,2.3672793E-2,1.2262503E-2,3.7757372E-3],"categories":[],"categories_nodes":[],"categories_segments":[],"categories_sizes":[],"default_left":[0,0,0,0,0,0,1,0,0,0,0,0,0,0,0],"id":39,"left_children":[1,3,5,7,9,11,13,-1,-1,-1,-1,-1,-1,-1,-1],"loss_changes":[2.2707886E3,4.5581665E2,3.305371E2,2.4253174E1,3.5258636E1,9.508069E1,3.9915924E1,0E0,0E0,0E0,0E0,0E0,0E0,0E0,0E0],"parents":[2147483647,0,0,1,1,2,2,3,3,4,4,5,5,6,6],"right_children":[2,4,6,8,10,12,14,-1,-1,-1,-1,-1,-1,-1,-1],"split_conditions":[1.42E1,1.2E1,9E0,1.7E1,1.3066667E1,6E0,1E1,-2.793389E-2,-5.729684E-2,-1.0697929E-2,-3.2748415E-3,4.5347475E-2,2.3672793E-2,1.2262503E-2,3.7757372E-3],"split_indices":[7,7,3,3,7,3,3,0,0,0,0,0,0,0,0],"split_type":[0,0,0,0,0,0,0,0,0,0,0,0,0,0,0],"sum_hessian":[1.3683E4,7.008E3,6.675E3,2.792E3,4.216E3,3.091E3,3.584E3,2.746E3,4.6E1,2.455E3,1.761E3,3.69E2,2.722E3,1.96E3,1.624E3],"tree_param":{"num_deleted":"0","num_feature":"15","num_nodes":"15","size_leaf_vector":"1"}},{"base_weights":[-1.3546711E-2,-3.8703415E-1,4.0742415E-1,-5.931996E-1,-1.4342348E-1,2.6146904E-1,7.972078E-1,-2.7234383E-2,-1.708587E-2,-9.2079425E-3,-1.4529684E-4,1.3982936E-2,2.3640362E-3,3.2585572E-2,-7.182942E-2],"categories":[],"categories_nodes":[],"categories_segments":[],"categories_sizes":[],"default_left":[0,0,0,0,0,1,0,0,0,0,0,0,0,0,0],"id":40,"left_children":[1,3,5,7,9,11,13,-1,-1,-1,-1,-1,-1,-1,-1],"loss_changes":[2.1565286E3,3.6487012E2,3.6651843E2,5.689148E1,4.0406334E1,8.3612366E1,8.0734375E1,0E0,0E0,0E0,0E0,0E0,0E0,0E0,0E0],"parents":[2147483647,0,0,1,1,2,2,3,3,4,4,5,5,6,6],"right_children":[2,4,6,8,10,12,14,-1,-1,-1,-1,-1,-1,-1,-1],"split_conditions":[1.5E1,1.3E1,1.8E1,1.2E1,2.581989E-1,1E1,1E0,-2.7234383E-2,-1.708587E-2,-9.2079425E-3,-1.4529684E-4,1.3982936E-2,2.3640362E-3,3.2585572E-2,-7.182942E-2],"split_indices":[1,1,1,1,9,3,5,0,0,0,0,0,0,0,0],"split_type":[0,0,0,0,0,0,0,0,0,0,0,0,0,0,0],"sum_hessian":[1.3714E4,7.267E3,6.447E3,3.935E3,3.332E3,4.692E3,1.755E3,2.573E3,1.362E3,2.055E3,1.277E3,3.268E3,1.424E3,1.744E3,1.1E1],"tree_param":{"num_deleted":"0","num_feature":"15","num_nodes":"15","size_leaf_vector":"1"}},{"base_weights":[3.3668147E-3,-3.4651643E-1,3.9916652E-1,-1.770779E-1,-6.5733165E-1,2.6223457E-1,7.8022313E-1,-1.0496946E-2,-8.399455E-4,-2.5193227E-2,-4.348016E-2,1.3712972E-2,3.3064915E-3,3.1970132E-2,-6.984095E-2],"categories":[],"categories_nodes":[],"categories_segments":[],"categories_sizes":[],"default_left":[0,0,1,0,0,0,0,0,0,0,0,0,0,0,0],"id":41,"left_children":[1,3,5,7,9,11,13,-1,-1,-1,-1,-1,-1,-1,-1],"loss_changes":[1.9009707E3,3.8351062E2,3.3577502E2,6.2799896E1,2.9511719E1,6.85249E1,8.312439E1,0E0,0E0,0E0,0E0,0E0,0E0,0E0,0E0],"parents":[2147483647,0,0,1,1,2,2,3,3,4,4,5,5,6,6],"right_children":[2,4,6,8,10,12,14,-1,-1,-1,-1,-1,-1,-1,-1],"split_conditions":[1.5E1,1.4E1,1.8E1,1.4E1,9.4112396E-1,1E1,1E0,-1.0496946E-2,-8.399455E-4,-2.5193227E-2,-4.348016E-2,1.3712972E-2,3.3064915E-3,3.1970132E-2,-6.984095E-2],"split_indices":[4,0,4,4,9,0,2,0,0,0,0,0,0,0,0],"split_type":[0,0,0,0,0,0,0,0,0,0,0,0,0,0,0],"sum_hessian":[1.3725E4,7.285E3,6.44E3,4.716E3,2.569E3,4.739E3,1.701E3,3.048E3,1.668E3,2.417E3,1.52E2,3.27E3,1.469E3,1.689E3,1.2E1],"tree_param":{"num_deleted":"0","num_feature":"15","num_nodes":"15","size_leaf_vector":"1"}},{"base_weights":[-5.823269E-3,-3.6521637E-1,3.7709373E-1,-6.2133986E-1,-2.0765798E-1,6.044651E-1,1.7977047E-1,-3.4609783E-2,-2.3450512E-2,-7.869299E-3,-4.1627903E-2,2.5558386E-2,-1.7800855E-2,3.5692048E-3,9.51969E-3],"categories":[],"categories_nodes":[],"categories_segments":[],"categories_sizes":[],"default_left":[0,0,0,0,0,0,0,0,0,0,0,0,0,0,0],"id":42,"left_children":[1,3,5,7,9,11,13,-1,-1,-1,-1,-1,-1,-1,-1],"loss_changes":[1.874903E3,2.8339886E2,2.957469E2,2.2241943E1,3.928987E1,1.112251E2,1.8569977E1,0E0,0E0,0E0,0E0,0E0,0E0,0E0,0E0],"parents":[2147483647,0,0,1,1,2,2,3,3,4,4,5,5,6,6],"right_children":[2,4,6,8,10,12,14,-1,-1,-1,-1,-1,-1,-1,-1],"split_conditions":[1.42E1,1.18E1,9E0,9.133333E0,1E0,6.666667E-2,1.5133333E1,-3.4609783E-2,-2.3450512E-2,-7.869299E-3,-4.1627903E-2,2.5558386E-2,-1.7800855E-2,3.5692048E-3,9.51969E-3],"split_indices":[7,7,0,7,8,8,7,0,0,0,0,0,0,0,0],"split_type":[0,0,0,0,0,0,0,0,0,0,0,0,0,0,0],"sum_hessian":[1.3622E4,7.027E3,6.595E3,2.675E3,4.352E3,3.063E3,3.532E3,3.33E2,2.342E3,4.297E3,5.5E1,2.966E3,9.7E1,1.384E3,2.148E3],"tree_param":{"num_deleted":"0","num_feature":"15","num_nodes":"15","size_leaf_vector":"1"}},{"base_weights":[-2.0961856E-4,-3.343134E-1,3.7333697E-1,-6.393225E-1,-1.690753E-1,5.768437E-1,2.0953703E-1,-2.4638271E-2,-5.0141003E-2,-1.2936284E-2,-4.2598094E-3,2.0627268E-2,3.9630014E-2,1.2061158E-2,4.7418326E-3],"categories":[],"categories_nodes":[],"categories_segments":[],"categories_sizes":[],"default_left":[0,0,0,0,0,0,1,0,0,0,0,0,0,0,0],"id":43,"left_children":[1,3,5,7,9,11,13,-1,-1,-1,-1,-1,-1,-1,-1],"loss_changes":[1.7100514E3,3.643479E2,2.1544061E2,3.550757E1,4.5248E1,7.234796E1,2.9938705E1,0E0,0E0,0E0,0E0,0E0,0E0,0E0,0E0],"parents":[2147483647,0,0,1,1,2,2,3,3,4,4,5,5,6,6],"right_children":[2,4,6,8,10,12,14,-1,-1,-1,-1,-1,-1,-1,-1],"split_conditions":[1.5E1,1.2E1,8.266666E0,1.0327955E0,1.3E1,2E1,9.066667E0,-2.4638271E-2,-5.0141003E-2,-1.2936284E-2,-4.2598094E-3,2.0627268E-2,3.9630014E-2,1.2061158E-2,4.7418326E-3],"split_indices":[1,1,6,10,1,1,6,0,0,0,0,0,0,0,0],"split_type":[0,0,0,0,0,0,0,0,0,0,0,0,0,0,0],"sum_hessian":[1.37E4,7.232E3,6.468E3,2.54E3,4.692E3,2.883E3,3.585E3,2.449E3,9.1E1,1.352E3,3.34E3,2.514E3,3.69E2,1.781E3,1.804E3],"tree_param":{"num_deleted":"0","num_feature":"15","num_nodes":"15","size_leaf_vector":"1"}},{"base_weights":[2.232371E-3,-3.296508E-1,3.474328E-1,-1.7682013E-1,-5.841091E-1,2.253018E-1,6.98583E-1,-4.8681412E-2,-6.620591E-3,-2.1414513E-2,-2.97505E-2,-5.483832E-2,9.420774E-3,2.8473906E-2,-6.6507764E-2],"categories":[],"categories_nodes":[],"categories_segments":[],"categories_sizes":[],"default_left":[0,0,1,0,0,0,0,0,0,0,0,0,0,0,0],"id":44,"left_children":[1,3,5,7,9,11,13,-1,-1,-1,-1,-1,-1,-1,-1],"loss_changes":[1.5802135E3,2.7328833E2,2.897046E2,5.1345444E1,2.000415E1,8.2052414E1,5.5713318E1,0E0,0E0,0E0,0E0,0E0,0E0,0E0,0E0],"parents":[2147483647,0,0,1,1,2,2,3,3,4,4,5,5,6,6],"right_children":[2,4,6,8,10,12,14,-1,-1,-1,-1,-1,-1,-1,-1],"split_conditions":[1.4133333E1,1.34E1,1.8E1,1.0466666E1,1.5133333E1,8E0,1E0,-4.8681412E-2,-6.620591E-3,-2.1414513E-2,-2.97505E-2,-5.483832E-2,9.420774E-3,2.8473906E-2,-6.6507764E-2],"split_indices":[7,6,4,6,6,3,5,0,0,0,0,0,0,0,0],"split_type":[0,0,0,0,0,0,0,0,0,0,0,0,0,0,0],"sum_hessian":[1.3791E4,7.031E3,6.76E3,4.394E3,2.637E3,5.017E3,1.743E3,4.6E1,4.348E3,2.024E3,6.13E2,3.1E1,4.986E3,1.734E3,9E0],"tree_param":{"num_deleted":"0","num_feature":"15","num_nodes":"15","size_leaf_vector":"1"}},{"base_weights":[1.2492897E-2,-2.9258916E-1,3.533781E-1,-1.4945835E-1,-5.530235E-1,5.329128E-1,1.623962E-1,-8.933213E-3,-5.713936E-4,-5.375842E-2,-2.1711914E-2,2.2459907E-2,-1.4471163E-2,6.3000745E-3,5.675054E-2],"categories":[],"categories_nodes":[],"categories_segments":[],"categories_sizes":[],"default_left":[0,0,0,0,0,0,1,0,0,0,0,0,0,0,0],"id":45,"left_children":[1,3,5,7,9,11,13,-1,-1,-1,-1,-1,-1,-1,-1],"loss_changes":[1.4284172E3,2.7002484E2,2.2226947E2,4.669536E1,1.9867676E1,8.57193E1,1.8957726E1,0E0,0E0,0E0,0E0,0E0,0E0,0E0,0E0],"parents":[2147483647,0,0,1,1,2,2,3,3,4,4,5,5,6,6],"right_children":[2,4,6,8,10,12,14,-1,-1,-1,-1,-1,-1,-1,-1],"split_conditions":[1.5E1,1.3533334E1,8.8E0,1.4E1,9E0,1E0,1.2909944E0,-8.933213E-3,-5.713936E-4,-5.375842E-2,-2.1711914E-2,2.2459907E-2,-1.4471163E-2,6.3000745E-3,5.675054E-2],"split_indices":[1,6,6,1,1,2,10,0,0,0,0,0,0,0,0],"split_type":[0,0,0,0,0,0,0,0,0,0,0,0,0,0,0],"sum_hessian":[1.3733E4,7.247E3,6.486E3,4.678E3,2.569E3,3.342E3,3.144E3,3.024E3,1.654E3,3.1E1,2.538E3,3.239E3,1.03E2,3.133E3,1.1E1],"tree_param":{"num_deleted":"0","num_feature":"15","num_nodes":"15","size_leaf_vector":"1"}},{"base_weights":[-1.0925386E-2,-3.298424E-1,3.2448304E-1,-5.4797155E-1,-1.8408062E-1,5.262213E-1,1.5515435E-1,-2.1466123E-2,-4.7571648E-2,-6.9245473E-3,-3.7157986E-2,1.8423297E-2,3.5721675E-2,7.392369E-3,-1.7414861E-3],"categories":[],"categories_nodes":[],"categories_segments":[],"categories_sizes":[],"default_left":[0,0,0,0,0,0,1,0,0,0,0,0,0,0,0],"id":46,"left_children":[1,3,5,7,9,11,13,-1,-1,-1,-1,-1,-1,-1,-1],"loss_changes":[1.4715519E3,2.2404346E2,2.288935E2,1.9687866E1,3.427536E1,7.3106995E1,2.151094E1,0E0,0E0,0E0,0E0,0E0,0E0,0E0,0E0],"parents":[2147483647,0,0,1,1,2,2,3,3,4,4,5,5,6,6],"right_children":[2,4,6,8,10,12,14,-1,-1,-1,-1,-1,-1,-1,-1],"split_conditions":[1.4133333E1,1.1866667E1,9E0,1.7E1,8.666667E-1,1.9066668E1,6.5465367E-1,-2.1466123E-2,-4.7571648E-2,-6.9245473E-3,-3.7157986E-2,1.8423297E-2,3.5721675E-2,7.392369E-3,-1.7414861E-3],"split_indices":[7,7,0,0,8,7,9,0,0,0,0,0,0,0,0],"split_type":[0,0,0,0,0,0,0,0,0,0,0,0,0,0,0],"sum_hessian":[1.3755E4,7.051E3,6.704E3,2.823E3,4.228E3,3.058E3,3.646E3,2.776E3,4.7E1,4.168E3,6E1,2.596E3,4.62E2,3.173E3,4.73E2],"tree_param":{"num_deleted":"0","num_feature":"15","num_nodes":"15","size_leaf_vector":"1"}},{"base_weights":[-6.242725E-3,-3.752627E-1,2.4592E-1,-2.3664327E-1,-5.384939E-1,4.749638E-1,9.235283E-2,-5.954079E-3,-1.3892753E-2,-1.9671852E-2,-3.7549634E-2,3.4895297E-2,1.6393807E-2,4.126407E-3,-3.9700076E-2],"categories":[],"categories_nodes":[],"categories_segments":[],"categories_sizes":[],"default_left":[0,0,1,0,0,0,0,0,0,0,0,0,0,0,0],"id":47,"left_children":[1,3,5,7,9,11,13,-1,-1,-1,-1,-1,-1,-1,-1],"loss_changes":[1.2728853E3,1.2544281E2,2.8572012E2,2.9096313E1,4.7037537E1,8.390686E1,5.7064472E1,0E0,0E0,0E0,0E0,0E0,0E0,0E0,0E0],"parents":[2147483647,0,0,1,1,2,2,3,3,4,4,5,5,6,6],"right_children":[2,4,6,8,10,12,14,-1,-1,-1,-1,-1,-1,-1,-1],"split_conditions":[1.4E1,1.4E1,8.733334E0,1.3E1,6.399405E-1,6E0,3.3333334E-1,-5.954079E-3,-1.3892753E-2,-1.9671852E-2,-3.7549634E-2,3.4895297E-2,1.6393807E-2,4.126407E-3,-3.9700076E-2],"split_indices":[4,0,6,0,10,6,8,0,0,0,0,0,0,0,0],"split_type":[0,0,0,0,0,0,0,0,0,0,0,0,0,0,0],"sum_hessian":[1.3677E4,5.552E3,8.125E3,3.004E3,2.548E3,3.26E3,4.865E3,1.677E3,1.327E3,2.284E3,2.64E2,4.57E2,2.803E3,4.818E3,4.7E1],"tree_param":{"num_deleted":"0","num_feature":"15","num_nodes":"15","size_leaf_vector":"1"}},{"base_weights":[5.378428E-3,-2.718238E-1,3.2357883E-1,-1.5327126E-1,-4.8697013E-1,4.864728E-1,1.7776191E-1,-1.4647841E-3,-9.640916E-3,-1.8849993E-2,-4.6205014E-2,2.064697E-2,-1.1199448E-2,9.809522E-3,2.4371177E-3],"categories":[],"categories_nodes":[],"categories_segments":[],"categories_sizes":[],"default_left":[0,0,0,0,0,0,1,0,0,0,0,0,0,0,0],"id":48,"left_children":[1,3,5,7,9,11,13,-1,-1,-1,-1,-1,-1,-1,-1],"loss_changes":[1.2096599E3,1.867959E2,1.5150806E2,4.8350754E1,2.663385E1,6.8804504E1,2.652974E1,0E0,0E0,0E0,0E0,0E0,0E0,0E0,0E0],"parents":[2147483647,0,0,1,1,2,2,3,3,4,4,5,5,6,6],"right_children":[2,4,6,8,10,12,14,-1,-1,-1,-1,-1,-1,-1,-1],"split_conditions":[1.5E1,1.4E1,9E0,1.2E1,1.0465362E0,1E0,1E1,-1.4647841E-3,-9.640916E-3,-1.8849993E-2,-4.6205014E-2,2.064697E-2,-1.1199448E-2,9.809522E-3,2.4371177E-3],"split_indices":[1,0,0,6,10,5,6,0,0,0,0,0,0,0,0],"split_type":[0,0,0,0,0,0,0,0,0,0,0,0,0,0,0],"sum_hessian":[1.3712E4,7.328E3,6.384E3,4.726E3,2.602E3,3.014E3,3.37E3,2.03E3,2.696E3,2.544E3,5.8E1,2.902E3,1.12E2,2.135E3,1.235E3],"tree_param":{"num_deleted":"0","num_feature":"15","num_nodes":"15","size_leaf_vector":"1"}},{"base_weights":[1.6042056E-3,-2.634865E-1,2.9925942E-1,-4.366034E-1,-6.21248E-2,2.0246708E-1,5.705685E-1,-2.3467984E-2,-1.3675024E-2,-6.09958E-3,3.314635E-3,2.9850788E-3,1.0320818E-2,2.3493718E-2,-6.528486E-2],"categories":[],"categories_nodes":[],"categories_segments":[],"categories_sizes":[],"default_left":[0,0,0,0,0,0,0,0,0,0,0,0,0,0,0],"id":49,"left_children":[1,3,5,7,9,11,13,-1,-1,-1,-1,-1,-1,-1,-1],"loss_changes":[1.0776967E3,2.5174515E2,1.6876813E2,5.493042E1,4.379351E1,3.3639114E1,6.3335022E1,0E0,0E0,0E0,0E0,0E0,0E0,0E0,0E0],"parents":[2147483647,0,0,1,1,2,2,3,3,4,4,5,5,6,6],"right_children":[2,4,6,8,10,12,14,-1,-1,-1,-1,-1,-1,-1,-1],"split_conditions":[1.5E1,1.3E1,1.8E1,1.1E1,2.581989E-1,1.6E1,1E0,-2.3467984E-2,-1.3675024E-2,-6.09958E-3,3.314635E-3,2.9850788E-3,1.0320818E-2,2.3493718E-2,-6.528486E-2],"split_indices":[1,1,1,1,9,1,2,0,0,0,0,0,0,0,0],"split_type":[0,0,0,0,0,0,0,0,0,0,0,0,0,0,0],"sum_hessian":[1.3656E4,7.223E3,6.433E3,3.883E3,3.34E3,4.743E3,1.69E3,1.5E3,2.383E3,2.058E3,1.282E3,1.438E3,3.305E3,1.678E3,1.2E1],"tree_param":{"num_deleted":"0","num_feature":"15","num_nodes":"15","size_leaf_vector":"1"}},{"base_weights":[-2.0749099E-4,-2.4454713E-1,2.770268E-1,-1.1359413E-1,-4.527221E-1,1.8470868E-1,5.407005E-1,-4.0776846E-3,-3.237238E-2,-1.7778259E-2,-4.3577608E-2,-5.277343E-2,7.784353E-3,2.2342104E-2,-6.3383184E-2],"categories":[],"categories_nodes":[],"categories_segments":[],"categories_sizes":[],"default_left":[0,0,0,0,0,0,0,0,0,0,0,0,0,0,0],"id":50,"left_children":[1,3,5,7,9,11,13,-1,-1,-1,-1,-1,-1,-1,-1],"loss_changes":[9.232837E2,1.9739886E2,1.5525034E2,3.5892094E1,1.4082581E1,7.059024E1,6.3574554E1,0E0,0E0,0E0,0E0,0E0,0E0,0E0,0E0],"parents":[2147483647,0,0,1,1,2,2,3,3,4,4,5,5,6,6],"right_children":[2,4,6,8,10,12,14,-1,-1,-1,-1,-1,-1,-1,-1],"split_conditions":[1.5E1,1.3133333E1,1.8E1,1E0,1.7E1,8E0,1E0,-4.0776846E-3,-3.237238E-2,-1.7778259E-2,-4.3577608E-2,-5.277343E-2,7.784353E-3,2.2342104E-2,-6.3383184E-2],"split_indices":[1,6,1,5,0,0,5,0,0,0,0,0,0,0,0],"split_type":[0,0,0,0,0,0,0,0,0,0,0,0,0,0,0],"sum_hessian":[1.3628E4,7.244E3,6.384E3,4.448E3,2.796E3,4.73E3,1.654E3,4.376E3,7.2E1,2.762E3,3.4E1,3E1,4.7E3,1.641E3,1.3E1],"tree_param":{"num_deleted":"0","num_feature":"15","num_nodes":"15","size_leaf_vector":"1"}},{"base_weights":[5.4492643E-3,-2.2294952E-1,2.7380925E-1,-1.1549791E-1,-4.2756867E-1,8.1431586E-1,2.408719E-1,-7.6105534E-3,-8.6925295E-4,-1.5787665E-2,-3.015652E-2,3.4721646E-2,-6.582408E-2,1.4070653E-2,5.895968E-3],"categories":[],"categories_nodes":[],"categories_segments":[],"categories_sizes":[],"default_left":[0,0,0,0,0,0,0,0,0,0,0,0,0,0,0],"id":51,"left_children":[1,3,5,7,9,11,13,-1,-1,-1,-1,-1,-1,-1,-1],"loss_changes":[8.369008E2,1.6206995E2,1.1146466E2,3.3891685E1,2.6829071E1,4.8928223E1,6.125226E1,0E0,0E0,0E0,0E0,0E0,0E0,0E0,0E0],"parents":[2147483647,0,0,1,1,2,2,3,3,4,4,5,5,6,6],"right_children":[2,4,6,8,10,12,14,-1,-1,-1,-1,-1,-1,-1,-1],"split_conditions":[1.48E1,1.4E1,6E0,1.3066667E1,7.5592893E-1,1.0465362E0,9E0,-7.6105534E-3,-8.6925295E-4,-1.5787665E-2,-3.015652E-2,3.4721646E-2,-6.582408E-2,1.4070653E-2,5.895968E-3],"split_indices":[7,0,0,7,9,9,0,0,0,0,0,0,0,0,0],"split_type":[0,0,0,0,0,0,0,0,0,0,0,0,0,0,0],"sum_hessian":[1.3652E4,7.375E3,6.277E3,4.837E3,2.538E3,3.59E2,5.918E3,2.69E3,2.147E3,2.308E3,2.3E2,3.52E2,7E0,2.705E3,3.213E3],"tree_param":{"num_deleted":"0","num_feature":"15","num_nodes":"15","size_leaf_vector":"1"}},{"base_weights":[-2.171079E-3,-2.4169394E-1,2.6537934E-1,-3.8607144E-1,-6.93058E-2,2.110498E-1,6.3461643E-1,-1.10876495E-2,-1.7662158E-2,-2.1448433E-3,-2.9760016E-2,2.4692246E-3,1.0480391E-2,1.6954549E-2,3.6901344E-2],"categories":[],"categories_nodes":[],"categories_segments":[],"categories_sizes":[],"default_left":[0,0,0,0,0,0,0,0,0,0,0,0,0,0,0],"id":52,"left_children":[1,3,5,7,9,11,13,-1,-1,-1,-1,-1,-1,-1,-1],"loss_changes":[8.818637E2,1.8064655E2,1.3017462E2,2.3673462E1,3.4918636E1,4.3080963E1,5.0020203E1,0E0,0E0,0E0,0E0,0E0,0E0,0E0,0E0],"parents":[2147483647,0,0,1,1,2,2,3,3,4,4,5,5,6,6],"right_children":[2,4,6,8,10,12,14,-1,-1,-1,-1,-1,-1,-1,-1],"split_conditions":[1.5E1,1.3E1,1.9E1,1.4E1,1E0,1.6E1,2.581989E-1,-1.10876495E-2,-1.7662158E-2,-2.1448433E-3,-2.9760016E-2,2.4692246E-3,1.0480391E-2,1.6954549E-2,3.6901344E-2],"split_indices":[1,1,1,3,2,1,10,0,0,0,0,0,0,0,0],"split_type":[0,0,0,0,0,0,0,0,0,0,0,0,0,0,0],"sum_hessian":[1.3759E4,7.26E3,6.499E3,3.95E3,3.31E3,5.667E3,8.32E2,1.336E3,2.614E3,3.236E3,7.4E1,1.443E3,4.224E3,4.82E2,3.5E2],"tree_param":{"num_deleted":"0","num_feature":"15","num_nodes":"15","size_leaf_vector":"1"}},{"base_weights":[-5.5002924E-3,-2.1991785E-1,2.3726253E-1,-1.0310478E-1,-4.3100572E-1,1.5752016E-1,4.5078802E-1,-3.7855809E-3,-3.3301156E-2,-1.6137095E-2,-3.563138E-2,-6.1248746E-2,6.9205654E-3,1.8614678E-2,-6.1594665E-2],"categories":[],"categories_nodes":[],"categories_segments":[],"categories_sizes":[],"default_left":[0,0,0,0,0,0,0,0,0,0,0,0,0,0,0],"id":53,"left_children":[1,3,5,7,9,11,13,-1,-1,-1,-1,-1,-1,-1,-1],"loss_changes":[7.199901E2,1.8101385E2,1.1032248E2,2.9035126E1,3.2681946E1,1.23759964E2,5.1774292E1,0E0,0E0,0E0,0E0,0E0,0E0,0E0,0E0],"parents":[2147483647,0,0,1,1,2,2,3,3,4,4,5,5,6,6],"right_children":[2,4,6,8,10,12,14,-1,-1,-1,-1,-1,-1,-1,-1],"split_conditions":[1.46E1,1.4E1,1.8E1,1E0,9.4112396E-1,8E0,1E0,-3.7855809E-3,-3.3301156E-2,-1.6137095E-2,-3.563138E-2,-6.1248746E-2,6.9205654E-3,1.8614678E-2,-6.1594665E-2],"split_indices":[7,0,1,2,10,0,2,0,0,0,0,0,0,0,0],"split_type":[0,0,0,0,0,0,0,0,0,0,0,0,0,0,0],"sum_hessian":[1.383E4,7.344E3,6.486E3,4.729E3,2.615E3,4.724E3,1.762E3,4.676E3,5.3E1,2.469E3,1.46E2,4.2E1,4.682E3,1.75E3,1.2E1],"tree_param":{"num_deleted":"0","num_feature":"15","num_nodes":"15","size_leaf_vector":"1"}},{"base_weights":[1.630921E-2,-1.9735697E-1,2.440437E-1,-8.146065E-2,-3.689044E-1,3.9029512E-1,1.3748926E-1,-3.6217175E-2,-2.926002E-3,-1.3646441E-2,-2.3839124E-2,1.7638532E-2,-7.0484343E-4,6.2595084E-3,-5.6760875E-3],"categories":[],"categories_nodes":[],"categories_segments":[],"categories_sizes":[],"default_left":[0,0,0,0,0,0,1,0,0,0,0,0,0,0,0],"id":54,"left_children":[1,3,5,7,9,11,13,-1,-1,-1,-1,-1,-1,-1,-1],"loss_changes":[6.677538E2,1.4068744E2,1.0341632E2,2.8781012E1,1.7682556E1,5.790085E1,2.0432953E1,0E0,0E0,0E0,0E0,0E0,0E0,0E0,0E0],"parents":[2147483647,0,0,1,1,2,2,3,3,4,4,5,5,6,6],"right_children":[2,4,6,8,10,12,14,-1,-1,-1,-1,-1,-1,-1,-1],"split_conditions":[1.4266666E1,1.3066667E1,8.066667E0,1.04E1,1.6E1,5.345225E-1,9.10259E-1,-3.6217175E-2,-2.926002E-3,-1.3646441E-2,-2.3839124E-2,1.7638532E-2,-7.0484343E-4,6.2595084E-3,-5.6760875E-3],"split_indices":[7,6,6,6,6,9,9,0,0,0,0,0,0,0,0],"split_type":[0,0,0,0,0,0,0,0,0,0,0,0,0,0,0],"sum_hessian":[1.3721E4,7.079E3,6.642E3,4.226E3,2.853E3,2.798E3,3.844E3,4.1E1,4.185E3,2.545E3,3.08E2,2.489E3,3.09E2,3.6E3,2.44E2],"tree_param":{"num_deleted":"0","num_feature":"15","num_nodes":"15","size_leaf_vector":"1"}},{"base_weights":[-8.149102E-3,-2.7812383E-1,1.8157321E-1,-3.5157344E-1,-1.12971894E-1,3.6771116E-1,6.961968E-2,-1.1836333E-2,-1.8067773E-2,-5.010927E-3,2.3610977E-2,1.2541418E-2,2.9686343E-2,3.1235926E-3,-3.470528E-2],"categories":[],"categories_nodes":[],"categories_segments":[],"categories_sizes":[],"default_left":[0,0,1,0,0,0,0,0,0,0,0,0,0,0,0],"id":55,"left_children":[1,3,5,7,9,11,13,-1,-1,-1,-1,-1,-1,-1,-1],"loss_changes":[7.0193097E2,6.852304E1,1.6764133E2,2.1605255E1,1.5105862E1,6.096588E1,3.9896416E1,0E0,0E0,0E0,0E0,0E0,0E0,0E0,0E0],"parents":[2147483647,0,0,1,1,2,2,3,3,4,4,5,5,6,6],"right_children":[2,4,6,8,10,12,14,-1,-1,-1,-1,-1,-1,-1,-1],"split_conditions":[1.4E1,1.3E1,8.466666E0,3.5186577E-1,1.0465362E0,2E1,6E-1,-1.1836333E-2,-1.8067773E-2,-5.010927E-3,2.3610977E-2,1.2541418E-2,2.9686343E-2,3.1235926E-3,-3.470528E-2],"split_indices":[1,1,6,10,9,1,8,0,0,0,0,0,0,0,0],"split_type":[0,0,0,0,0,0,0,0,0,0,0,0,0,0,0],"sum_hessian":[1.3702E4,5.655E3,8.047E3,3.913E3,1.742E3,3.021E3,5.026E3,2.518E3,1.395E3,1.713E3,2.9E1,2.641E3,3.8E2,4.982E3,4.4E1],"tree_param":{"num_deleted":"0","num_feature":"15","num_nodes":"15","size_leaf_vector":"1"}},{"base_weights":[4.2078104E-3,-2.0917462E-1,2.3213004E-1,-1.1489647E-1,-3.9051896E-1,1.5745457E-1,4.4054937E-1,-4.214471E-3,-4.4220842E-2,-1.5192699E-2,-3.719277E-2,-5.192331E-2,6.732285E-3,1.846577E-2,-4.0807262E-2],"categories":[],"categories_nodes":[],"categories_segments":[],"categories_sizes":[],"default_left":[0,0,0,0,0,0,0,0,0,0,0,0,0,0,0],"id":56,"left_children":[1,3,5,7,9,11,13,-1,-1,-1,-1,-1,-1,-1,-1],"loss_changes":[6.634267E2,1.2035162E2,1.02529724E2,4.3560295E1,1.3418976E1,7.6843956E1,5.400058E1,0E0,0E0,0E0,0E0,0E0,0E0,0E0,0E0],"parents":[2147483647,0,0,1,1,2,2,3,3,4,4,5,5,6,6],"right_children":[2,4,6,8,10,12,14,-1,-1,-1,-1,-1,-1,-1,-1],"split_conditions":[1.4333333E1,1.38E1,1.8E1,1.5E1,1.7E1,8E0,1.0465362E0,-4.214471E-3,-4.4220842E-2,-1.5192699E-2,-3.719277E-2,-5.192331E-2,6.732285E-3,1.846577E-2,-4.0807262E-2],"split_indices":[7,6,1,0,0,0,9,0,0,0,0,0,0,0,0],"split_type":[0,0,0,0,0,0,0,0,0,0,0,0,0,0,0],"sum_hessian":[1.3639E4,7.044E3,6.595E3,4.636E3,2.408E3,4.857E3,1.738E3,4.593E3,4.3E1,2.363E3,4.5E1,3.5E1,4.822E3,1.714E3,2.4E1],"tree_param":{"num_deleted":"0","num_feature":"15","num_nodes":"15","size_leaf_vector":"1"}},{"base_weights":[8.5717555E-5,2.7124175E-1,-1.5528642E-1,6.7661244E-1,2.381145E-1,-3.3118817E-1,-7.966341E-2,3.6233503E-2,-6.878842E-4,1.2518977E-2,5.3772144E-3,-2.0422945E-2,-1.2276447E-2,-2.9714485E-3,-4.6272803E-2],"categories":[],"categories_nodes":[],"categories_segments":[],"categories_sizes":[],"default_left":[0,0,0,0,0,0,0,0,0,0,0,0,0,0,0],"id":57,"left_children":[1,3,5,7,9,11,13,-1,-1,-1,-1,-1,-1,-1,-1],"loss_changes":[5.7525586E2,6.654233E1,1.1539581E2,5.9743927E1,3.56174E1,1.1123566E1,3.4960445E1,0E0,0E0,0E0,0E0,0E0,0E0,0E0,0E0],"parents":[2147483647,0,0,1,1,2,2,3,3,4,4,5,5,6,6],"right_children":[2,4,6,8,10,12,14,-1,-1,-1,-1,-1,-1,-1,-1],"split_conditions":[1E1,6E0,1.16E1,2.0533333E1,9E0,9.066667E0,1.5E1,3.6233503E-2,-6.878842E-4,1.2518977E-2,5.3772144E-3,-2.0422945E-2,-1.2276447E-2,-2.9714485E-3,-4.6272803E-2],"split_indices":[0,0,7,7,0,7,0,0,0,0,0,0,0,0,0],"split_type":[0,0,0,0,0,0,0,0,0,0,0,0,0,0,0],"sum_hessian":[1.3652E4,4.973E3,8.679E3,3.74E2,4.599E3,2.608E3,6.071E3,2.81E2,9.3E1,2.669E3,1.93E3,3.08E2,2.3E3,6.042E3,2.9E1],"tree_param":{"num_deleted":"0","num_feature":"15","num_nodes":"15","size_leaf_vector":"1"}},{"base_weights":[-3.3465768E-3,1.6075183E-1,-2.4017037E-1,3.2782885E-1,4.6484202E-2,-1.3272068E-1,-3.4769043E-1,1.4954761E-2,3.7112835E-4,2.2436301E-3,-2.7502155E-2,-4.1241157E-3,-1.3705013E-2,-1.3625393E-2,-3.0794404E-2],"categories":[],"categories_nodes":[],"categories_segments":[],"categories_sizes":[],"default_left":[0,1,0,1,0,0,0,0,0,0,0,0,0,0,0],"id":58,"left_children":[1,3,5,7,9,11,13,-1,-1,-1,-1,-1,-1,-1,-1],"loss_changes":[5.3207294E2,1.5434029E2,6.4648834E1,4.8121735E1,3.3851185E1,1.7358536E1,7.96698E0,0E0,0E0,0E0,0E0,0E0,0E0,0E0,0E0],"parents":[2147483647,0,0,1,1,2,2,3,3,4,4,5,5,6,6],"right_children":[2,4,6,8,10,12,14,-1,-1,-1,-1,-1,-1,-1,-1],"split_conditions":[1.2E1,8.866667E0,1.3133333E1,5.345225E-1,1E0,5.9361684E-1,1.7E1,1.4954761E-2,3.7112835E-4,2.2436301E-3,-2.7502155E-2,-4.1241157E-3,-1.3705013E-2,-1.3625393E-2,-3.0794404E-2],"split_indices":[0,6,6,9,2,10,0,0,0,0,0,0,0,0,0],"split_type":[0,0,0,0,0,0,0,0,0,0,0,0,0,0,0],"sum_hessian":[1.3689E4,8.086E3,5.603E3,3.283E3,4.803E3,2.804E3,2.799E3,2.868E3,4.15E2,4.742E3,6.1E1,2.459E3,3.45E2,2.755E3,4.4E1],"tree_param":{"num_deleted":"0","num_feature":"15","num_nodes":"15","size_leaf_vector":"1"}},{"base_weights":[8.728969E-3,-1.7177148E-1,2.0541361E-1,-2.7823842E-1,-4.3947544E-2,1.6474745E-1,4.8005325E-1,-1.0727578E-2,-3.0744936E-2,-1.2477252E-3,-2.8054327E-2,6.95151E-3,-9.568332E-3,2.09929E-2,-3.6012534E-2],"categories":[],"categories_nodes":[],"categories_segments":[],"categories_sizes":[],"default_left":[0,0,0,0,0,1,0,0,0,0,0,0,0,0,0],"id":59,"left_children":[1,3,5,7,9,11,13,-1,-1,-1,-1,-1,-1,-1,-1],"loss_changes":[4.8939365E2,9.777721E1,7.353528E1,1.901236E1,2.7306683E1,2.1026062E1,5.2963226E1,0E0,0E0,0E0,0E0,0E0,0E0,0E0,0E0],"parents":[2147483647,0,0,1,1,2,2,3,3,4,4,5,5,6,6],"right_children":[2,4,6,8,10,12,14,-1,-1,-1,-1,-1,-1,-1,-1],"split_conditions":[1.4333333E1,1.3E1,1.9E1,1.0600989E0,6.666667E-2,3.3333334E-1,9.7590005E-1,-1.0727578E-2,-3.0744936E-2,-1.2477252E-3,-2.8054327E-2,6.95151E-3,-9.568332E-3,2.09929E-2,-3.6012534E-2],"split_indices":[7,1,1,9,8,8,9,0,0,0,0,0,0,0,0],"split_type":[0,0,0,0,0,0,0,0,0,0,0,0,0,0,0],"sum_hessian":[1.3783E4,7.187E3,6.596E3,3.92E3,3.267E3,5.747E3,8.49E2,3.843E3,7.7E1,3.206E3,6.1E1,5.622E3,1.25E2,8.23E2,2.6E1],"tree_param":{"num_deleted":"0","num_feature":"15","num_nodes":"15","size_leaf_vector":"1"}},{"base_weights":[-1.8091965E-3,-1.3240358E-1,2.4691096E-1,-3.7589446E-2,-2.540002E-1,6.063175E-1,2.1025838E-1,-1.2076622E-3,-2.470244E-2,-9.154083E-3,-1.9666985E-2,3.3656182E-3,3.1884097E-2,8.899162E-3,-1.1277847E-2],"categories":[],"categories_nodes":[],"categories_segments":[],"categories_sizes":[],"default_left":[0,0,0,0,0,0,0,0,0,0,0,0,0,0,0],"id":60,"left_children":[1,3,5,7,9,11,13,-1,-1,-1,-1,-1,-1,-1,-1],"loss_changes":[4.493697E2,1.04553085E2,6.253473E1,2.1794168E1,2.3568298E1,4.367914E1,2.6065933E1,0E0,0E0,0E0,0E0,0E0,0E0,0E0,0E0],"parents":[2147483647,0,0,1,1,2,2,3,3,4,4,5,5,6,6],"right_children":[2,4,6,8,10,12,14,-1,-1,-1,-1,-1,-1,-1,-1],"split_conditions":[1.5933333E1,1.3E1,6E0,1E0,8.164966E-1,4.9333334E0,1E0,-1.2076622E-3,-2.470244E-2,-9.154083E-3,-1.9666985E-2,3.3656182E-3,3.1884097E-2,8.899162E-3,-1.1277847E-2],"split_indices":[7,3,6,2,10,6,2,0,0,0,0,0,0,0,0],"split_type":[0,0,0,0,0,0,0,0,0,0,0,0,0,0,0],"sum_hessian":[1.3833E4,9.071E3,4.762E3,5.098E3,3.973E3,4.39E2,4.323E3,5.035E3,6.3E1,3.595E3,3.78E2,1.18E2,3.21E2,4.219E3,1.04E2],"tree_param":{"num_deleted":"0","num_feature":"15","num_nodes":"15","size_leaf_vector":"1"}},{"base_weights":[-7.6652523E-3,2.4961546E-1,-1.4184652E-1,2.0166045E-1,4.672759E-1,-6.4147E-2,-3.378036E-1,-6.1871685E-2,8.340338E-3,9.195434E-3,3.1617068E-2,-2.3477215E-3,-2.6784934E-2,-1.2171623E-2,-2.4779176E-2],"categories":[],"categories_nodes":[],"categories_segments":[],"categories_sizes":[],"default_left":[1,0,0,0,0,0,0,0,0,0,0,0,0,0,0],"id":61,"left_children":[1,3,5,7,9,11,13,-1,-1,-1,-1,-1,-1,-1,-1],"loss_changes":[4.7035577E2,4.8583923E1,1.3628494E2,4.6034866E1,6.4308426E1,2.1068472E1,2.3715118E1,0E0,0E0,0E0,0E0,0E0,0E0,0E0,0E0],"parents":[2147483647,0,0,1,1,2,2,3,3,4,4,5,5,6,6],"right_children":[2,4,6,8,10,12,14,-1,-1,-1,-1,-1,-1,-1,-1],"split_conditions":[9.066667E0,1.9E1,1.4E1,7E0,2.581989E-1,1E0,7.0373154E-1,-6.1871685E-2,8.340338E-3,9.195434E-3,3.1617068E-2,-2.3477215E-3,-2.6784934E-2,-1.2171623E-2,-2.4779176E-2],"split_indices":[6,1,0,0,9,2,9,0,0,0,0,0,0,0,0],"split_type":[0,0,0,0,0,0,0,0,0,0,0,0,0,0,0],"sum_hessian":[1.3623E4,4.669E3,8.954E3,3.828E3,8.41E2,6.413E3,2.541E3,1.4E1,3.814E3,4.86E2,3.55E2,6.357E3,5.6E1,2.273E3,2.68E2],"tree_param":{"num_deleted":"0","num_feature":"15","num_nodes":"15","size_leaf_vector":"1"}},{"base_weights":[-5.2410143E-4,2.276558E-1,-1.1851978E-1,5.1238745E-1,2.0310105E-1,-4.8052013E-2,-2.9580605E-1,-2.311693E-3,2.7183203E-2,8.544575E-3,-7.967369E-3,-1.6348496E-3,-2.7152054E-2,-2.9171666E-2,-1.1314837E-2],"categories":[],"categories_nodes":[],"categories_segments":[],"categories_sizes":[],"default_left":[1,0,0,0,1,0,0,0,0,0,0,0,0,0,0],"id":62,"left_children":[1,3,5,7,9,11,13,-1,-1,-1,-1,-1,-1,-1,-1],"loss_changes":[3.661319E2,3.223004E1,1.11938354E2,3.5087517E1,1.8099136E1,2.8960072E1,1.3985199E1,0E0,0E0,0E0,0E0,0E0,0E0,0E0,0E0],"parents":[2147483647,0,0,1,1,2,2,3,3,4,4,5,5,6,6],"right_children":[2,4,6,8,10,12,14,-1,-1,-1,-1,-1,-1,-1,-1],"split_conditions":[9.066667E0,6E0,1.4E1,4.4666667E0,1E0,1E0,1.3066667E1,-2.311693E-3,2.7183203E-2,8.544575E-3,-7.967369E-3,-1.6348496E-3,-2.7152054E-2,-2.9171666E-2,-1.1314837E-2],"split_indices":[6,0,0,6,5,5,6,0,0,0,0,0,0,0,0],"split_type":[0,0,0,0,0,0,0,0,0,0,0,0,0,0,0],"sum_hessian":[1.3597E4,4.634E3,8.963E3,3.66E2,4.268E3,6.415E3,2.548E3,8.3E1,2.83E2,4.16E3,1.08E2,6.344E3,7.1E1,7.2E1,2.476E3],"tree_param":{"num_deleted":"0","num_feature":"15","num_nodes":"15","size_leaf_vector":"1"}},{"base_weights":[1.1763547E-2,1.309783E-1,-1.8197788E-1,2.8498417E-1,5.2860774E-2,-9.096662E-2,-2.6334628E-1,1.2289379E-2,-1.4376419E-2,2.3361868E-3,-1.903074E-2,-6.511056E-3,1.5933646E-3,-9.154562E-3,-1.657732E-2],"categories":[],"categories_nodes":[],"categories_segments":[],"categories_sizes":[],"default_left":[1,0,0,0,1,0,0,0,0,0,0,0,0,0,0],"id":63,"left_children":[1,3,5,7,9,11,13,-1,-1,-1,-1,-1,-1,-1,-1],"loss_changes":[3.1457455E2,1.0139282E2,3.836003E1,4.0781967E1,1.6386057E1,2.3040459E1,1.410527E1,0E0,0E0,0E0,0E0,0E0,0E0,0E0,0E0],"parents":[2147483647,0,0,1,1,2,2,3,3,4,4,5,5,6,6],"right_children":[2,4,6,8,10,12,14,-1,-1,-1,-1,-1,-1,-1,-1],"split_conditions":[1.2E1,8.2E0,1.3133333E1,1E0,1E0,1.2933333E1,1.54E1,1.2289379E-2,-1.4376419E-2,2.3361868E-3,-1.903074E-2,-6.511056E-3,1.5933646E-3,-9.154562E-3,-1.657732E-2],"split_indices":[6,6,6,5,8,6,6,0,0,0,0,0,0,0,0],"split_type":[0,0,0,0,0,0,0,0,0,0,0,0,0,0,0],"sum_hessian":[1.3618E4,8.431E3,5.187E3,2.836E3,5.595E3,2.45E3,2.737E3,2.742E3,9.4E1,5.538E3,5.7E1,1.582E3,8.68E2,2.231E3,5.06E2],"tree_param":{"num_deleted":"0","num_feature":"15","num_nodes":"15","size_leaf_vector":"1"}},{"base_weights":[-6.624024E-3,-1.6068102E-1,1.6412589E-1,-2.6725268E-1,-9.955687E-2,9.707184E-2,3.495746E-1,-1.50697725E-2,-9.385589E-3,-2.7540713E-3,-1.3138283E-2,3.6894165E-3,3.3289917E-2,8.114901E-3,2.138873E-2],"categories":[],"categories_nodes":[],"categories_segments":[],"categories_sizes":[],"default_left":[0,0,0,0,0,1,0,0,0,0,0,0,0,0,0],"id":64,"left_children":[1,3,5,7,9,11,13,-1,-1,-1,-1,-1,-1,-1,-1],"loss_changes":[3.6106512E2,4.694249E1,8.0873825E1,9.238235E0,3.2183964E1,1.6837345E1,4.6751892E1,0E0,0E0,0E0,0E0,0E0,0E0,0E0,0E0],"parents":[2147483647,0,0,1,1,2,2,3,3,4,4,5,5,6,6],"right_children":[2,4,6,8,10,12,14,-1,-1,-1,-1,-1,-1,-1,-1],"split_conditions":[1.5E1,1.1666667E1,1.8E1,9.933333E0,7.0373154E-1,1.183216E0,2.581989E-1,-1.50697725E-2,-9.385589E-3,-2.7540713E-3,-1.3138283E-2,3.6894165E-3,3.3289917E-2,8.114901E-3,2.138873E-2],"split_indices":[1,7,1,7,10,10,10,0,0,0,0,0,0,0,0],"split_type":[0,0,0,0,0,0,0,0,0,0,0,0,0,0,0],"sum_hessian":[1.3724E4,7.215E3,6.509E3,2.628E3,4.587E3,4.782E3,1.727E3,6E2,2.028E3,4.046E3,5.41E2,4.752E3,3E1,9.65E2,7.62E2],"tree_param":{"num_deleted":"0","num_feature":"15","num_nodes":"15","size_leaf_vector":"1"}},{"base_weights":[5.805086E-3,2.2252241E-1,-1.0920981E-1,2.3490569E-1,-2.8355107E-1,-4.644044E-2,-2.6577055E-1,6.8257246E-3,1.4123671E-2,-7.097574E-2,2.571746E-2,-3.0763168E-2,-1.7070464E-3,-1.0055029E-2,-3.2930087E-2],"categories":[],"categories_nodes":[],"categories_segments":[],"categories_sizes":[],"default_left":[1,0,0,1,0,0,0,0,0,0,0,0,0,0,0],"id":65,"left_children":[1,3,5,7,9,11,13,-1,-1,-1,-1,-1,-1,-1,-1],"loss_changes":[3.4234055E2,2.9904465E1,8.812624E1,3.519626E1,1.5871614E2,1.7311699E1,2.0285355E1,0E0,0E0,0E0,0E0,0E0,0E0,0E0,0E0],"parents":[2147483647,0,0,1,1,2,2,3,3,4,4,5,5,6,6],"right_children":[2,4,6,8,10,12,14,-1,-1,-1,-1,-1,-1,-1,-1],"split_conditions":[9.133333E0,1E0,1.4E1,2.581989E-1,7.4E0,-1E0,1.0465362E0,6.8257246E-3,1.4123671E-2,-7.097574E-2,2.571746E-2,-3.0763168E-2,-1.7070464E-3,-1.0055029E-2,-3.2930087E-2],"split_indices":[6,2,0,9,6,13,9,0,0,0,0,0,0,0,0],"split_type":[0,0,0,0,0,0,0,0,0,0,0,0,0,0,0],"sum_hessian":[1.3732E4,4.761E3,8.971E3,4.648E3,1.13E2,6.405E3,2.566E3,3.013E3,1.635E3,4.3E1,7E1,3.2E1,6.373E3,2.503E3,6.3E1],"tree_param":{"num_deleted":"0","num_feature":"15","num_nodes":"15","size_leaf_vector":"1"}},{"base_weights":[-4.8501394E-3,-1.4765018E-1,1.563738E-1,-1.1076954E-1,-2.8822163E-1,1.3074477E-1,4.9618715E-1,-2.8468375E-3,-6.671088E-3,-9.760333E-3,-2.5950741E-2,5.954142E-3,-7.2319326E-3,2.5881378E-2,3.387096E-4],"categories":[],"categories_nodes":[],"categories_segments":[],"categories_sizes":[],"default_left":[0,0,1,0,0,1,0,0,0,0,0,0,0,0,0],"id":66,"left_children":[1,3,5,7,9,11,13,-1,-1,-1,-1,-1,-1,-1,-1],"loss_changes":[3.1356952E2,3.7374832E1,5.5584473E1,1.2659164E1,2.3663857E1,3.3591644E1,3.2888855E1,0E0,0E0,0E0,0E0,0E0,0E0,0E0,0E0],"parents":[2147483647,0,0,1,1,2,2,3,3,4,4,5,5,6,6],"right_children":[2,4,6,8,10,12,14,-1,-1,-1,-1,-1,-1,-1,-1],"split_conditions":[1.46E1,1.5E1,1.9066668E1,1.3E1,1.04E1,9.10259E-1,2.02E1,-2.8468375E-3,-6.671088E-3,-9.760333E-3,-2.5950741E-2,5.954142E-3,-7.2319326E-3,2.5881378E-2,3.387096E-4],"split_indices":[7,0,7,0,7,9,7,0,0,0,0,0,0,0,0],"split_type":[0,0,0,0,0,0,0,0,0,0,0,0,0,0,0],"sum_hessian":[1.3618E4,7.222E3,6.396E3,5.723E3,1.499E3,5.949E3,4.47E2,3.355E3,2.368E3,1.337E3,1.62E2,5.623E3,3.26E2,3.41E2,1.06E2],"tree_param":{"num_deleted":"0","num_feature":"15","num_nodes":"15","size_leaf_vector":"1"}},{"base_weights":[-3.232019E-3,-1.5740855E-1,1.0121474E-1,-2.3282069E-1,-9.4708614E-2,5.3873703E-2,2.7943453E-1,-8.75939E-3,-3.208771E-2,-4.096693E-3,1.3492625E-2,-3.0695163E-2,2.4583105E-3,1.3020447E-2,-2.0662462E-2],"categories":[],"categories_nodes":[],"categories_segments":[],"categories_sizes":[],"default_left":[0,0,0,0,0,0,0,0,0,0,0,0,0,0,0],"id":67,"left_children":[1,3,5,7,9,11,13,-1,-1,-1,-1,-1,-1,-1,-1],"loss_changes":[2.2057152E2,2.610234E1,6.884061E1,1.9495514E1,1.0078703E1,4.0168613E1,6.2976486E1,0E0,0E0,0E0,0E0,0E0,0E0,0E0,0E0],"parents":[2147483647,0,0,1,1,2,2,3,3,4,4,5,5,6,6],"right_children":[2,4,6,8,10,12,14,-1,-1,-1,-1,-1,-1,-1,-1],"split_conditions":[1.4E1,1.2E1,1.8E1,1.0555973E0,1.0465362E0,8E0,8.618916E-1,-8.75939E-3,-3.208771E-2,-4.096693E-3,1.3492625E-2,-3.0695163E-2,2.4583105E-3,1.3020447E-2,-2.0662462E-2],"split_indices":[1,1,1,9,9,3,9,0,0,0,0,0,0,0,0],"split_type":[0,0,0,0,0,0,0,0,0,0,0,0,0,0,0],"sum_hessian":[1.3695E4,5.531E3,8.164E3,2.509E3,3.022E3,6.452E3,1.712E3,2.451E3,5.8E1,2.97E3,5.2E1,5.8E1,6.394E3,1.619E3,9.3E1],"tree_param":{"num_deleted":"0","num_feature":"15","num_nodes":"15","size_leaf_vector":"1"}},{"base_weights":[6.3526037E-4,-1.6294234E-1,1.13901265E-1,-2.8848368E-1,-1.16894424E-1,2.2485332E-1,4.1043255E-2,-2.121762E-2,-9.8046195E-3,-3.6278537E-3,-8.344909E-3,9.730793E-3,-1.1492771E-2,1.9317027E-3,-2.4865424E-2],"categories":[],"categories_nodes":[],"categories_segments":[],"categories_sizes":[],"default_left":[0,0,1,0,0,0,0,0,0,0,0,0,0,0,0],"id":68,"left_children":[1,3,5,7,9,11,13,-1,-1,-1,-1,-1,-1,-1,-1],"loss_changes":[2.5469653E2,3.2437622E1,6.5628456E1,1.5616211E1,9.84473E0,3.0428452E1,2.3536156E1,0E0,0E0,0E0,0E0,0E0,0E0,0E0,0E0],"parents":[2147483647,0,0,1,1,2,2,3,3,4,4,5,5,6,6],"right_children":[2,4,6,8,10,12,14,-1,-1,-1,-1,-1,-1,-1,-1],"split_conditions":[1.4E1,1.1E1,8.666667E0,1.5E1,1.3933333E1,1E0,1E0,-2.121762E-2,-9.8046195E-3,-3.6278537E-3,-8.344909E-3,9.730793E-3,-1.1492771E-2,1.9317027E-3,-2.4865424E-2],"split_indices":[1,1,6,6,6,2,2,0,0,0,0,0,0,0,0],"split_type":[0,0,0,0,0,0,0,0,0,0,0,0,0,0,0],"sum_hessian":[1.3745E4,5.623E3,8.122E3,1.507E3,4.116E3,3.218E3,4.904E3,2.27E2,1.28E3,3.204E3,9.12E2,3.107E3,1.11E2,4.852E3,5.2E1],"tree_param":{"num_deleted":"0","num_feature":"15","num_nodes":"15","size_leaf_vector":"1"}},{"base_weights":[-1.0381488E-2,1.0071298E-1,-1.689511E-1,2.2167915E-1,2.6154771E-2,-1.5172605E-1,-3.1401226E-1,1.8946452E-2,7.0885364E-3,7.2975724E-4,2.5947744E-2,9.5146345E-3,-6.6985507E-3,-1.182322E-2,-6.458764E-2],"categories":[],"categories_nodes":[],"categories_segments":[],"categories_sizes":[],"default_left":[0,1,0,0,0,0,0,0,0,0,0,0,0,0,0],"id":69,"left_children":[1,3,5,7,9,11,13,-1,-1,-1,-1,-1,-1,-1,-1],"loss_changes":[2.3992133E2,7.219374E1,1.3925903E1,3.4058548E1,2.4328806E1,3.0799568E1,1.3572136E1,0E0,0E0,0E0,0E0,0E0,0E0,0E0,0E0],"parents":[2147483647,0,0,1,1,2,2,3,3,4,4,5,5,6,6],"right_children":[2,4,6,8,10,12,14,-1,-1,-1,-1,-1,-1,-1,-1],"split_conditions":[1.2E1,8.533334E0,7.0373154E-1,6E0,1.1933333E1,1.2E1,1.7E1,1.8946452E-2,7.0885364E-3,7.2975724E-4,2.5947744E-2,9.5146345E-3,-6.6985507E-3,-1.182322E-2,-6.458764E-2],"split_indices":[0,6,10,6,6,6,0,0,0,0,0,0,0,0,0],"split_type":[0,0,0,0,0,0,0,0,0,0,0,0,0,0,0],"sum_hessian":[1.3617E4,8.007E3,5.61E3,3.052E3,4.955E3,5.017E3,5.93E2,4.56E2,2.596E3,4.894E3,6.1E1,1.94E2,4.823E3,5.86E2,7E0],"tree_param":{"num_deleted":"0","num_feature":"15","num_nodes":"15","size_leaf_vector":"1"}},{"base_weights":[-7.3075164E-3,-1.257858E-1,1.2913279E-1,-6.6920534E-2,-2.428986E-1,9.523483E-2,3.648667E-1,-2.4058444E-3,-3.1781916E-2,-9.247138E-3,-3.301697E-2,-1.6816476E-3,4.583623E-3,6.125365E-3,2.6039517E-2],"categories":[],"categories_nodes":[],"categories_segments":[],"categories_sizes":[],"default_left":[0,0,1,0,0,0,0,0,0,0,0,0,0,0,0],"id":70,"left_children":[1,3,5,7,9,11,13,-1,-1,-1,-1,-1,-1,-1,-1],"loss_changes":[2.2236841E2,5.0712364E1,5.100506E1,2.4029953E1,1.6512299E1,1.4867794E1,4.846659E1,0E0,0E0,0E0,0E0,0E0,0E0,0E0,0E0],"parents":[2147483647,0,0,1,1,2,2,3,3,4,4,5,5,6,6],"right_children":[2,4,6,8,10,12,14,-1,-1,-1,-1,-1,-1,-1,-1],"split_conditions":[1.46E1,1.38E1,1.9E1,1.5E1,1.7E1,7.0666666E0,2.581989E-1,-2.4058444E-3,-3.1781916E-2,-9.247138E-3,-3.301697E-2,-1.6816476E-3,4.583623E-3,6.125365E-3,2.6039517E-2],"split_indices":[7,6,4,0,0,6,10,0,0,0,0,0,0,0,0],"split_type":[0,0,0,0,0,0,0,0,0,0,0,0,0,0,0],"sum_hessian":[1.3754E4,7.362E3,6.392E3,4.901E3,2.461E3,5.59E3,8.02E2,4.857E3,4.4E1,2.414E3,4.7E1,6.9E2,4.9E3,4.62E2,3.4E2],"tree_param":{"num_deleted":"0","num_feature":"15","num_nodes":"15","size_leaf_vector":"1"}},{"base_weights":[1.0589696E-2,-1.3386793E-1,1.1065398E-1,-2.572424E-1,-8.908691E-2,1.2075396E-1,-4.3751603E-1,-3.135937E-2,-9.592567E-3,-2.855437E-3,-1.030408E-2,3.3546048E-3,1.0199044E-2,-5.569109E-2,1.1523108E-3],"categories":[],"categories_nodes":[],"categories_segments":[],"categories_sizes":[],"default_left":[0,0,1,0,0,0,0,0,0,0,0,0,0,0,0],"id":71,"left_children":[1,3,5,7,9,11,13,-1,-1,-1,-1,-1,-1,-1,-1],"loss_changes":[1.973962E2,3.0815224E1,4.4689697E1,1.336055E1,1.2184498E1,3.9173874E1,6.517973E1,0E0,0E0,0E0,0E0,0E0,0E0,0E0,0E0],"parents":[2147483647,0,0,1,1,2,2,3,3,4,4,5,5,6,6],"right_children":[2,4,6,8,10,12,14,-1,-1,-1,-1,-1,-1,-1,-1],"split_conditions":[1.4E1,1.1E1,4E-1,9E0,7.745967E-1,1.8E1,8E0,-3.135937E-2,-9.592567E-3,-2.855437E-3,-1.030408E-2,3.3546048E-3,1.0199044E-2,-5.569109E-2,1.1523108E-3],"split_indices":[1,1,8,1,9,1,3,0,0,0,0,0,0,0,0],"split_type":[0,0,0,0,0,0,0,0,0,0,0,0,0,0,0],"sum_hessian":[1.3654E4,5.587E3,8.067E3,1.486E3,4.101E3,7.922E3,1.45E2,4.6E1,1.44E3,3.713E3,3.88E2,6.216E3,1.706E3,4.7E1,9.8E1],"tree_param":{"num_deleted":"0","num_feature":"15","num_nodes":"15","size_leaf_vector":"1"}},{"base_weights":[-9.293454E-4,-9.2686385E-2,1.5818937E-1,-2.2038193E-1,-4.2107496E-2,1.7788847E-1,-1.8444134E-1,-2.5220437E-2,-8.525024E-3,-3.229153E-2,-1.4049935E-3,4.5583276E-3,1.2071969E-2,-3.036932E-3,-3.166228E-2],"categories":[],"categories_nodes":[],"categories_segments":[],"categories_sizes":[],"default_left":[0,0,1,0,0,0,0,0,0,0,0,0,0,0,0],"id":72,"left_children":[1,3,5,7,9,11,13,-1,-1,-1,-1,-1,-1,-1,-1],"loss_changes":[1.9956448E2,5.5961395E1,3.3772987E1,7.099312E0,3.3078106E1,3.7377594E1,1.7773336E1,0E0,0E0,0E0,0E0,0E0,0E0,0E0,0E0],"parents":[2147483647,0,0,1,1,2,2,3,3,4,4,5,5,6,6],"right_children":[2,4,6,8,10,12,14,-1,-1,-1,-1,-1,-1,-1,-1],"split_conditions":[1.6E1,1.1333333E1,9.10259E-1,9E0,-1E0,1.8E1,1.9E1,-2.5220437E-2,-8.525024E-3,-3.229153E-2,-1.4049935E-3,4.5583276E-3,1.2071969E-2,-3.036932E-3,-3.166228E-2],"split_indices":[1,7,9,1,13,1,1,0,0,0,0,0,0,0,0],"split_type":[0,0,0,0,0,0,0,0,0,0,0,0,0,0,0],"sum_hessian":[1.3667E4,8.669E3,4.998E3,2.458E3,6.211E3,4.727E3,2.71E2,4.1E1,2.417E3,5.5E1,6.156E3,3.12E3,1.607E3,2.31E2,4E1],"tree_param":{"num_deleted":"0","num_feature":"15","num_nodes":"15","size_leaf_vector":"1"}},{"base_weights":[-3.2426345E-3,-1.1945508E-1,1.2367375E-1,-5.343773E-2,-1.7368658E-1,1.862637E-1,7.601996E-2,-1.33493375E-2,-1.3073115E-3,-6.7220205E-3,-2.6491502E-2,3.1847656E-2,6.9513856E-3,2.1020468E-2,2.6823357E-3],"categories":[],"categories_nodes":[],"categories_segments":[],"categories_sizes":[],"default_left":[0,0,0,0,0,0,0,0,0,0,0,0,0,0,0],"id":73,"left_children":[1,3,5,7,9,11,13,-1,-1,-1,-1,-1,-1,-1,-1],"loss_changes":[2.0107632E2,2.5448425E1,1.9394547E1,1.8638329E1,1.0561981E1,2.1190521E1,1.4817711E1,0E0,0E0,0E0,0E0,0E0,0E0,0E0,0E0],"parents":[2147483647,0,0,1,1,2,2,3,3,4,4,5,5,6,6],"right_children":[2,4,6,8,10,12,14,-1,-1,-1,-1,-1,-1,-1,-1],"split_conditions":[1.4333333E1,1.3E1,8.2E0,1.1E1,1.7E1,1.66E1,0E0,-1.33493375E-2,-1.3073115E-3,-6.7220205E-3,-2.6491502E-2,3.1847656E-2,6.9513856E-3,2.1020468E-2,2.6823357E-3],"split_indices":[7,0,6,6,0,7,12,0,0,0,0,0,0,0,0],"split_type":[0,0,0,0,0,0,0,0,0,0,0,0,0,0,0],"sum_hessian":[1.3631E4,7.116E3,6.515E3,3.211E3,3.905E3,2.814E3,3.701E3,2.2E2,2.991E3,3.862E3,4.3E1,5.5E1,2.759E3,7.1E1,3.63E3],"tree_param":{"num_deleted":"0","num_feature":"15","num_nodes":"15","size_leaf_vector":"1"}},{"base_weights":[3.6663776E-3,-1.071132E-1,1.298441E-1,-5.7212606E-2,-1.9765574E-1,1.9120716E-1,6.318041E-2,-2.7333478E-2,-2.0358025E-3,-6.6230297E-3,-1.8823871E-2,8.304478E-3,-1.4177175E-2,2.9643336E-3,-5.9679984E-3],"categories":[],"categories_nodes":[],"categories_segments":[],"categories_sizes":[],"default_left":[0,0,0,0,0,0,1,0,0,0,0,0,0,0,0],"id":74,"left_children":[1,3,5,7,9,11,13,-1,-1,-1,-1,-1,-1,-1,-1],"loss_changes":[1.9247809E2,3.3090103E1,2.6298325E1,1.8597683E1,2.265895E1,3.0053871E1,7.170418E0,0E0,0E0,0E0,0E0,0E0,0E0,0E0,0E0],"parents":[2147483647,0,0,1,1,2,2,3,3,4,4,5,5,6,6],"right_children":[2,4,6,8,10,12,14,-1,-1,-1,-1,-1,-1,-1,-1],"split_conditions":[1.46E1,1.4E1,8.866667E0,1.04E1,7.0373154E-1,1E0,9.10259E-1,-2.7333478E-2,-2.0358025E-3,-6.6230297E-3,-1.8823871E-2,8.304478E-3,-1.4177175E-2,2.9643336E-3,-5.9679984E-3],"split_indices":[7,0,6,6,9,2,9,0,0,0,0,0,0,0,0],"split_type":[0,0,0,0,0,0,0,0,0,0,0,0,0,0,0],"sum_hessian":[1.3768E4,7.331E3,6.437E3,4.728E3,2.603E3,3.35E3,3.087E3,4.6E1,4.682E3,2.331E3,2.72E2,3.253E3,9.7E1,2.937E3,1.5E2],"tree_param":{"num_deleted":"0","num_feature":"15","num_nodes":"15","size_leaf_vector":"1"}},{"base_weights":[-1.5097795E-2,1.2636977E-1,-1.0344585E-1,1.6087252E-1,-1.3845792E-1,-2.166121E-2,-1.5459278E-1,9.533608E-3,2.4668574E-3,-2.294921E-2,-3.7329851E-3,-4.5665048E-4,-2.0674122E-2,-5.543858E-3,-1.1757457E-2],"categories":[],"categories_nodes":[],"categories_segments":[],"categories_sizes":[],"default_left":[1,1,0,0,0,0,0,0,0,0,0,0,0,0,0],"id":75,"left_children":[1,3,5,7,9,11,13,-1,-1,-1,-1,-1,-1,-1,-1],"loss_changes":[1.7228851E2,4.8442978E1,3.547625E1,3.59897E1,1.1883013E1,1.6515469E1,1.1551315E1,0E0,0E0,0E0,0E0,0E0,0E0,0E0,0E0],"parents":[2147483647,0,0,1,1,2,2,3,3,4,4,5,5,6,6],"right_children":[2,4,6,8,10,12,14,-1,-1,-1,-1,-1,-1,-1,-1],"split_conditions":[9.933333E0,5.345225E-1,1.2E1,8.333333E0,6.399405E-1,1E0,1.5333333E1,9.533608E-3,2.4668574E-3,-2.294921E-2,-3.7329851E-3,-4.5665048E-4,-2.0674122E-2,-5.543858E-3,-1.1757457E-2],"split_indices":[6,9,6,6,9,2,6,0,0,0,0,0,0,0,0],"split_type":[0,0,0,0,0,0,0,0,0,0,0,0,0,0,0],"sum_hessian":[1.3783E4,5.298E3,8.485E3,4.688E3,6.1E2,3.266E3,5.219E3,2.631E3,2.057E3,5.6E1,5.54E2,3.201E3,6.5E1,4.684E3,5.35E2],"tree_param":{"num_deleted":"0","num_feature":"15","num_nodes":"15","size_leaf_vector":"1"}},{"base_weights":[7.5731017E-3,1.848262E-1,-4.421218E-2,2.2528155E-1,-9.733404E-2,8.345201E-3,-1.3399017E-1,5.7472587E-3,1.6580772E-2,-3.4879453E-2,-6.324048E-4,-6.939195E-5,1.0635476E-2,-3.637696E-3,-8.525037E-3],"categories":[],"categories_nodes":[],"categories_segments":[],"categories_sizes":[],"default_left":[1,1,0,1,0,0,0,0,0,0,0,0,0,0,0],"id":76,"left_children":[1,3,5,7,9,11,13,-1,-1,-1,-1,-1,-1,-1,-1],"loss_changes":[1.2613391E2,3.5500793E1,5.0185448E1,4.1855484E1,2.4526981E1,1.7438385E1,1.3328011E1,0E0,0E0,0E0,0E0,0E0,0E0,0E0,0E0],"parents":[2147483647,0,0,1,1,2,2,3,3,4,4,5,5,6,6],"right_children":[2,4,6,8,10,12,14,-1,-1,-1,-1,-1,-1,-1,-1],"split_conditions":[8.533334E0,5.345225E-1,1.3E1,3.5186577E-1,6.399405E-1,1.2333333E1,3.5186577E-1,5.7472587E-3,1.6580772E-2,-3.4879453E-2,-6.324048E-4,-6.939195E-5,1.0635476E-2,-3.637696E-3,-8.525037E-3],"split_indices":[6,9,0,9,9,6,9,0,0,0,0,0,0,0,0],"split_type":[0,0,0,0,0,0,0,0,0,0,0,0,0,0,0],"sum_hessian":[1.3738E4,3.106E3,1.0632E4,2.717E3,3.89E2,6.706E3,3.926E3,1.9E3,8.17E2,3.6E1,3.53E2,6.454E3,2.52E2,2.545E3,1.381E3],"tree_param":{"num_deleted":"0","num_feature":"15","num_nodes":"15","size_leaf_vector":"1"}},{"base_weights":[-4.415427E-3,-1.0233155E-1,1.0526074E-1,-2.2863466E-1,-6.929362E-2,8.925697E-2,3.7688428E-1,-2.4027457E-2,-7.5836126E-3,-2.222018E-3,-8.707972E-3,4.1246433E-3,-7.3641837E-3,-7.255771E-3,2.1775043E-2],"categories":[],"categories_nodes":[],"categories_segments":[],"categories_sizes":[],"default_left":[0,0,0,0,0,1,0,0,0,0,0,0,0,0,0],"id":77,"left_children":[1,3,5,7,9,11,13,-1,-1,-1,-1,-1,-1,-1,-1],"loss_changes":[1.4636246E2,3.0002647E1,2.7862267E1,2.1480644E1,1.1606491E1,2.3014957E1,3.351707E1,0E0,0E0,0E0,0E0,0E0,0E0,0E0,0E0],"parents":[2147483647,0,0,1,1,2,2,3,3,4,4,5,5,6,6],"right_children":[2,4,6,8,10,12,14,-1,-1,-1,-1,-1,-1,-1,-1],"split_conditions":[1.5E1,1.1E1,2E1,1.4533334E1,8.164966E-1,9.10259E-1,4.266667E0,-2.4027457E-2,-7.5836126E-3,-2.222018E-3,-8.707972E-3,4.1246433E-3,-7.3641837E-3,-7.255771E-3,2.1775043E-2],"split_indices":[1,1,1,6,10,10,6,0,0,0,0,0,0,0,0],"split_type":[0,0,0,0,0,0,0,0,0,0,0,0,0,0,0],"sum_hessian":[1.3627E4,7.2E3,6.427E3,1.491E3,5.709E3,6.071E3,3.56E2,1.4E2,1.351E3,5.227E3,4.82E2,5.779E3,2.92E2,8.2E1,2.74E2],"tree_param":{"num_deleted":"0","num_feature":"15","num_nodes":"15","size_leaf_vector":"1"}},{"base_weights":[-8.0322556E-4,1.22751996E-1,-6.551925E-2,1.5540005E-1,-1.7802955E-1,-2.4952343E-2,-1.7514594E-1,4.2984528E-3,1.1238555E-2,-3.2939177E-2,-4.432225E-3,-7.9046725E-4,-2.0099508E-2,-5.7379156E-3,-1.2569148E-2],"categories":[],"categories_nodes":[],"categories_segments":[],"categories_sizes":[],"default_left":[1,1,0,1,0,0,0,0,0,0,0,0,0,0,0],"id":78,"left_children":[1,3,5,7,9,11,13,-1,-1,-1,-1,-1,-1,-1,-1],"loss_changes":[1.0901182E2,4.6041603E1,3.97693E1,2.5380867E1,1.9731186E1,1.6131348E1,1.0560463E1,0E0,0E0,0E0,0E0,0E0,0E0,0E0,0E0],"parents":[2147483647,0,0,1,1,2,2,3,3,4,4,5,5,6,6],"right_children":[2,4,6,8,10,12,14,-1,-1,-1,-1,-1,-1,-1,-1],"split_conditions":[9.066667E0,5.606119E-1,1.3733334E1,2.581989E-1,6.399405E-1,1E0,4.8795003E-1,4.2984528E-3,1.1238555E-2,-3.2939177E-2,-4.432225E-3,-7.9046725E-4,-2.0099508E-2,-5.7379156E-3,-1.2569148E-2],"split_indices":[6,10,6,10,10,2,10,0,0,0,0,0,0,0,0],"split_type":[0,0,0,0,0,0,0,0,0,0,0,0,0,0,0],"sum_hessian":[1.3632E4,4.685E3,8.947E3,4.227E3,4.58E2,6.532E3,2.415E3,3.061E3,1.166E3,4.2E1,4.16E2,6.463E3,6.9E1,1.969E3,4.46E2],"tree_param":{"num_deleted":"0","num_feature":"15","num_nodes":"15","size_leaf_vector":"1"}},{"base_weights":[-2.8968723E-3,-1.0402147E-1,6.753823E-2,-7.7138096E-2,-1.7602448E-1,4.2486813E-2,2.9856372E-1,-2.6664864E-3,-8.30003E-3,-4.4360235E-3,-1.1775227E-2,2.1231794E-3,-1.8196711E-2,1.3754975E-2,-5.4459784E-2],"categories":[],"categories_nodes":[],"categories_segments":[],"categories_sizes":[],"default_left":[0,0,0,0,0,1,0,0,0,0,0,0,0,0,0],"id":79,"left_children":[1,3,5,7,9,11,13,-1,-1,-1,-1,-1,-1,-1,-1],"loss_changes":[9.70435E1,1.0789322E1,4.642696E1,5.5252247E0,1.1635002E1,3.816201E1,5.9412834E1,0E0,0E0,0E0,0E0,0E0,0E0,0E0,0E0],"parents":[2147483647,0,0,1,1,2,2,3,3,4,4,5,5,6,6],"right_children":[2,4,6,8,10,12,14,-1,-1,-1,-1,-1,-1,-1,-1],"split_conditions":[1.4E1,1.5E1,1.9E1,8.338094E-1,2.581989E-1,6E-1,1.0327955E0,-2.6664864E-3,-8.30003E-3,-4.4360235E-3,-1.1775227E-2,2.1231794E-3,-1.8196711E-2,1.3754975E-2,-5.4459784E-2],"split_indices":[1,0,1,10,9,8,9,0,0,0,0,0,0,0,0],"split_type":[0,0,0,0,0,0,0,0,0,0,0,0,0,0,0],"sum_hessian":[1.3622E4,5.593E3,8.029E3,4.075E3,1.518E3,7.245E3,7.84E2,3.774E3,3.01E2,9.81E2,5.37E2,7.095E3,1.5E2,7.64E2,2E1],"tree_param":{"num_deleted":"0","num_feature":"15","num_nodes":"15","size_leaf_vector":"1"}},{"base_weights":[-5.355476E-3,4.438807E-2,-1.3030832E-1,2.6780468E-1,3.2771878E-2,-7.526987E-1,-1.2433227E-1,-6.1823013E-3,1.5553314E-2,1.5426327E-3,-1.2112695E-2,-1.9876823E-2,-5.5344302E-2,-1.617936E-3,-6.256679E-3],"categories":[],"categories_nodes":[],"categories_segments":[],"categories_sizes":[],"default_left":[0,0,0,0,1,0,0,0,0,0,0,0,0,0,0],"id":80,"left_children":[1,3,5,7,9,11,13,-1,-1,-1,-1,-1,-1,-1,-1],"loss_changes":[8.57399E1,2.5563316E1,1.4428635E1,2.4977856E1,1.822163E1,5.095194E0,1.0448868E1,0E0,0E0,0E0,0E0,0E0,0E0,0E0,0E0],"parents":[2147483647,0,0,1,1,2,2,3,3,4,4,5,5,6,6],"right_children":[2,4,6,8,10,12,14,-1,-1,-1,-1,-1,-1,-1,-1],"split_conditions":[1.3E1,6E0,1.3E1,4.4666667E0,3.3333334E-1,5.9361684E-1,1.3066667E1,-6.1823013E-3,1.5553314E-2,1.5426327E-3,-1.2112695E-2,-1.9876823E-2,-5.5344302E-2,-1.617936E-3,-6.256679E-3],"split_indices":[0,6,3,6,8,9,6,0,0,0,0,0,0,0,0],"split_type":[0,0,0,0,0,0,0,0,0,0,0,0,0,0,0],"sum_hessian":[1.3791E4,9.864E3,3.927E3,4.86E2,9.378E3,3.6E1,3.891E3,1.08E2,3.78E2,9.22E3,1.58E2,2.7E1,9E0,1.078E3,2.813E3],"tree_param":{"num_deleted":"0","num_feature":"15","num_nodes":"15","size_leaf_vector":"1"}},{"base_weights":[1.0842142E-2,-6.342356E-2,9.370642E-2,-1.711291E-2,-1.4716917E-1,5.4104608E-2,2.0249827E-1,-1.9941216E-2,-4.6399186E-4,-4.94931E-3,-1.49941575E-2,-4.864543E-2,2.5779288E-3,8.622186E-3,-5.5572394E-2],"categories":[],"categories_nodes":[],"categories_segments":[],"categories_sizes":[],"default_left":[0,0,0,0,0,0,0,0,0,0,0,0,0,0,0],"id":81,"left_children":[1,3,5,7,9,11,13,-1,-1,-1,-1,-1,-1,-1,-1],"loss_changes":[8.3573784E1,2.7753656E1,2.761871E1,1.2186611E1,1.350552E1,6.1821045E1,3.576307E1,0E0,0E0,0E0,0E0,0E0,0E0,0E0,0E0],"parents":[2147483647,0,0,1,1,2,2,3,3,4,4,5,5,6,6],"right_children":[2,4,6,8,10,12,14,-1,-1,-1,-1,-1,-1,-1,-1],"split_conditions":[1.5E1,1.4E1,1.8E1,1.1E1,7.5592893E-1,8E0,1E0,-1.9941216E-2,-4.6399186E-4,-4.94931E-3,-1.49941575E-2,-4.864543E-2,2.5779288E-3,8.622186E-3,-5.5572394E-2],"split_indices":[1,0,1,0,9,0,2,0,0,0,0,0,0,0,0],"split_type":[0,0,0,0,0,0,0,0,0,0,0,0,0,0,0],"sum_hessian":[1.3578E4,7.16E3,6.418E3,4.612E3,2.548E3,4.707E3,1.711E3,5.1E1,4.561E3,2.312E3,2.36E2,3.7E1,4.67E3,1.698E3,1.3E1],"tree_param":{"num_deleted":"0","num_feature":"15","num_nodes":"15","size_leaf_vector":"1"}},{"base_weights":[-1.4737839E-3,5.1448632E-2,-7.8244284E-2,6.667835E-2,-1.4253056E-1,-7.41494E-2,-5.75497E-1,1.2245083E-3,7.895427E-3,-1.6597802E-2,-9.3522604E-4,-2.8670859E-3,-2.8477507E-2,-1.3413328E-2,-5.951127E-2],"categories":[],"categories_nodes":[],"categories_segments":[],"categories_sizes":[],"default_left":[0,1,0,1,0,0,0,0,0,0,0,0,0,0,0],"id":82,"left_children":[1,3,5,7,9,11,13,-1,-1,-1,-1,-1,-1,-1,-1],"loss_changes":[5.527406E1,2.3789534E1,1.11973E1,3.517093E1,1.8966948E1,8.555466E0,9.178186E0,0E0,0E0,0E0,0E0,0E0,0E0,0E0,0E0],"parents":[2147483647,0,0,1,1,2,2,3,3,4,4,5,5,6,6],"right_children":[2,4,6,8,10,12,14,-1,-1,-1,-1,-1,-1,-1,-1],"split_conditions":[1.2E1,8.164966E-1,1.7E1,4.577377E-1,9.154754E-1,1.6561574E0,2.581989E-1,1.2245083E-3,7.895427E-3,-1.6597802E-2,-9.3522604E-4,-2.8670859E-3,-2.8477507E-2,-1.3413328E-2,-5.951127E-2],"split_indices":[0,9,0,9,9,9,9,0,0,0,0,0,0,0,0],"split_type":[0,0,0,0,0,0,0,0,0,0,0,0,0,0,0],"sum_hessian":[1.3602E4,8.051E3,5.551E3,7.466E3,5.85E2,5.507E3,4.4E1,5.853E3,1.613E3,1.77E2,4.08E2,5.487E3,2E1,3.6E1,8E0],"tree_param":{"num_deleted":"0","num_feature":"15","num_nodes":"15","size_leaf_vector":"1"}},{"base_weights":[1.465813E-3,-7.384912E-2,9.030984E-2,-3.8912468E-2,-1.4924145E-1,